0.0471158958,0.06013962488,0.01400042946,-0.02965009165,0.008757699702,0.01241927574,0.01167739164,-0.002903884441,-0.05771382659,-0.02518830853,-0.02352250094,0.01916405744,-0.05768786356,0.0002543472389,-0.05969740376,0.01848068775,-0.03352332111,0.003263255461,0.02906454229,0.03119068928,0.02275876223,0.01165144086,-0.04549285871,-0.05054617807,0.04724393037,-0.03325732999,0.02112684874,-0.02172530769,0.03319362421,0.02666076273,0.04377060822,0.0310054619,0.0431830592,0.01537695533,0.02187876161,0.01310696381,-0.0673916299,-0.06937029759,0.01091944235,-0.01967137716,0.0224874578,-0.01479505882,0.01930345747,0.006007411967,0.02761964109,-0.06356428894,-0.0334434515,-0.04587122715,0.01065202397,0.009334695009,-0.03808317021,-0.009551381838,0.07758922334,-0.01137597322,-0.05293501792,0.03388782225,0.01951661836,-0.06607690974,0.00322757982,0.05719604515,-0.03459907546,-0.07303265229,-0.008576862671,0.05388286845,0.04525859051,0.09509415309,0.05647662532,-0.007477054806,0.02237876215,0.0190792354,-0.04834882508,0.008890760961,-0.05639783196,-0.08938352004,0.00976121849,0.03269772495,-0.08688928533,0.02877756482,-0.01013766067,0.04170616641,0.007929718979,0.02572356216,0.07291021069,0.03357991855,0.05914997384,0.02424249623,-0.0239248118,-0.01495636183,0.08167304662,0.0017368501,0.03928832818,-0.01067052216,0.05027427716,0.05720346042,0.07927542335,-0.004328557667,0.05875781767,-0.03664422192,0.01476839901,0.04075238925,-0.05378156922,-0.07046489995,0.002949431466,-0.03975029162,0.02640208356,-0.0257919426,-0.01845704516,0.02433021246,0.02451750006,-0.02281786107,-0.05099368475,-0.06827121819,-0.02365907952,-0.002551666767,-0.09647447684,0.01508076083,0.09408172419,0.01258142534,-0.06111788972,0.01978088115,0.02219101589,-0.07487460048,0.04601938116,0.06963120679,-0.01235746748,-0.09657244152,-0.01374302231,0.02145116152,0.05083173961,0.08053659504,0.02613251503,-0.03520235071,-0.0173967735,0.02062193834,-0.06185673693,0.03832960135,-0.0553731061,-0.03148299933,-0.01246841603,-0.0257698687,-0.03280248162,-0.03561312269,0.002387228859,0.03530034825,-0.02850582469,-0.01547480179,0.01864628681,0.03442419894,0.02999901307,-0.01899153727,-0.05217915937,-0.03647201637,0.04036968831,-0.007094689284,0.046226507,-0.009250648197,0.0323210683,0.01830253647,0.02898999362,-0.007116331684,0.08798151042,0.005554911257,0.05151525382,0.02261895292,-0.08160082431,-0.09380793297,-0.01240216438,0.0003405491181,0.007343470765,-0.02522068799,-0.00271653811,0.009184625718,0.02472066449,-0.06917531868,-0.08857944267,-0.01496529389,0.02633702103,-0.02466815531,-0.07358306527,-0.02345748437,0.08962956051,0.01118278709,-0.04534719969,-0.006023457947,0.04886247558,-0.1145452264,0.05028761192,0.02851736637,-0.05001075538,-0.0788733509,-0.04322742581,-0.0004547621307,0.009392400756,0.04748424248,-0.0124303393,-0.01115086897,-0.0409634006,0.01979118734,-0.03187932232,-0.009375676543,-0.06943888456,-0.04607823232,-0.03466958914,0.0173766346,-0.007700932191,-0.03537064163,9.178186144e-05,0.05287244537,-0.01638383687,0.03745555991,0.03243773487,0.01810985564,-0.0101748155,0.02662864823,-0.02437280336,-0.003090293355,0.01091856674,0.0002323950618,0.01936255678,-0.02423376541,0.005964256484,-0.01241088913,0.04242973304,0.01520306628,0.05099328777,0.0239940479,-0.01655261609,0.02516147594,-0.02256873325,-0.04639660536,0.004647570638,-0.01205549489,0.01249996315,0.003158119724,-0.02576942545,-0.0237896648,0.03170937089,-0.05130175353,-0.01402577497,-0.02419556424,0.0134760181,-0.0132146703,-0.05309570771,0.02296411023,0.04724403483,0.02953886959,-0.003602929262,-0.02734090677,0.02644787045,-0.03029790208,0.03636407315,0.03536385926,0.01282369219,-0.008806844083,-0.01344649147,0.04071490111,0.01485083878,-0.01336901246,-0.02220726791,0.03151127137,-0.02344527745,0.01019752376,-0.03076907378,0.01477147096,-0.02723801236,-0.01372278622,-0.002575863447,-0.01020706188,-0.01392464794,0.01094574485,0.02978818723,0.01429494057,-0.0349888401,-0.006325289206,-0.001258253602,-0.0139422528,-0.01876246075,0.01104721029,0.05601017925,-0.006454061371,0.02000016583,0.02698961858,-0.03161490905,0.01652717212,0.01798153399,-0.03783884456,-0.03002518822,0.02073787914,0.02498376916,-0.01200550329,0.02111836621,0.02398618522,-0.04206831134,0.02193423906,-0.01668865839,-0.00449485024,-0.002062465634,-0.0226843106,0.005985707033,0.00969476539,0.0243910666,0.0331692997,-0.005068521898,0.02989811955,0.03491522809,0.0005573962957,0.01577551335,-0.008391601298,0.01358339973,0.01245070142,-0.01167152882,0.005262889963,0.007284244746,0.0228278818,0.02386404589,0.006462535125,-0.02629905112,-0.02474042826,0.003327931137,0.0091154042,-0.01190579044,0.01914139695,-0.03431580626,0.003691506519,0.006621803203,-0.008851518736,-0.005397170391,-0.03402798565,-0.01772443944,0.06372115025,-0.01545517585,0.02850808652,0.03273910715,0.01942456605,0.003568871015,-0.02256495216,0.01926176777,0.01935045931,-0.03566878196,-0.0003243766534,-0.01882819842,0.007952666318,0.002726091688,0.03587566096,-0.01920183651,0.03760044484,-0.02957835641,-0.028394583,-0.0009574322113,-0.02157577881,-0.00227319598,-0.04575054998,-0.02152020146,0.0004849720957,-0.04334750092,-0.0142831833,0.01485697934,0.02422170437,-0.0127991066,0.01510069279,0.01565726837,0.0008510721716,-0.02415373216,-0.005335280905,-0.03602117384,0.03530411853,0.01393899944,-0.01522590378,-0.02363899521,0.02004371051,0.05715212353,0.02388758549,0.008574169378,-0.03034351765,-0.01896554372,-4.805470353e-05,-0.01661004205,0.009204389974,-0.0003223119115,-0.05231112478,0.01685410182,0.05866730043,0.01588856978,0.01525553337,0.02227405823,-0.01619513837,-0.04490211801,-0.006244973991,-0.02076924187,-0.01449855121,0.01156344018,0.003141313179,0.03582974752,0.06027467515,0.005991927499,0.000701601747,0.05636511625,-0.02762565961,-0.01812183314,-0.01668040965,-0.01074958822,-0.04861798582,0.002422937837,-0.01535813224,-0.02020008114,0.03069984575,0.005191801909,0.03865196909,0.006848620633,0.03342305079,-0.01108022609,-0.009021957258,-0.02922810379,-0.02258006726,-0.002739095167,-0.03134686796,-0.06119678453,0.02745475505,-0.04460005096,0.007782774397,0.05549594737,0.02723627997,-0.02701627232,0.05205068311,-0.004994940445,0.0080342262,-0.01859436604,-0.02888031887,-0.04204965586,0.004181029774,0.03288382145,0.02086742183,0.009233910008,0.004551683295,0.008097317238,-0.01466092457,-0.0266832205,0.002961313041,0.04158678523,0.03464575703,-0.04049825499,-0.003738210345,-0.01746231618,-0.04100553764,-0.005867807665,0.00696797333,0.04179640531,-0.02377987402,-0.05289553638,-0.03035776078,-0.001978743261,-0.02177776703,-0.02591188069,-0.0138879216,0.0005100193398,-0.01739990022,0.05499444888,0.05650323329,-0.004035522252,0.005655868014,0.01093765741,0.015443714,0.02815690758,-0.00544315922,-0.0200409205,0.01590578606,-0.02850952497,-0.01750603588,-0.03883472895,-0.03462767935,-0.002569635553,0.02325721392,-0.04122446927,0.005273731369,-0.02862234879,-0.006197973055,-0.04619339339,-0.05430657594,-0.04490005283,-0.007405127109,-0.03002025056,0.002755606717,-0.0002252859871,-0.003777554291,0.03935523695,0.06076182357,0.01547250083,0.001938495212,0.01544439353,-0.02910138413,-0.02477084043,-0.02744467456,-0.006379738511,0.002376489218,0.02202549024,0.02377985913,0.03351086294,0.03231503474,0.04488903982,-0.002436452622,0.001523026782,-0.008883407533,0.03448737167,0.0215326092,-0.04463279099,0.0498222236,0.008897693937,-0.02969805765,0.04978234728,0.03703178904,0.01005374972,-0.01266365003,-0.02103670224,-0.04469569875,-0.007962739416,0.02803549812,-0.02687133934,-0.03773538125,0.03412033837,-0.03227446174,0.01571330401,0.009111306714,0.01804229226,-0.01085910812,0.0601035767,-0.02116996246,0.0583808554,-0.02546293175,-0.02575254985,-0.04073787097,-0.04015250983,0.01106770152,-0.01073253808,-0.01284153048,0.06152607285,0.02520603142,-0.01975614232,-0.02203459832,-0.04748416958,-0.02993270299,-0.03812744839,-0.0153682119,-0.02450778994,0.001051739407,-0.02525018577,0.03138428565,-0.04272849544,-0.02198532625,0.06857816156,0.06635691926,-0.009330973683,0.02466891179,-0.01979144572,-0.0291573705,0.02005513842,-0.03312422587,-0.01366444309,0.01354806561,0.04504252701,0.03160110289,0.03276229514,0.01257199958,0.04589632802,0.03271351116,-0.06989303266,-0.03394197501,0.04536637506,-0.01733578017,-0.04849389622,0.03791119909,-0.02612927927,-0.05623243939,0.05189005398,0.03699171166,0.0009146714989,-0.04319999002,0.01580211627,-0.0007482100043,-0.03364243601,-0.003425369025,0.02624066047,0.0166363342,-0.02240641529,-0.01329090374,0.03185937614,0.02313321266,-0.009071951589,0.01395913264,0.04320900786,0.003071667332,0.009697351225,-0.0258033382,-0.01931505701,0.01325723165,-0.04360961519,0.02099538566,-0.00977014659,0.005406866942,0.02802163553,0.023144832,-0.05897526186,0.02900249422,-0.04010698053,0.01782001818,-0.008841942435,-0.01519356052,-0.05303669496,0.01761977183,0.01451406041,-0.007210160784,-0.01432993633,-0.01816445683,0.02757766206,0.02551318111,-0.03191900751,0.02453053088,-0.0002528898633,0.02879402972,-0.01662228788,-0.03014978501,0.007886480051,0.00695087483,0.02280753389,0.0394641879,0.02917113731,-0.01070640378,0.02153271712,-0.01793533712,0.01704639897,-0.03275946315,0.03978320595,-0.03528028746,-0.008533613709,0.01572843372,-0.02809369442,-0.04527331913,-0.0007122281909,0.03926453519,-0.02177812287,-0.03843483149,-0.01918261612,0.02633235173,0.01359013613,0.004918186826,0.001897454141,-0.006483682036,-0.02368284913,-0.01909400202,0.04916981835,0.005845499828,-0.01540280045,0.02512245033,0.04572956276,-0.01206645034,0.02789499965,0.01954541595,-0.02001406098,0.005174606153,-0.008510788246,-0.0212735909,-0.02819058655,-0.02711168857,0.01759278786,0.009960518177,-0.01235367821,-0.03540426917,0.02206181287,-0.03577392972,0.040585556,0.003167243265,-0.009008988305,0.00750534816,0.002437179306,0.01378811752,-0.005666571747,0.008620005606,-0.03781447028,-0.03144449408,0.007830880646,-0.02386461043,0.02414777476,-0.01101238039,-0.006445538785,0.01571203106,-0.02906601707,-0.05514553747,-0.03730682826,-0.002208010845,-0.01726066235,-0.002385504111,0.001081018339,-0.005099391732,-0.01324760625,0.02606745146,0.0525692228,-0.02540950086,0.007247826506,-0.009940335183,-0.03160088424,-0.02636276736,0.02472789211,0.01553674508,-0.006014162089,0.007534565797,0.03696347968,0.04259497044,-0.01785766141,-0.003315445935,-0.007320160353,0.005923338801,-0.05904211128,-0.004474918083,-0.02308507107,-0.03769882971,0.00474758243,0.01128318101,-0.04129484784,-0.02828417139,-0.03683264923,0.04211559645,0.007156214467,-0.017797097,0.07019342182,-0.01643219841,0.01442769015,-0.004900708442,-0.04805346056,-0.04184802653,0.01193082112,-0.03802302493,-0.008249153995,0.02643653182,-0.0008739932655,0.04921843229,0.02088386207,-0.01788231073,0.06147053444,-0.02023975948,0.009808511691,-0.01124333239,-0.05746529725,-0.02827741727,0.03652765442,0.02211174174,-0.02396355764,-0.03574728219,-0.03016894593,-0.009132655457,0.001447390338,-0.08152985631,-0.04720509657,-0.05555963117,-0.003670618404,0.02692335749,-0.05682168168,-0.03247298774,0.08470908767,0.02756028731,-0.01270953344,-0.01999112674,0.0714052418,-0.04004493338,0.01808062163,0.03260210503,0.02510303743,-0.04879346262,-0.02452638093,0.02139194713,0.04461885426,0.08596373263,0.01361573901,-0.0009868281259,-0.04007170848,-0.03302378351,-0.05414381921,-0.01718257741,-0.0888726161,-0.1094893844,-0.003662430704,-0.0252599029,-0.08078170725,-0.006207174873,-0.005724831519,0.05165633521,-0.01281233281,-0.002426834859,0.06066277365,-0.02230786292,0.1010596704,-0.01684794863,-0.04906864701,-0.09254226714,0.05288735398,-0.01181129878,0.005471199839,-0.001313341973,0.06585930318,0.06993480986,0.08030817608,-0.008389611482,0.09137024329,0.01666557469,0.0659086878,0.06342665989,-0.08274614978,-0.07588845039,0.02794403844,-0.0167408678,0.03769931361,0.01876166264,-0.02184760798,0.0117114296,0.03843611295,-0.1132360256,-0.07621266201,-0.101318045,0.03563026918,0.01493127822,-0.1123867925,0.01935343203,0.09082761251,0.009143783394,-0.03698635668,-0.03350891068,0.03165705794,-0.07993271206,-0.008524517514,0.09540267002,-0.04874803176,-0.09488510235,0.005062707764,0.04161765524,0.07300841362,0.04971148283,0.02567411644,-0.01244278278,-0.006956477882,0.002726015814,-0.05789461987,-0.001598009579,-0.0397996932,-0.07430139077,-0.0005192296924,0.001964506874,-0.09698381817,0.0305701419,-0.03712810355,0.04193295938,-0.02137523715,-0.008755643183,0.07182904026,0.0160403581,0.1088590004,0.02822577739,-0.06092309069,-0.0747896614,0.06603841952,0.006017585288,0.05451372008,0.0005358285252,0.06898819115,0.08077197893,0.07733143689,0.02801152758,0.06369508533,-0.0105083205,0.05065051092,0.07875842192,-0.0705792867,-0.1277562024,-0.01811006357,-0.02477927242,0.01715494603,-0.02171778365,0.03309688085,-0.02026928893,0.03824662809,-0.03934324919,-0.08328843506,-0.07881213555,-0.0171928318,0.01639329323,-0.08340191177,-0.02623425155,0.06086364545,-0.01325294436,-0.03526181615,-0.01199864036,0.06059581253,-0.09540765282,0.01806896439,0.06584164048,-0.02458708729,-0.06637421552,0.008359265884,0.01714118276,0.03326037637,0.04217043714,0.03650929255,0.02262000097,-0.002615450188,-0.0191107935,-0.003013785503,0.01415008176,-0.05702634975,-0.02278390639,0.02040590595,0.004840538524,-0.046914356,0.01182106758,-0.03223097389,0.032337013,0.0307519078,-0.02544576525,0.009901992515,-0.02852241058,0.07173602904,-0.02532896521,-0.05749441357,-0.03965184674,0.02124584839,-0.02338197328,0.05591301135,0.03288052043,-0.001629265998,0.05476234791,0.05991807473,-0.02326402922,0.009980532018,-0.02326781101,0.02036907435,0.01407100994,-0.02430030793,-0.09694479875,0.02590167787,-0.01453414849,-0.0020258335,-0.02869255343,-0.02311509153,-0.006399210509,0.06113660358,-0.07752143366,-0.03827673881,-0.02455326243,0.007062385318,0.02322362185,-0.07891810602,-0.003410650927,0.09336928603,-0.01923058423,-0.007166934218,0.01675581064,0.01928651578,-0.1011672612,0.04282586373,0.0306220679,-0.005359654839,-0.02344503089,-0.02412689839,0.02355723368,0.06160436053,0.07284137931,0.02841210486,0.007170892514,0.01623293765,-0.0004138120483,-0.05472958182,0.01877300716,-0.0624750226,-0.03048982668,-0.0336051318,0.02960152537,-0.05210767507,0.02204165955,-0.02819331168,0.04545615232,-0.0199375077,0.01017662108,0.0810124823,0.01828852807,0.07237395982,-0.02661061177,-0.06730681191,-0.03578789509,0.04092989266,-0.0003015027262,0.06710907752,0.01308700479,0.0279014815,0.03428088731,0.07443721876,0.02627441905,0.03971060139,-0.04208909057,0.01950605282,0.06384084043,-0.03419383085,-0.1170455091,-0.005312264891,0.004945653859,0.03808584444,-0.006289593956,0.02796793586,-0.03036877815,0.0766432254,-0.02492123192,-0.03942314937,-0.0861122917,0.02845597224,-0.01374132433,-0.09498790906,0.007028096034,0.06903103599,0.01688341296,-0.02180927615,0.01982562853,0.02511171608,-0.08870385547,0.002172057552,0.06219889647,-0.05378227111,-0.04374946291,-0.0369412756,0.04476868954,0.02620653942,0.02469516039,0.03549284001,-0.009824790868,-0.03812191073,-0.01603214012,-0.01394705856,0.03249249162,-0.04087459842,-0.04634742187,0.02982790038,-0.0302284881,-0.02426590236,0.02525983673,-0.05372385631,0.06675241535,0.0207691718,0.005968286936,0.0774872138,-0.01508589962,0.05488131823,0.009872543456,-0.03757591372,-0.0795180162,0.06242090044,-0.003791458602,0.06918634289,-0.02550074281,0.05455264945,0.01868993062,0.06826889944,0.03416027605,0.06062210034,0.01792225984,0.00294785737,0.0542372163,-0.06142333172,-0.0972330772,0.01070719015,-0.006668833036,-0.01531113269,-0.02936982933,0.02497090539,-0.001320615942,0.04665554226,-0.05451928861,-0.07220783499,-0.05248604245,-0.01583404224,0.01706693,-0.08935431281,0.03133041446,0.05163988844,0.01621479472,-0.03303357436,-0.02194933684,0.06046112892,-0.08761111717,0.05637222964,0.03646718636,-0.0604553758,-0.03059396548,-0.001233958474,0.04214519753,-0.01011008214,0.0739304492,-0.004985097325,-0.008437829116,-0.009862118962,0.01163833911,-0.02407506259,-0.03232202196,-0.04043011333,-0.04960518646,0.001175916697,-0.006232228189,-0.0093780222,-0.01537051567,-0.02081383262,0.01340746213,-0.02567503923,-0.0008123862323,0.008407600753,0.006495995777,0.02455604206,-0.01917392631,-0.01942330428,-0.06202378907,0.02360627472,-0.02577565447,0.04155389752,-0.01475745602,0.02543022889,0.02082005139,0.01760987957,-0.004115081292,-0.002693608507,0.008524901593,-0.006210625382,0.008204354247,-0.07062611802,0.01555773369,-0.03337677773,0.03225190631,0.02382435361,0.003232431933,-0.002680420926,0.02635741517,0.04737850911,-0.005214621948,-0.03886919144,-0.008661346047,0.01058771915,-0.02854934934,-0.009901721453,-0.01302461714,0.01473166385,-0.03261892879,0.01427677424,0.00202726489,0.05081288944,-0.02539954168,0.03620137602,0.05089556728,-0.02997391675,-0.05517884315,0.0162817344,-0.0139223562,0.01699415553,-0.001717719045,-0.01039414477,-0.01233228342,0.009181152029,-0.02265598654,-0.02529693301,-0.006217025055,-0.01852768539,-0.02687609663,-0.01315020922,0.01906524611,0.001299854224,-0.03004100062,-0.002330325283,-0.02366760948,-0.01568377507,-0.0324939782,0.03393437998,0.01443214309,0.0004963299664,0.0150895544,0.03093419276,0.02111023798,0.02228662471,-0.02059604726,-0.008414472002,-0.02255839848,-0.00678755429,-0.009410530767,0.02106415685,0.01259329918,-0.02001767402,-0.02977439773,-0.002783603532,0.01383823507,0.01841145039,0.04487907808,-0.01771311848,-0.001618413516,0.0145097441,-0.02974831323,-0.02899352348,-0.01948250071,0.01677539468,-0.02660028791,0.02640205566,-0.03028844757,0.009168134009,-0.01253875032,-0.01571521341,0.02057052766,0.004631601616,-0.03167801457,0.01756166692,0.0004078353978,0.03529049115,0.002289724109,-0.01871540385,-0.02304994002,0.003126658003,-0.0199233257,-0.01199934921,0.0002009967572,-0.0177728426,-0.03871007958,0.02515574493,-0.005630223484,-0.003149215437,0.008470991675,-0.01467455494,0.01555245007,0.02944162986,0.04505932071,-0.0353062012,0.0006293642642,0.02067983669,-0.005974265972,-0.01664601764,-0.03664578764,0.02072898089,-0.01905645754,0.01848038137,-0.004821213064,0.005602603879,-0.03013280935,0.02283967744,0.01776092738,-0.03669823023,0.02470200283,-0.02544796485,0.01967992272,-0.03477041227,-0.0219143496,0.006466322683,-0.03720418007,-0.02227007088,0.01441116994,-0.05250370034,-0.02917741174,0.004375195519,0.01328665787,-0.02607019659,0.0341086504,0.01312329715,0.01094500324,0.01423111887,-0.01310048794,-0.04297386437,0.05270258064,0.008859376593,0.008805266537,0.01847473353,0.02632206895,0.003525916371,-0.02140800428,-0.01613661989,0.02420657641,0.001490505051,0.02023130039,0.005504899847,-0.008344039644,-0.03310245008,-0.03400550818,0.02099703048,-0.02268909917,-0.01269476487,0.01908059175,-0.02636570979,-0.03383221549,0.01519247908,-0.01571789241,-0.0238103506,0.02718897901,-0.0174294793,-0.0380392861,0.01992878473,0.05669890173,-0.0109857137,-0.02219836612,0.003615169588,-0.01244716082,0.01757962395,-0.0498630976,-0.01784094758,0.02769600467,0.003254473551,0.02013259783,-0.03836213521,-0.03028170342,-0.01195443729,0.01045089902,-0.02591651892,-0.01194495377,-0.005695787193,-0.03378559073,-0.03338854341,-0.04184958787,-0.02222428679,-0.03420560625,0.0009585369582,0.01632207382,-0.03147932188,-0.009525786629,0.04788047064,0.01926633289,0.00795355108,0.0428014771,0.01317948557,-0.0004126476247,0.001876618246,-0.0302150972,0.009255181513,0.05576684899,0.02304648982,0.02658047897,-0.01722088295,-0.01052777222,0.04478620682,0.008741126545,-0.05636907259,0.03544899082,-0.02660712037,0.03067482734,-0.04013525133,0.03031247484,0.0002429739679,0.01608489672,0.001027671609,0.02166406977,-0.02730467141,0.01018357636,-0.02591419884,-0.03311068189,-0.02219494906,0.0006852566217,0.01968294207,-0.006247454884,0.01384268553,0.009312687238,-0.01860003176,0.03836130377,-0.01745555039,-0.008002861025,0.01297504828,0.02363736816,-0.02326619854,-0.01345807274,0.02216810097,0.03345396054,-0.03968441034,-0.01058074554,0.0008132813344,0.01483727816,0.001146675984,0.02896137711,-0.01162443368,0.02611394897,-0.006566315207,-0.005984471642,-0.03227659248,-0.002645968508,-0.04334746691,-0.02369444782,-0.05846421555,-0.04025469974,-0.004417613205,-0.02413753466,0.03787259942,0.03936005378,0.001374959649,0.02103660958,-0.01752161128,0.02601364513,-0.03342692772,0.006925771519,-0.0306733146,0.04501853606,0.03046262463,0.02574682765,0.004195942603,0.02649083372,0.0491314746,-0.03176365271,-0.04471520002,0.01817246134,0.0173129096,-0.02238170994,-0.01636697129,0.03279339978,0.0151484564,-0.03497147274,0.01192417876,0.01459892359,0.001616714197,-0.03951076453,-0.02210641123,-0.003901783606,-0.02966674887,-0.04627786177,-0.01511675632,-0.04265761065,-0.01509415596,-0.0204112651,0.0316384071,0.0377959166,-0.01112946816,-0.01597444633,0.03271554917,-0.04085721977,0.05813077034,-0.03943065295,-0.0006821513134,0.002830691365,-0.04159068124,0.01301371082,-0.06554364281,-0.0003577202769,0.06406066576,0.007786242265,0.001886278409,-0.02545733845,-0.006983381379,-0.01119171477,-0.01443630441,-0.03053694469,0.0058853096,0.03822245978,-0.03612870461,-0.02099028257,-0.02148309122,-0.05457454383,0.0548209192,0.008655189377,-0.01733250731,0.04570048768,0.02866522418,0.01877704512,-0.007824150084,-0.02805100042,-0.002722131082,0.05063383316,0.02103856951,0.05195370112,0.01629768285,-0.01049659373,0.0263053378,-0.002902105348,-0.02605149407,0.03408280032,0.02827783699,-0.02063331786,-0.03824364304,0.03454467606,0.0101949534,-0.03663896493,0.04125095931,0.004702797905,-0.0338991607,0.00951523175,-0.0112726614,-0.04168829639,-0.0279678378,-0.04100317305,-0.03295489964,-0.04770781996,0.01229432061,-0.03307377499,0.02356783904,0.007501518853,-0.02614726158,0.01026327072,0.03179607487,0.0005922958057,0.03702356961,-0.02823353101,0.002150421645,0.01462552239,-0.008002265965,0.0365603001,-0.03447646723,0.03059307731,0.02278261883,0.03667042696,-0.01859289386,0.006641406929,-0.02934111774,-0.01635246361,0.01258991637,-0.01765014664,-0.003549697833,0.0317992672,0.01498097789,0.009114847923,0.01848704831,-0.003109429233,0.02638882044,-0.00423097892,0.02593357991,0.01364877338,0.004737400581,-0.02901950222,-0.0102757777,-0.02078191041,-0.04560789251,0.0009711712759,0.03035569003,0.0440878495,0.03269965626,-0.03324721805,0.03794808189,0.002272200721,-0.04502075934,0.01078232259,0.0008709683866,0.003541552535,-0.01766432524,0.04207449113,-0.01285451435,-0.00785896657,0.03543273877,0.03037220111,0.02092510737,-0.0414737377,-0.00901509775,-0.002105904945,-0.05174449721,0.0182190178,-0.01567842123,0.003200957195,-0.007439397315,-0.003606377435,0.0463839473,-0.0202524326,0.007509758351,-2.428073972e-05,0.04404257717,0.02046361592,0.05397326193,-0.0361509227,0.02783354636,0.0112681402,-0.04474464996,0.03359365954,0.002312106215,-0.0241062384,-0.01139569127,0.04598634212,-0.01983140943,-0.02631096672,0.02838698217,-0.002127410838,0.03286897995,-0.02997816453,-0.0180641076,0.02968402116,0.02533494044,-0.01409355446,-0.01602557968,-0.01874775596,-0.044616471,-0.01554047272,0.03261465486,-0.01160906774,0.003062164828,0.002620608337,0.0251551264,0.009426898381,-0.02465392464,-0.003205744569,-0.01411636352,0.03055801119,0.02483671652,-0.01088106125,0.01622924284,0.0101439329,-0.02083877422,-0.0064663452,-0.002651429783,0.002668608119,0.01491530338,0.008570300379,-0.005912311694,0.004056102057,0.05879095354,0.01199827513,-0.01814031355,-0.01640996693,-0.001566107346,0.05253242218,-0.03032718358,0.02433728226,0.01854750282,-0.002160060605,-0.007863430739,0.03420164712,-0.0445232946,-0.06750602361,-0.03655457476,0.02960248518,-0.02987275263,-0.01343927419,0.01621870795,0.04855475635,0.01140739309,0.03775332813,0.05385528688,0.01908354849,0.06668348409,0.02902906664,-0.01346610639,0.001097040907,0.01153904625,-0.01114308848,-0.0002835093715,-0.01419005029,0.01006937483,0.04508374225,0.02997118495,-0.03289172065,0.0734707084,0.02749338728,0.01705803337,-0.004447473761,-0.0490523186,-0.04181386472,0.01564181909,-0.04394811653,0.0233668568,0.005152035405,0.03166680782,-0.03101186304,0.01391308622,-0.07751629851,-0.0526128507,-0.06289003497,0.01842754103,-0.02886639697,-0.06314414028,0.01272060502,0.02238865824,0.01266591687,0.004898016743,-0.03222344387,0.0412625957,-0.009810566446,0.02677582028,0.04858823772,-0.01592241107,-0.08850217908,-0.01669376841,-0.01557948204,0.05057669722,0.06821094379,0.0633393061,0.01062581964,0.02898523922,-0.003349867977,-0.03300695936,0.02967932413,-0.09059591815,-0.1030581046,-0.01627392177,-0.006995428939,-0.08036097098,0.009046353527,-0.001435025668,0.08743374612,-0.01855718447,0.02858445439,0.06881873241,0.02166639106,0.1231307773,-0.004564856474,-0.07118232119,-0.06997695826,0.0845425698,-0.03691762146,0.05669416754,-0.02259856906,0.07148091977,0.1035643683,0.1035633782,0.004844806859,0.06341911735,0.01734637557,0.02158037614,0.03633238602,-0.09432162962,-0.1130426395,0.01010058938,-0.02999291205,0.01494493578,0.0183938957,-0.01306071127,-0.005041012641,0.09108450255,-0.06872918412,-0.1027814006,-0.09859942743,0.01059118652,0.03057248031,-0.1006094872,-0.02277127649,0.1241934434,0.01716224145,-0.01938190315,0.02894265351,0.08581061712,-0.08356676778,-0.01084420158,0.08577430173,-0.02360701685,-0.1205554469,0.002864120651,0.03785708097,0.02576541313,0.1113937199,0.0666853453,0.002215464628,0.01873902956,-0.01971537547,-0.05542682284,0.001726366737,-0.0731234859,-0.1034734167,-0.01722974773,-0.008830445659,-0.1212636839,0.03074103741,-0.0834753974,0.06113798494,-0.007822095684,0.003958491254,0.08339622269,-0.01372699976,0.1109766521,0.008371181416,-0.1263452932,-0.08371118822,0.08978006367,0.0009300698366,0.00881474131,-0.03414086972,0.01899118605,0.05141155128,0.08224653077,-0.005076999129,0.08079583087,-0.01666407996,0.03831202086,0.09110034813,-0.1090825655,-0.1232563153,0.02375142766,-0.01072858419,0.01554506203,0.03453281324,0.005232362837,0.003845890181,0.06825123412,-0.116579998,-0.09712455107,-0.05882525282,-0.03078807568,-0.02633629524,-0.09383433908,0.01920197735,0.1161229264,-0.01595404821,-0.06531195231,0.01043572008,0.09287551263,-0.1396836567,0.03853967373,0.0890167987,-0.07367371679,-0.1050043049,-0.01720140531,0.02956469098,0.06568593078,0.02399262991,-0.002617219789,0.002724780367,0.01095435066,0.02265933815,-0.03482230517,-0.01350516867,-0.05186426939,-0.005404418723,-0.01617714043,-0.01859349586,-0.01704623224,0.004770438781,-0.05059381192,0.01831212144,-0.01784122561,-0.01501919574,0.00228954917,0.03662337394,0.02684182798,-0.007407726988,-0.0619558968,0.00688312783,0.02933193883,-0.02469356237,-0.005701287307,-0.02360368484,0.04295706682,0.0311908722,0.06338169582,0.001341435378,0.05233295374,-0.03422545413,0.05130850859,-0.0007115196309,-0.01950124966,-0.07334833872,-0.006713109201,-0.02575367023,0.001642680891,0.008953142687,0.01226110865,0.01199617561,0.04445331591,-0.05776623801,-0.07577404749,0.008347410174,-0.01079684278,-0.02451939378,-0.04476045873,-0.01268888014,0.01207671658,-0.02721521935,-0.005989474347,0.007391708761,0.002214123114,-0.03779807111,0.006526470229,0.01788796182,-0.002951028822,-0.0501827574,0.005927126965,0.02659877301,0.05543681754,0.05111526078,0.0563220764,0.01770846924,-0.02084438137,0.00884360017,-0.04450147012,-0.01402938969,-0.02648396704,-0.01630608093,0.02401365082,-0.03303933778,-0.0582751785,-0.008135352724,-0.02015536718,0.04990820601,-0.02639508169,-0.02186907395,0.04073142813,-0.01792302563,0.009075659294,-0.02028600233,-0.05350636098,-0.06825501412,0.06565562343,-0.001833968581,0.02037114474,0.01443520445,0.04237866437,0.03947997339,0.06105123394,-0.005525083714,0.04163517639,-0.02427755095,-0.01425110966,0.06223087288,-0.02716557521,-0.06975115111,0.01299823689,-0.02423801299,0.009756516178,-0.03304007836,0.005261474727,0.02149471023,0.03291346109,-0.0003575928131,-0.08006897847,-0.05595779689,0.003451361905,0.005017884568,-0.05610427187,-0.01939119962,0.06522635637,-0.01900240677,-0.04725810763,-0.01651934869,0.04828182229,-0.09664186435,0.02587183563,0.02278831269,-0.0280844948,-0.07278455401,-0.01001730595,-0.006309996951,0.03410434684,0.04266709827,0.03456236228,-0.01999230935,-0.02078221117,-0.01828741921,-0.007117275464,0.0239874748,-0.04296768371,-0.0191174182,0.002383283294,-0.0106968973,-0.05501741854,0.001563062922,-0.00982067905,-0.0004139530735,0.01573525445,0.002848622729,0.01725154875,-0.02909767357,0.02319965886,-0.03026438097,0.008899295383,0.005721392313,-0.01259250288,-0.01603667448,0.009703496897,-0.02778059106,0.04622363835,0.0419210283,0.03353516007,0.03337300393,0.05074499301,-0.01087289393,-0.02220018208,-0.01028849411,-0.03886057533,-0.002712437593,-0.00712235224,-0.02715018557,0.04179506496,0.03309640014,0.02100499792,-0.03452559413,-0.008911206524,-0.008951316315,-0.04729907946,-0.02597284441,-0.03012528055,-0.02702761496,-0.03001624811,-0.02006182819,0.04132971414,0.02529083722,-0.03794884074,0.02160919078,0.008376713548,-0.04716156829,0.01178021687,0.003307537648,-0.005635286187,-0.03267508507,-0.04183883396,-0.02681137619,-0.02648102393,0.03648139631,-0.01244739037,0.008337800219,-0.008521959752,-0.03269626396,0.01940232878,0.03026326886,-0.03108410153,-0.04119897198,-0.004164709237,0.01617196079,-0.007204252109,-0.02730216175,0.01696682725,-0.001855652518,-0.009988613404,-0.02787895928,-0.02328044744,-0.0246264307,0.01559525441,-0.01882119239,0.01115528596,-0.002108674141,-0.03616278396,-0.04214260382,0.008422591372,0.02149175551,0.03675672961,-0.02573435904,-0.02941707062,-0.007416498287,0.03332162081,-0.0417390731,-0.00732462656,0.0118595906,-0.04417307781,-0.009449921675,0.009913906429,-0.008548685829,0.02043624262,-0.02646327007,0.01378918893,-0.02903858185,-0.0161721863,-0.01293455427,-0.02566246195,-0.01110470682,0.02415209664,-0.02335406316,0.03987537127,-0.01729373128,-0.01263837492,-0.005668411171,0.03377363171,0.003639043276,0.05368000486,0.03153055816,-0.04641337645,-0.009584551036,0.03616919979,-0.009518783939,0.01097103133,0.01291630414,-0.03334469772,-0.008863478618,0.005761670951,0.005035236835,0.02537340706,0.01261997197,-0.00133629553,0.01290513247,0.009225193039,0.01230461185,0.02007550167,-0.01357015169,0.0457414057,0.01948645368,0.01913342946,-0.01693630217,-0.03069376949,-0.002178111289,-0.0006682685558,0.00545170738,-0.03046720778,0.03068225199,0.03154487123,0.01916711418,0.002159301897,-0.02378335607,-0.01867853391,-0.009201799731,0.003614821724,-0.0278778569,-0.05234705162,0.004125997794,0.03115889035,-0.02892944343,-0.006653956643,0.00979131198,-0.006152830461,0.01973736739,0.003575777396,-0.02649188583,0.02979102246,0.02987413406,-0.01147588078,-0.002758006887,0.004330768647,0.05281460102,0.0414764633,0.04320592898,0.02844721645,0.02696102188,0.05843212862,0.02271397726,0.001412045079,-0.02242380357,0.0235298051,-0.02260295764,0.004027851282,0.05477693032,-0.00433248788,-0.007389383681,0.0197689017,-1.638144941e-05,-0.03443407209,-0.03906796334,-0.02052470224,0.01517272617,-0.001992537217,-0.02723627037,0.003407044569,0.008160216691,0.01668835818,-0.02873885762,0.03322143411,-0.02111185105,-0.02922927511,-0.004907001752,0.02207596855,-0.009108636222,0.04040578258,0.01808859567,-0.0106886352,-0.01492966529,0.005525267177,0.01978110043,-0.02928239772,-0.01307987735,-0.01059775539,-0.007046759043,-0.002742744367,0.01634579006,0.01607769482,-0.03555386318,-0.03719355597,-0.003365019102,-0.01644968586,-0.01902258063,0.0144866934,-0.03025733039,0.00564257305,-0.02573537042,0.03579480932,0.04891991831,-0.03261397226,-0.01709640074,0.0105900582,-0.0201269533,-0.03178386141,0.01716512622,-0.01035776716,0.06214998564,0.03511766896,0.02627064681,0.01846926548,-0.008418929189,0.01525971618,0.02003996926,-0.0443176263,-0.01138844498,-0.01210545585,0.007380657043,0.005092137681,0.03003799828,-0.03462679525,-0.004755119296,-0.01101024237,0.03913786388,-0.004885788896,-0.0500361264,-0.04850515625,-0.0233882159,-0.03823603342,-0.0007837435132,-0.03696767284,0.003303464609,0.02070594264,-0.01346906606,0.04318336827,0.0366135309,-0.03274971399,-0.03065487873,-0.01115542842,-0.02491224585,-0.01937985975,0.01986748232,-0.02208916516,0.002583274318,0.01046792871,-0.0002641134964,-0.03345377385,-0.01617605848,0.02427239954,0.02976203718,0.01127617541,0.03352737968,-0.04105673808,-0.03329784678,-0.0286680322,0.002008060644,-0.01398073398,-0.001105729498,0.01188605902,-0.03921345242,-0.02578059017,-0.01769982091,0.03693917087,0.0008665303585,0.01174720223,-0.01367586685,-0.006550366641,0.02354526238,0.02604442322,0.005738349482,-0.04563569044,0.07101098649,-0.01742257564,0.0009981311609,0.03491768651,-0.01732529358,0.003150572473,-0.0104995141,-0.04867393501,-0.001469939465,0.01817457857,-0.03791468165,0.0193351711,0.03994949121,0.005989939085,-0.03519457761,-0.0009500532959,0.02576929241,-0.02420845332,0.0191501483,0.01394818417,-0.002890007705,-0.0138795596,-0.03908846426,0.009281051702,-0.04104269674,-0.01035575883,0.01602334138,-0.002249537386,0.02041676859,-0.01707171118,-0.03077437412,-0.01943132386,0.01197660273,0.0252828698,-0.0385654421,0.01079752608,0.03044744924,-0.002999763745,0.02117517847,-0.03867202995,-0.03233394799,-0.001754954358,-0.03296471021,-0.003344007815,0.03670506233,0.02019711066,-0.008325268318,-0.002140039591,0.02612224397,-0.02951809578,-0.01787746873,-0.01071793799,-0.04625054408,-0.04705671805,0.01099263235,-0.01268234018,0.04419381769,-0.01789583951,-0.02164089444,0.01351309641,-0.01859741409,-0.002192700512,0.007873721144,-0.03249628614,0.04708072154,-0.01677623131,-0.01243885583,-0.005803640129,0.008334481775,-0.02639813623,-0.02379318837,-0.02451604313,-0.006612227219,0.006835730696,0.01001702177,0.02541980497,-0.001726524231,0.02297668222,-0.04515283787,-0.007848373781,0.03477999906,-0.02734325257,0.03371707589,0.0267500553,0.01018447624,-0.002712704183,-0.004653358916,-0.0003150812319,-0.007661876307,-0.01037362801,0.0201410824,0.04202703949,-0.01944186233,0.02566926424,0.001973155197,0.05549466487,-0.04677728805,0.03535095931,-0.04167223628,-0.0170550482,0.05170302524,0.01123626544,-0.02877701076,-0.005445053062,-0.003840274909,0.02140322858,0.02680556555,-0.04337865669,-0.02835855829,0.02737268416,0.03148230856,-0.0494370082,0.00490347497,0.009858178915,0.02542536403,-0.02990727431,-0.0508916861,-0.004868959426,0.005157118298,-0.01755704879,-0.008927640949,-0.04940005443,-0.02665782757,-0.00596988125,0.0312781313,0.03408357514,0.03144545584,-0.00869325267,0.0330663064,0.0201532416,0.03454979922,0.03344405847,0.001370792423,0.03911579186,0.02445510282,-0.001940294755,-0.01441127546,0.006341941476,-0.004493085389,-0.004457454022,0.03017525328,0.01214447509,-0.007979500363,-0.008122515256,-0.02260693464,0.03093859097,-0.01379509797,-0.01167083127,-0.001707414891,-0.0173878438,0.005021645938,-0.02727634256,0.005347042811,0.03748730825,-4.700602349e-05,0.0529506609,-0.01289757781,0.02916712262,-0.01459950985,0.06370209156,-0.03953998357,0.0440356982,-0.02560350736,0.013599625,0.0254770673,-0.04553781673,-0.01231593637,-0.05196291606,-0.01398224368,0.04353115804,0.01594235523,-0.04957217683,0.01337192049,0.01684892954,0.02774246058,-0.005385075537,-0.02614969007,-0.04302804786,-0.002011332237,0.01682198434,0.01744813099,-0.02064147131,-0.05773960179,0.02548215582,0.06802710273,-0.005348471165,-0.03621055902,-0.02186735258,-0.0330273167,0.04122135394,0.007258994658,-0.05164697379,-0.005279361696,0.03528255004,0.01944847492,-0.02158893159,0.007108354389,0.006877129065,0.009731025476,-0.01791869463,0.01705659412,0.01960401746,0.003099327268,-0.01103938908,0.00145007159,-0.03548441327,-0.0516267519,0.0513906755,0.01808048781,-0.01908027923,-0.01029356098,0.003733896982,0.002538848972,-0.05688300393,-0.02836242901,0.008445886053,-0.01180899086,0.02979160241,0.01877071607,0.04921437744,-0.004983313332,0.02350509653,0.01230627521,0.03285509315,0.0029840591,0.01553078955,-0.04245909825,0.01637620178,-0.005302876811,-0.0477776302,-0.01524719358,-0.03931260677,0.02054953381,0.0405225835,0.0681758834,-0.007455340534,0.01632430956,0.02520599636,-0.02519487181,-0.002433799407,-0.05745842738,-0.04168899912,0.00854618036,-0.04836176787,0.0006830914859,0.001358866606,-0.05833349802,-0.01867073618,0.03454411569,-0.003978932418,0.002742991891,-0.03039275902,-0.01573194962,0.02275561838,-0.02465606197,-0.04403116253,0.003696766574,-0.006424009003,0.005892872881,-0.01446037348,-0.004270521704,0.06241558338,0.02981565741,0.0002021055349,-0.005420350602,0.02839096029,-0.02193117572,-0.03881478512,0.02677001327,-0.03054947545,-0.03953107785,0.04823134399,0.03718906763,0.01593948129,-0.06290866738,0.01597651449,-0.000400445573,-0.04060843729,-0.001489937054,-0.008583923051,-0.02089904196,0.01011196534,0.002418977445,0.02611141192,-0.007988031433,-0.02908709117,-0.007354212869,0.02949068927,-0.01952532546,-0.009147332435,0.00199903223,-0.02507793546,0.03502972829,-0.01805951492,0.03520102727,-0.01163733288,0.01598567582,-0.02814110131,0.04393139844,-0.01463833163,-0.02327670846,-0.02671656906,0.0006005838962,-0.005109552298,0.03125258909,-0.03279645859,-0.01710027322,0.03563316486,-0.01513810436,-0.01336624012,-0.02312005816,-0.03576325917,0.0207698913,-0.005154994523,-0.003795958357,-0.02926251023,0.02898404964,-0.003270815504,-0.01499990203,-0.005744187268,-0.01564889312,0.0285158153,0.02439741904,-0.02802090116,0.01616719045,-0.01705372315,0.003089136921,-0.02897611909,0.03218851102,-0.01334511643,-0.02789390079,-0.02979695256,-0.005138550443,-0.01344887572,0.02115787326,0.002064200326,-0.009093406512,0.0140936724,-0.04112571222,0.007358468312,0.07082139451,0.04166184762,0.004526699562,0.01476226953,0.01812970451,-0.008195751022,-0.001429221287,-0.04202494503,-0.0642144229,-0.02798361669,0.01604535843,-0.06544418826,0.00574233067,-0.04883869262,0.02768596774,-0.01790264933,0.0208176767,0.02925703035,-0.01659925614,0.05863447503,-0.01023670825,-0.0812427377,-0.05329650794,-0.009885425903,-0.014632364,-0.01118363803,-0.02276246294,0.02179769357,0.01066109669,0.05618453303,0.03412408622,0.03823548291,-0.01704900946,0.06355801735,0.007509668919,-0.0344648568,-0.04424455312,0.01578046757,0.001732937033,-0.01445709447,-0.02336425562,-0.03657197142,-0.008902466996,0.04084267832,-0.08980150327,-0.05205592003,-0.003508419037,-0.01299829319,0.0005762585073,-0.03000858009,0.03747945839,0.03755704528,-0.001107979937,0.006922450241,0.003070184455,0.01676363673,-0.03553085838,-0.02310926462,0.05957133627,-0.04035635588,-0.06952029868,0.01172069402,0.02185057535,0.04084473466,0.03354622317,0.05158769088,0.02744905382,0.02547301634,0.02707710786,-0.01926680838,-0.02047087665,-0.07848417123,-0.04423349131,0.0311876179,-0.02156791972,-0.09352067164,0.01866426592,-0.02352129315,0.05371205877,-0.01929764458,0.02880471969,0.09668663815,-0.02426474592,0.0900260508,0.01770866414,-0.07654777819,-0.07980015107,0.06212721479,-0.0232320676,0.01407870528,0.02361473111,0.04623453127,0.08928077849,0.04268931659,-0.03125799255,0.02395298273,0.01755346749,0.06057067475,0.01260763469,-0.07382928137,-0.03768762391,0.01920722891,6.056228237e-05,0.0101076471,-0.02993383009,0.03006557523,-0.02416052179,0.06809181756,-0.05558938522,-0.03822890879,-0.05070063337,0.03277068991,-0.03066367467,-0.05052679662,0.02220134693,0.04730069218,0.01947174408,-0.03488005243,-0.02121954906,0.03987505165,-0.09976571897,0.04636505469,0.08069498215,-0.004188963829,-0.09175881525,0.01475932654,-0.0001509683741,0.02108707772,-0.005314554938,0.01632629834,0.0139865195,-0.02815190543,0.01402235706,-0.005767444386,-0.01498644856,-0.02677361173,-0.01400254147,-0.01055814314,0.00893867661,-0.01611965183,-0.002913502792,-0.0266521372,0.002619461433,0.007145790114,-0.002933283615,-0.01042256784,0.03171825172,0.01838098486,-0.02191867562,-0.04566691792,0.008220630978,-0.009546639415,-0.009249160839,0.02862662238,-0.03073204928,-0.005001349063,0.001752340781,0.01943125521,-0.0238131621,0.01316976753,0.01433700853,0.02402696456,0.02722665716,-0.03284687256,-0.03604114488,-0.001987950683,-0.01292454654,-0.01374416216,0.02589540545,0.01758464344,-0.02527974003,-0.0004489352606,-0.02405183817,-0.01309576453,-0.006621634447,-0.02294288441,-0.01282737927,0.01570559528,0.02214729237,0.01719680258,0.03434159796,0.02919411353,-0.01920640142,0.004806458098,-0.02018407262,0.03435160504,0.03547179135,0.01850624195,-0.001094197314,-0.01440209321,0.03360963731,0.02444907787,-0.01297583693,-0.008278682893,-0.009431246772,0.02597559158,0.01202390694,-0.002903879553,0.01586061638,-0.03675235405,-0.03469557698,0.0181505799,-0.03390359111,-0.02654501821,0.02180432717,0.003108729441,0.01005044964,0.01714952009,0.007589350598,0.03320919515,0.02293514626,0.03529831907,0.02029060849,-0.04705028573,0.02676363896,0.026691694,0.01777954654,0.02072723942,0.0101667168,-0.03882756347,0.03528259189,-0.02755035182,0.002641261245,-0.001392249808,0.01998911768,0.01842616257,0.03436124188,0.01368103306,-0.02113711464,-0.03297264121,0.01858220551,-0.001048317488,0.02667256048,0.04138685365,-0.02012676647,-0.01230399951,-0.03500703657,0.00844810329,-0.03348535219,-0.03512197743,-0.02602721454,0.01959500731,0.03469806619,0.001279396929,-0.006223414447,-0.008387762607,-0.01899403169,-0.002611680024,0.0114242169,0.001584237301,0.03299203209,-0.03577580116,-0.01857278084,-0.02975720898,-0.03297375357,-0.04916629248,-0.03106415318,-0.03152465839,-0.01663226776,-0.0175762316,-0.03092251164,-0.01236738,-0.01625128284,0.009971656278,0.02042198164,-0.006390961434,0.02489298697,-0.01633475991,0.01068713968,0.00652539834,-0.02028928775,-0.005727782932,0.02508558721,0.01270012199,0.03181114627,-0.03921776323,-0.02778838983,0.02023273771,-0.001734916814,-0.01732936222,0.005487870571,0.0102201166,-0.0006750140708,0.02440147373,-0.02397403331,-0.01671301553,0.01418227092,-0.03385990972,-0.03474176453,0.01395725838,-0.04798155384,0.02803309624,0.03659593075,-0.0267367101,-0.007193634603,0.0009102969421,0.009913577318,0.03317440778,-0.02119134439,0.0175228018,0.03784006242,0.008832150868,0.001355648874,0.006306983847,-0.02092108771,0.0007246259874,0.01904742049,-0.02859486224,0.001412305236,0.02520147773,-0.0183328672,-0.009418377701,-0.01309656803,0.01384564037,0.006683292741,0.02208225501,0.05202397908,-0.02300979103,0.01695426167,-0.03172444742,-0.0332138455,-0.008895292747,-0.001192302476,0.02762983108,0.005678201291,0.01659089973,0.03445246774,0.05127825325,0.004717895931,0.00989333504,0.01739326758,-0.009211233905,-0.0292313777,-0.009193653693,-0.01360346134,0.02855392721,0.02698952418,-0.0368154747,0.02344801,0.003072432683,0.02208205888,-0.01964481003,-0.02838047897,-0.03344765928,0.02402595475,-0.00243095194,-0.02356385298,-0.01263744325,0.02079615861,-0.02908357234,-0.0217415888,-0.02167493348,-0.04383898045,-0.04853350183,0.005022301464,0.01897961967,0.06349361736,-0.0152607004,-0.02885051701,0.01355288402,-0.03384775026,0.02758330166,0.0006795231143,-0.01085728691,0.03092303481,0.05621974625,0.03351872585,0.02773621902,-0.03499922171,0.03393057781,0.02106099945,-0.01190872646,0.004579289648,0.01220587452,0.0192654388,-0.02375538798,0.06549618938,-0.05757079253,-0.04197432507,-0.01525213508,-0.003302264477,-0.02599153585,-0.04464204128,-0.06087233108,-0.02148797781,-0.00597626043,-0.005432412332,0.01379386056,0.02557319331,0.02228429803,0.007214009702,0.0417143727,-0.02561630529,-0.03446345641,-0.01824758762,-0.02657627172,-0.008152700507,0.04982932867,0.02609299293,1.659683881e-05,0.02875638854,-0.02869080417,0.03067209046,0.005739795068,0.006638807635,0.02058461296,-0.002958648736,-0.07094345992,-0.01779764997,0.002126220417,0.007830104294,-0.04679375019,-0.005247344316,-0.0451897358,-0.01326964412,-0.03532593165,0.009801229449,-0.04681088169,-0.06599178363,0.02648997883,0.02985780805,-0.03926332491,-0.0135077323,0.02918521392,0.008993949361,-0.02445218423,0.03263672111,-0.05869807771,0.03541981184,0.02029591243,0.03586907062,-0.009397646164,0.009620813681,0.003896299319,0.02266637475,-0.01202948924,-0.01268978279,0.003531347023,-0.01720067379,-0.01936032078,0.02930862835,-0.06090020673,-0.02674148999,0.0319459727,-0.007497784867,-0.007400760912,-0.0195073862,-0.06095678599,-0.03122570239,-0.006937275684,-0.01413797593,0.004622863702,-0.03426805168,-0.006149331527,0.0149610496,0.05966352199,0.03519871172,-0.03163465123,-0.004706441903,0.002907855336,-0.008944443369,0.02290634646,0.01795237886,0.01362981877,0.02309376096,-0.03190152305,0.002848083525,0.01562374375,-0.01421639181,0.02970370115,-0.02944643878,-0.01222697877,-0.01021210652,0.02647813149,0.03002402417,-0.03760859086,-0.007629388365,-0.0171062506,-0.008268374403,-0.01297182331,-0.01455575973,-0.05012528909,-0.0156138201,0.02016491389,0.05271117063,-0.02912348578,0.02847466136,0.03047142932,0.02617828544,0.007069396888,-0.01959997895,-0.03598916153,-0.0006170086166,0.02261576455,-0.00685316552,-0.01866875417,0.0128176276,-0.001160526789,-0.01921237556,-0.05277769597,0.0002321251044,0.03704237166,-0.0207946124,0.03120840495,0.04009972603,-0.0331017264,-0.0337659562,0.01307423245,0.01254473504,0.01766548424,-0.01522240624,-0.03336820945,0.02337189664,0.01553516727,-0.01909798978,-0.02000053662,-0.01276079621,0.0007084754214,-0.01305510369,0.01400890921,-0.003951436345,0.02913448097,0.02087852978,-0.007058924431,-0.01593667026,-0.009159273703,0.008267687517,-0.02130994695,0.02565226647,-0.004470656981,0.02280944091,-0.04190670921,0.007657165847,0.005924976936,-0.008500146048,0.01568479832,0.03285252036,0.0103897345,0.02439686539,-0.04236494224,0.02753806343,-0.01096995188,0.04838352358,-0.03129083741,-0.009717758431,-0.03677856082,-0.01293820925,-0.01659225187,-0.01989257877,-0.03964633926,-0.007493842404,0.02106471971,-0.02727361928,0.01296428048,-0.005331403658,-0.005540670529,0.0148695704,-0.02338674858,0.001903736641,-0.01008322675,-0.03470843762,0.021713276,0.03110007951,0.00868018118,-0.01393922415,-0.01893221904,-0.03832565473,0.01924608381,-0.003891057334,-0.0332047743,0.02713418407,-0.03436480646,0.01920255447,0.01644528896,0.01604227462,0.00950192078,0.009328994658,-0.003741080948,-0.01085757054,-0.005855359935,0.01367857295,-0.02962827376,0.02401642854,-0.04024126315,-0.04473715057,-0.02945055997,-0.01570452595,-0.02793694441,-0.007820200603,-0.04399514457,-0.01492669374,0.01946497013,0.06323810191,-0.004535639298,-0.03146900982,0.01943196629,-0.0174870011,-0.03450596211,-0.02386212061,-0.00387345549,-0.02113393188,0.05220924666,0.01653978318,-0.008809380773,-0.02064571801,0.01326749212,0.006846294611,0.0102290192,-0.03973097568,-0.03327172659,0.01543519029,-0.02604583339,0.007785354928,-0.04147865506,0.01331482694,0.06457378108,0.0291539814,0.05649231803,0.0153678855,0.02176407857,0.05304970222,0.01139079725,-0.01866993096,-0.01365705634,0.006021905758,0.01688549409,0.00213280705,0.05177872321,-0.02333033339,0.001031633531,-0.04190012291,0.041774954,-0.04533313888,0.01928946276,-0.0004967546854,-0.04358150253,0.009848937056,0.03338142112,-0.002333483298,0.04084081652,0.04035994331,0.03934384273,0.006129852973,-0.01719220764,-0.01750814665,-0.02643096063,0.04730305735,-0.02516297205,-0.05620095277,-0.02021029922,-0.01939480883,-0.009133093819,-0.05709479746,-0.04354403878,0.03539425706,0.02021217735,0.03032086574,0.0220191954,-0.01217171332,0.04157687284,0.005898569075,-0.03956006027,-0.04183984374,0.06088973356,-0.001027250192,0.02467505813,0.007845134027,0.02137727196,0.02262472643,0.04598409865,0.06413006573,0.02227296732,-0.01592054586,-0.03225527704,0.04635789194,-0.007850552824,-0.02134446265,-0.003110204529,-0.02401472293,0.03062203916,-0.02449548738,0.06613226513,0.02252591131,0.0484991037,0.01200631315,-0.01878527693,-0.05011272577,-0.02296611001,0.009937648909,-0.06891615564,-0.02827831714,0.06350910527,0.004593770745,-0.005717430253,-0.002508724212,-0.001267809621,-0.07372329641,-0.00634852331,0.0001835625591,-0.0116194568,-0.00158320697,-0.0277107928,-0.002406394837,-0.01797030142,0.001164906038,0.000531855856,0.001984360348,-0.02130337168,-0.02257632362,-0.02301762117,0.02639143694,-0.02572932595,-0.01504732052,-0.03102563469,0.006965766538,0.006979117174,-0.04025035102,0.02238998258,-0.001531692807,0.03585538876,0.03263412818,-0.01901424274,0.03290376986,0.02173806229,-0.04606357044,0.005600584303,-0.004622487209,-0.02535509831,-0.006559078219,0.06733034223,-0.0208699931,-0.0009669801308,-0.002698160279,0.0289221901,0.06352545091,0.0169488867,-0.02966990444,-0.006010983972,-0.0405472034,0.01346215526,-0.006664583167,-0.04575048674,-0.001688420869,0.03666819764,-0.01317694314,0.03322986855,0.02687647433,0.01435456672,0.03458203506,-0.04983784215,-0.02933924762,-0.03442220684,-0.01922082269,-0.001033096207,-0.002252901055,-0.002576860719,0.03511125592,0.019535339,-0.004238458536,0.04352492466,-0.02422233049,0.01374600021,-0.01700399584,0.02940881071,-0.01276321694,-0.01570874353,0.004962610422,0.009751064155,-0.01917813545,-0.005799404229,-0.02790776297,-0.01445091462,0.006479061544,0.04680143863,0.03354833561,0.04627044869,0.005883847459,0.0189422921,0.02047221334,0.04097527604,0.01095496905,0.003636070261,0.003847929855,0.007140032543,0.03269086294,-0.04020676325,-0.006360708738,-0.05832695066,0.01341550511,0.0568112225,0.06672415406,-0.0564906155,-0.01191829672,-0.02193773321,0.03188806046,-0.01348907979,-0.0452470054,0.01036572703,0.05538003438,-0.02363934306,0.01739620404,-0.04128751933,-0.0135441266,0.02655995658,0.007861735679,0.003282315919,-0.0226543744,0.05268894754,-0.03745018313,-0.006122316221,-0.006510018601,-0.04211084955,0.0371104879,0.01088319725,0.056117659,0.02412565993,-0.01211766329,0.01243828625,0.03863925463,-0.04209608435,0.002956267795,0.0342294621,-0.03438416879,0.009603232664,0.04113464185,-0.008744629491,-0.01973347875,0.03865354879,0.02904726839,0.02209139101,-0.0333148739,-0.05722335041,-0.06567553218,-0.07053373394,0.01811063025,-0.02239573638,-0.008383337933,0.03127130327,0.01785058458,0.07940298876,0.01484361154,-0.03014512347,0.01593115222,0.05682263105,-0.02683613561,0.05849819518,-0.01777275351,-0.005837010252,0.004981616095,-0.06440432011,0.004167834576,-0.02317827649,0.008200145316,0.004654385711,0.0242851989,-0.02180143418,0.0005645249949,-0.03429121349,-0.02807582145,0.01674356709,0.007963953,-0.02707547964,-0.02997556621,-0.06364064748,-0.02548690051,-0.02961267904,-0.02170577197,-0.001225693869,0.01844788077,-0.0008215800376,0.02597422252,-0.00241260399,-0.03710841074,0.01352243019,-0.02113800115,-0.06887071464,0.04306597987,0.01930295062,0.0650162829,0.03483894635,-0.0377341122,0.00139439691,0.009180358591,-0.01395389484,-0.01837036621,0.03840018812,0.02760509411,-0.01711825047,0.06045690564,-0.003425304052,-0.06233982787,0.02597866652,0.04998573456,0.01123707031,-0.01823291213,-0.002305765304,-0.009122679539,-0.02524546353,0.01695073316,0.01458749021,-0.01345318427,0.01664550757,-0.01894890213,-0.006136621201,0.02332625084,0.02384974308,0.02075520454,-0.04133043553,0.02554006867,0.03242995025,0.03066315798,0.01703350678,0.02480738393,-0.00152900613,0.02733191442,-0.0118796178,-0.01650404791,-0.02323660315,-0.02796466422,0.02511750713,-0.02490896317,0.01584456132,0.03355300025,-0.03155654697,0.01820097924,-0.01585056502,0.01132846225,0.02682583891,0.004283155068,0.03282425518,-0.03102344296,-0.0129239634,0.01378296065,-0.01004170258,-0.003030223801,0.01562057484,0.002011978532,-0.009455534707,-0.007818102632,-0.01497916147,-0.03971917806,-0.02825927016,-0.04394949672,-0.0294255496,0.0279670042,-0.01681237239,0.01636485284,-0.01170853816,-0.03241287921,0.005713068959,-0.02491205164,-0.02698587162,-0.01574280336,-0.016479725,0.02858743727,0.0007091562619,-0.01638648843,0.02129241201,0.004570981146,0.02039696497,0.02656210009,0.0206092538,-0.0226173763,0.006893838411,-0.004248779494,-0.02507936598,0.02612035582,0.009779266931,-0.01057266944,-0.02616055948,-0.02484731119,-0.06069736279,-0.007566415044,0.0003441997231,0.06809577939,-0.02222156509,-0.03335705441,0.0150003499,0.02741167651,0.05134817664,0.006296011233,-0.06892357083,-0.0488932728,0.01047052534,0.02920456588,0.02740180382,-0.0307634822,-0.01257605302,0.03349019355,0.04095151951,-0.009947399592,0.05260214953,0.03301495183,0.05776606342,-0.007831960438,-0.03285734013,-0.06489368096,0.001278525906,-0.0306190684,-0.01695134217,-0.003005560189,0.02077397195,-0.03007951963,0.008129072068,-0.06550855156,-0.05547324386,-0.001049712062,0.01419901164,-0.0284678767,-0.01097344202,-0.01043360035,0.009754351549,-0.02105316081,-0.00556153871,-0.02232250955,0.02174629521,-0.06095362803,0.006804024405,0.02665664516,-0.01155416324,-0.02807214852,-0.02637598925,0.04598275494,0.01015113,-0.02589943732,-1.37724796e-05,-0.03041069143,0.02837003715,0.02669715237,0.02394434947,-0.0254904576,0.01955426789,-0.01091996765,-0.02278615513,0.005806834355,-0.01589743413,0.020070034,0.008732455697,0.02675952705,-0.009341691742,0.01810456661,0.01999299723,0.005430178819,0.005203580533,-0.009571891694,-0.02741502121,0.02008488656,-0.003543924903,0.009752926977,0.008407531081,-0.008603272802,-0.03026745858,0.01891092806,-0.02185362008,0.02223045762,0.01760368481,0.02527577829,-0.01556870501,-0.01143613868,0.03032252261,0.01601621513,0.003193339949,-0.02997794905,0.0130077113,-0.02355808144,0.005063770123,-0.001060182079,0.02717328721,-0.01403148013,-0.006646592365,-0.01690229894,0.007791738573,-0.02484143746,-0.006437712144,0.0162597212,-0.03861425116,0.0327159264,-0.001328792807,-0.03109547174,-0.02744935175,0.03909136212,-0.01183304819,-0.02098203727,-0.01716686278,0.02726390548,0.007465250923,0.009109682606,-0.05444774171,-0.0572863134,-0.04077984445,0.03111758287,-0.01729836426,0.006290026073,0.0577909269,0.03508989058,-0.002448043503,0.04634131551,-0.004856216114,-0.02694053513,0.001334371222,-0.0006893739887,0.0477128936,-0.01134481025,0.002771808367,0.004846151361,-0.03349905124,0.007430190774,-0.0002302006739,-0.0245127655,0.007520169697,0.04658557971,-0.005110844652,-0.00600725299,0.01278259669,0.02510725284,-0.03079992126,-0.006342934314,-0.02520339868,-0.02169748402,-0.07395089483,0.01112613769,-0.004847920653,-0.03769495926,0.0514319823,0.007962401474,-0.01693407681,-0.03301431217,-0.02876815308,-0.0271122707,-0.00341104727,-0.02308653161,-0.01526964454,0.02958433483,-0.0004833532302,0.02146770345,-0.006520276059,-0.00874889632,0.04241583256,0.01316738448,-0.06322008079,0.018084935,-0.01481969367,0.01921509894,-0.03619680782,0.05796091289,-0.01117144311,0.02035486409,0.03329200097,0.006431944869,0.02263515053,0.005408349615,-0.02078060266,-0.07060449488,-0.05417968393,0.01506760928,-0.01185758216,0.02063300185,0.009003521363,-0.02867859004,0.02667922833,0.07347335812,0.01910487654,0.027554551,0.02357753536,-0.02473826596,-0.005072125507,-0.03191537049,-0.007262591015,-0.04377290095,-0.02495967628,0.0363767258,-0.001680931685,0.009572372467,0.02971348333,0.03806831715,-0.06664756488,-0.02321726321,-0.00709754242,0.02062429903,0.01257400259,-0.009997821135,-0.04281939754,0.0001058004973,-0.07916587897,-0.02383666019,-0.006215559212,-0.003975884045,0.07268223246,0.08699033273,0.04194790132,0.02775868006,-0.04118206703,0.01753979384,-0.04156434621,-0.02276870237,-0.01214764359,0.01604631233,0.008654174711,0.04348229806,-0.004369850435,0.003481722481,0.06310887911,0.03121863892,-0.07406259596,-0.01382124323,0.03200559672,-0.01518789352,-0.05757072352,0.0765733095,-0.02741192402,0.003627277248,0.04913339543,0.05498509569,-0.02039575452,0.00934535742,-0.02726828603,-0.05447986908,0.0008736477905,-0.009475063363,0.007688364629,0.03115566518,0.01991414303,-0.007719146928,0.03296200435,0.04480942102,-0.0003633745918,-0.00442574028,-0.007739979381,0.01657140556,0.0129633136,-0.0501176475,-0.02511179129,-0.03074780187,-0.0007424244958,0.02658775155,-0.05803685544,-0.03169897341,0.01003406087,0.003900280297,-0.01936113767,-0.03256655691,-0.01279633473,0.01342683794,-0.009134710465,0.02313815568,-0.03339396777,-0.05047133824,-0.0677527598,0.004638599835,-0.05272988797,-0.04627759429,0.08589191717,0.07700339115,0.02676376788,0.01298408223,-0.05142685438,0.02314652932,-0.04969011681,0.01405557566,-0.04817786758,0.02701467333,0.05898865017,0.009217514519,0.007778404893,-0.02407039394,0.05190017209,0.02206606675,-0.07248933681,0.0338810084,0.03263731625,-0.02349128413,-0.02627667578,0.04122548795,-0.01520539118,0.003288070135,0.0006456284096,0.07353555987,0.02266934883,-0.06340982463,-0.06275126695,-0.05772749206,-0.06296796245,-0.02310944238,-0.002141637216,-0.006644146007,0.07227858988,-0.0219985503,0.04464734474,0.08706989792,0.019545753,-0.02448595638,0.04002695066,-0.02472620556,0.02204440828,0.003433604094,-0.01792497527,0.007041362951,-0.06215355483,-0.0004600886185,-0.05244717662,0.005976056651,-0.02320032132,0.04787519397,-0.02584514535,-0.005590167033,-0.05890016489,-0.01159579948,-0.03655021662,0.01515274524,-0.005287775286,0.02012515481,-0.07467387268,0.02795170786,-0.0293010307,-0.06195327821,0.04567729212,0.02563997424,-0.00945224838,-0.03552276647,-0.003609568531,0.01176268427,-0.03330584735,0.02597799813,-0.02700672959,0.01202433288,0.05268216266,0.0413313039,-0.01506999841,0.01914090446,0.04696382294,0.003853198265,-0.01460687175,0.001922855154,0.05433706351,-0.01734094029,-0.03899020884,0.07653035008,-0.026433298,0.008832344124,0.008339865747,0.0643120634,0.01767130175,-0.03316078142,-0.01885994271,-0.06892490193,-0.03196617466,-0.0119854196,-0.02990132131,0.009688888725,0.03411677242,-0.001777435769,0.03421170883,0.02029270839,0.01237711313,0.007489051617,-0.00235089861,0.03064889761,-0.008740152035,-0.01373881649,-0.02000455209,-0.02041477934,-0.02319889896,-0.02615236665,-0.0385020537,0.01662032882,-0.01053165601,0.03084483599,-0.05582915301,-0.003331120366,0.01570077468,-0.02154965209,-0.03634970833,0.0008749969723,-0.03335538126,-0.01649732127,-0.06819546451,-0.006713357026,-0.02009166871,-0.002459229693,0.06770725074,0.04651238709,0.007437174114,-0.01065661122,-0.03721306722,-0.01029494908,-0.0238456258,0.01015768591,-0.008004633964,0.0645207768,0.03585564645,-0.007765552173,-0.03434387458,0.008035137743,0.005115285041,0.02126323658,-0.02965086827,-0.007865118407,0.003642475654,0.001768403794,-0.04159536031,0.01233280299,-0.03236897061,-0.02518156762,-0.0002724971895,0.005353239508,-0.005747038773,-0.01432034074,-0.002338059754,-0.007340291785,0.03329786991,-0.0256149333,-0.01781677251,-0.0333782223,0.05125472737,0.03723383597,0.02269231974,0.068031178,-0.0032667682,-0.01558765082,-0.005874897515,0.003877215573,-0.02372335035,0.01323046576,-0.01777849467,0.04847835968,-0.005673449431,-0.02264479699,0.01642986351,0.0235923634,-0.02820712126,-0.006302465958,-0.034986433,0.006657894368,0.02155936448,-0.009331232269,-0.03370320935,-0.02493625494,-0.008517706452,0.03737345359,-0.04017185342,0.01806507632,-0.0502698512,0.01218030428,0.01426503096,0.02340406519,-0.03727761629,-0.05176352775,-0.01485682168,-0.02872631065,0.03931484983,-0.0105726125,0.003015479965,0.05338184725,-0.004155661422,0.01650689849,0.01566211282,-0.0173800852,-0.001423810628,0.01079365181,-0.03805941524,-0.01212831277,-0.03105153429,0.01944657914,-0.004549539124,-0.01658356434,0.02408329236,0.01429738472,-0.001779518089,0.0163397247,0.005865461804,-0.02630440857,0.02672966488,-0.004780505567,0.01920841803,-0.003253994179,-0.03335772536,-0.01361035153,0.02202710256,0.001465943331,-0.04562408359,0.01105029207,-0.02325817269,0.02637966035,-0.03502594856,0.01182243439,-0.009811333244,0.005797016529,-0.0241234072,8.069555258e-05,0.02836242037,0.02663350478,0.008304808165,0.01638189565,-0.04563638592,0.005118951947,0.02011287652,0.04299060984,0.00899919621,-0.03720887403,-0.009880753596,0.03702199363,-0.0117778736,0.0431211019,0.01029178226,-0.05051553335,-0.01765635209,0.04576834552,-0.01777654268,-0.02294125789,-0.003747610614,-0.04384666062,0.02853371878,-0.008043347647,0.03774279386,-0.01986741992,0.004008431637,0.02404085958,0.003821357021,0.01677796989,-0.02291483024,-0.01241475754,0.01094634999,0.01105864847,0.02844995457,0.0004740015916,-0.02301998636,-0.04053823542,-0.006268524422,-0.01445175057,0.002586148659,0.02136843754,-0.01449503436,-0.003394526266,0.02467806372,0.03346490272,0.01864907744,-0.006651974419,0.06520169166,-0.03625597628,-0.05252331561,-0.04786599849,-0.0124880095,0.01710575893,-0.04014053431,-0.04777459593,0.01745243826,-0.009395827705,-0.05491893392,-0.06539434348,-0.05404149496,0.003419400414,0.02592936875,0.06039396814,0.04026514331,0.007351200013,0.009505196555,-0.02915316963,-0.01293369964,-0.05479287726,0.04054118439,-0.004563102169,0.02396046344,-0.02015964871,-0.04649666158,0.0517009919,0.02030073197,0.06711590469,0.02445705255,-0.002364131985,-0.03156293222,0.02752953128,0.009070376281,-0.03164598858,-0.02697266659,-0.05542829658,0.02746697806,0.01971321681,0.04469501202,-0.008404248662,0.05752831571,0.001215993506,-0.02047298638,-0.02728524795,0.005627884109,-0.01924768251,-0.0198816737,0.02487400389,0.005137892343,-0.005107554082,-0.05444563352,-0.02929772384,0.03612069772,-0.03933469737,0.01582926014,0.002120327085,-0.08167672791,-0.06232604546,-0.03196321506,0.0420175865,0.05841634109,0.0449966642,0.01782239515,-0.04509222068,-0.04394114629,-0.06464844118,3.652348843e-05,0.04702728778,-0.04860051874,-0.01233794029,-0.01045011487,0.009181925768,-0.04886944281,-0.02727158582,-0.001629975168,0.0209751729,-0.004788822099,0.06215239502,0.001791218261,0.03664836867,-0.01051798858,-0.04902291247,0.02329788421,-0.04657022919,0.04937943609,0.01627330778,0.0902307361,-0.02313043682,-0.0009377078098,0.008228351728,0.04395330519,0.09079084219,0.01380025295,-0.01233435657,0.01328456679,0.04501943308,-0.02556342429,-0.02053277013,-0.04303829387,-0.05111183052,0.08917077578,-0.01758489873,0.04047213789,-0.02833323329,0.05771660305,-0.01563023356,-0.04740916345,-0.005696304892,0.01344328669,0.03090928051,-0.01146771192,-0.01634862688,0.07127218307,0.02141984681,0.000417417131,-0.05930246284,0.02407177778,-0.009714274174,0.01343584034,0.01487431355,0.0007083875803,-0.0157658295,0.003116434784,0.03766564113,-0.004459973045,0.003139493539,-0.02019063646,-0.0194385992,-0.01324434539,-0.02746073844,-0.03795006637,0.01232492261,0.01549660033,-0.02262765016,-0.02477465642,0.00491363724,-0.005765884953,-0.05594459667,-0.01993209274,-0.04026756431,0.003651581465,0.06486198536,0.02744668275,-0.03118068887,-0.02121800706,0.008804429939,-0.006617827515,-0.03351802754,-0.01157289411,0.04127386881,0.04609480728,-0.02676769807,-0.04759627108,0.001901109246,0.02994495162,0.06582650473,0.02356883268,-0.0005698564699,-0.02642957222,-0.03760576041,-0.0408683338,0.02261794369,-0.04141188069,0.00802920843,0.02147663827,-0.009743058206,0.07344364917,-0.02675321684,-0.03899766669,0.04912615345,-0.0001619678805,-0.005202544149,-0.0122938691,0.001756717215,-0.006881120916,0.002353349637,0.005798545498,-0.01826657818,0.01314863292,-0.01979487695,0.02738597038,0.009926086705,-0.02671792709,0.008693436889,0.009527240502,0.02887736883,0.004830642302,-0.03421000683,-0.03681834169,-0.02626663793,-0.03255400445,0.02265607114,-0.01266917241,0.02783072372,0.03120999303,-0.02064254935,0.07060366926,0.00350044782,-0.01679043678,-0.01160901986,-0.009573773465,-0.03783312069,0.07647217985,0.003828788135,0.006337739444,-0.02304613551,-0.03430728928,-0.004149846851,-0.03748547697,-0.007061547883,0.02508899294,0.05609955278,-0.04881936675,0.01646120331,-0.01887843608,-0.03174591672,-0.05191429502,-0.04087273738,-0.002802122771,-0.0003587914761,-0.001753750657,-0.01387391542,-0.04369966558,-0.02932248318,0.04748494632,0.003107281319,0.01961360744,0.007690689664,0.007991812479,-0.0330892011,0.0195569812,0.03143035185,-0.02408174826,0.01916337108,0.04089320685,0.03489622355,-0.0351540171,0.0147121279,-0.006542304216,-0.01558374243,0.004138665529,-0.03118193753,0.05591864116,-0.01327497284,-0.00929610323,0.02974182876,-0.03910129372,-0.009791303366,0.06912041632,-0.01374136471,-0.002236368695,0.005037227311,0.0160773071,-0.03795698597,-0.02158351531,0.02242709846,0.02700066774,0.03077222665,0.04429723669,-0.01048788342,0.02171460012,0.0131522108,0.01717369704,-0.03101719784,-0.01474445039,-0.02245820168,0.01335370831,0.007717006815,-0.007977503816,-0.0003352202312,-0.009000681025,-0.02953412313,0.01084817065,0.03316338072,-0.02392698702,0.009969900958,0.02027655577,-0.009041857312,0.0196334158,0.004150973108,-0.0148725672,-0.005221874914,-0.02613838627,-0.007652897975,0.02353867636,-0.01977787613,0.007209413308,0.003491272676,-0.01687641487,-0.04158945906,0.01336441929,0.004463046706,0.01294630351,0.02313303962,-0.0163872243,-0.02881133584,0.02352338506,-0.001063555243,-0.01972854868,-0.01242818869,0.002719831492,-0.007584753509,0.02935223676,0.007333459953,0.03261362675,-0.01253731141,0.003736746238,0.02408085819,0.001131934695,0.01588648185,-0.0005647833178,0.009786199813,0.03120526408,0.01671646033,-0.01560319358,-0.02699604679,-0.03955789731,-0.005336066524,-0.004569646821,0.03020010697,0.00260930876,-0.01481326928,0.03574646874,-0.02737535075,-0.02711022314,-0.02253652727,0.01221080307,0.0004808787784,-0.05049372688,0.03472111626,0.003259874909,0.004029852865,0.01987502297,-0.01906285368,0.04590851918,0.0126470688,-0.0005207834193,0.008313524507,-0.005594469675,-0.03082553872,-0.0176567871,0.02120125694,0.004059269917,-0.02658137413,0.02028700341,0.03366278104,0.009428699028,-0.01561691768,-0.03133197762,-0.02110221644,-0.01477707564,-0.001105234587,0.02576698904,-0.05581924365,0.01815030409,-0.008570645422,0.009406011903,0.01673924584,0.02106007823,0.02758136487,-0.02427187427,-0.03366860642,-0.02746639077,0.01213305221,-0.0215146634,-0.002015518464,-0.04628099967,-0.007351254805,-0.0196145675,0.03355680959,0.01962120661,0.03000795097,-0.02012822706,0.0240807885,0.01142727304,0.02133795457,0.02580914246,-0.001576147418,0.02063681896,0.004279669648,-0.01779258275,0.02387528664,-0.03459620492,-0.002446125311,0.03971186017,-0.01810428795,0.02395006384,-0.02420940392,-0.005486530145,-0.004008583488,-0.03137234388,0.001165660018,-0.02787702341,0.02779328643,0.03748353879,-0.02123527694,-0.01794583031,0.01345776564,-0.02276055306,0.02406768331,0.0006058918208,-0.01377867818,-0.02790285687,0.0135568118,-0.01968422418,-0.00581515999,-0.03714205691,0.02424591506,-0.009328384244,-0.0003001813132,0.02222408611,0.01398589925,-0.0238142962,0.01262982317,0.003867948091,0.02702058386,0.003245125657,0.04393263092,-0.01740738147,0.02661166469,-0.0408418498,0.01350014942,0.00293993139,0.01251686217,0.0307120468,0.02673651688,0.03585665391,-0.02568725523,-0.0200544035,-0.001325729818,0.01162625087,-0.02101512913,0.01020724718,0.007934795268,0.03388315881,-0.025805329,-0.03493680631,0.01356516424,-0.01966893989,0.02988587793,0.006960576392,-0.003063566765,0.02321256041,-0.007486794576,-0.07047065986,-0.0560303037,0.01561100058,0.03780593546,-0.01965020154,0.01443957107,0.03514967096,0.01673585404,0.006347819874,0.07623391746,-0.004215892478,-0.01867044216,0.03317464165,0.04153896002,0.0561215073,0.01739406273,-0.009413269215,-0.02759131526,-0.03991812192,-0.02387387403,-0.002948426883,0.001741924625,-0.01624034834,0.0008783146699,-0.01181874277,0.002744353666,-0.04697490592,-0.02712220773,-0.01178239423,0.004085719466,-0.05958246117,0.008610933618,-0.02365997504,-0.02091520748,-0.001499441245,-0.02644358543,0.05506674781,0.06924017871,-0.009794115501,-0.02035209247,-0.001033116132,-0.02724702595,-0.007263403568,0.004027629169,-0.05243674957,0.01274374656,0.0653446718,0.003215057267,-0.006502567145,0.003994038117,0.03650459902,-0.02828905205,-0.03045450006,-0.0239265536,0.007789823995,0.02400802505,-0.005962887819,0.01087417764,-0.03644727991,-0.004760055133,0.03355976455,0.02608603148,0.009916829325,-0.01762448091,-0.03829289846,-0.05238434063,-0.03724095466,0.008875055467,0.002813242872,-0.01538631287,0.07507077424,-0.01927598939,0.03532639284,0.05376143172,-0.01173403454,-0.01565316542,0.05870920695,0.0430995967,0.02048847527,-0.05662446727,0.0334035384,-0.05380661693,-0.02172385201,0.005103470912,-0.04389108348,0.00578234265,0.04716345379,0.04505467941,-0.02706844224,-0.02944360976,-0.05795472179,0.03263796283,-0.04547703104,0.003400192106,-0.05374486989,-0.01306051887,-0.03444205247,0.006086074361,-0.02248861469,-0.0601242188,0.06460210813,0.03324608937,-0.0182661403,0.04562754959,-0.03864019221,0.02739945798,-0.01635946814,0.01003733278,-0.05325782795,0.0707820734,0.03256062762,0.01718587071,0.01707658937,-0.005942238455,0.04419669847,-0.02287540743,-0.02157309597,-0.03439719911,0.0565278919,-0.009442448887,-0.06582431905,0.06834288238,-0.06194484161,-0.02556040566,0.03203638116,0.0241276863,-0.004690537753,-0.04859108457,-0.02609634168,-0.0616288334,-0.0704289792,0.001708578856,0.02201578063,0.0185930368,0.0799264331,0.01542736555,0.07227317735,0.04555094185,0.02305272517,0.02428888842,0.04780124188,-0.01473064553,0.06157265624,-0.0360930703,0.002712076507,0.009696692901,-0.04453637397,-0.03183932667,-0.005325192901,0.02164646653,-0.0002700103473,0.04878426693,-0.05925443572,-0.008187465847,-0.05503180385,0.02255394084,-0.02264299157,-0.04936976878,-0.0299390638,-0.006167760291,-0.0592065597,-0.0106257117,-0.02651854861,-0.02702801984,0.09835594163,0.04068465974,-0.02570445005,-0.02668296431,-0.02725552117,0.02520540933,-0.03045855893,0.008983977029,-0.04687710873,0.01173933648,0.07775571725,0.04721467132,-0.03148831559,-0.003411079447,0.05759184323,-0.02965988573,-0.02903915834,-0.0176929211,0.02031953165,-0.01602340943,-0.06801743096,0.05117985802,-0.03853103467,-0.016837243,0.07861575537,0.05976314678,0.02955186875,-0.06839647756,-0.05276209239,-0.08140885965,-0.0009418751559,-0.02055247935,0.03591679612,0.01195529275,0.03895517152,0.03725571564,0.09252189274,0.08825799833,0.002932178206,0.03048576241,0.05012139601,-0.01516383641,0.04229977549,-0.04638018126,0.003444184024,-0.01033676196,-0.02661170092,0.02615552347,-0.01530752938,0.03091620666,0.05366437408,0.04719313034,-0.02493398508,0.04140832293,-0.06440495877,0.01753921256,-0.02030978494,0.008956328406,-0.005215538057,-0.006371393678,-0.05581822607,-0.003659703492,-0.05165644553,-0.05968108385,0.1171906653,0.01826017524,-0.01628425205,-0.01069107764,-0.03675188183,-0.01897063667,-0.03111375022,-0.004096081126,-0.05416721048,0.07226370261,0.05372097531,0.03827054344,0.03496243172,-0.004457183561,0.0277494618,-0.007138770452,-0.04951251489,0.01204465385,0.0593988866,0.02519047586,-0.07778393584,0.04210124964,-0.03106641849,0.002243087516,0.06229459064,0.06841948154,0.04007258864,-0.02256276834,-0.006775889392,-0.08937619925,0.03466648521,0.03008620479,0.03908874475,0.01829810391,0.0370138921,-8.315032378e-05,0.04834974569,0.06586583527,0.01508908301,0.01873372999,0.03426996313,0.004921148124,0.01105887278,0.03164968914,0.02637669963,-0.004068117691,0.00675779164,0.01897889591,-0.02920544267,0.006407899396,-0.01981649988,0.04384228318,0.02390449263,-0.001339188677,-0.007712512704,0.02050889204,-0.05042971696,0.009320844324,0.0003583562293,-0.007286515445,-0.0936638892,-0.03570707339,-0.0003058889483,-0.03290296258,0.08773036955,-0.0120032616,-0.006735177157,-0.04836416599,0.02363182724,-0.03019978683,0.02236698156,-0.01275535583,-0.04166700232,0.04378462074,0.0355913291,0.006483557311,0.007842406549,0.002463648235,-0.008348158601,-0.01277364513,0.00452713168,-0.03356377613,-0.03660785937,0.0203306712,-0.04628812057,0.01869961813,0.03305312699,0.02869619274,0.005573839977,0.03909824519,0.007447798679,-0.01762480693,0.05773877314,-0.06637959724,0.02435585096,0.01730293911,0.01003560141,-0.01444830297,0.03315407483,-0.01360441997,-0.01818944148,0.02514920137,0.02805137548,0.02919894283,-0.03073138513,0.01790562662,-0.05368130829,0.04039612566,0.01789637887,-0.02451549168,0.01906298856,-0.005416714255,-0.0205824476,0.01639592884,-0.02965365435,0.006052505179,0.0402115506,0.05263656779,0.004923207788,-0.03364473414,0.006178416983,0.06082745647,-1.175549316e-05,0.006402665826,-0.07400449883,0.01378077554,0.003232581508,0.01048023751,0.03036973594,0.01218057269,-0.01105780892,0.003627948493,0.01207515351,-0.01716369952,-0.0007034159923,0.02367294536,0.01048414215,0.04780706061,-0.01021520987,-0.02094491447,-0.01429245381,0.03427650736,-0.02040872258,-0.005563765869,-0.01360220875,-0.02435024407,-0.05621743234,-0.01703110678,-0.05333285342,0.01631190299,0.006352153819,0.04708302741,-0.05362145772,-0.001727527114,-0.01642316333,-0.008372896272,0.05254208011,-0.03547976865,0.03416481045,-0.009214942562,-0.030207673,-0.02268387488,0.05093976283,0.03195758064,-0.0567532182,0.003652279494,-0.03339017899,0.0005246407494,-0.03148760134,0.02150624407,-0.07208111543,0.02964634674,-0.009181634664,0.04980997717,0.02565999402,0.01174154051,-0.005849008167,0.02604567135,-0.01783707654,-0.0186576662,0.01316708349,0.02463134578,0.04941785566,-0.02870429228,-0.01064775017,0.03371884184,-0.005186202535,0.0152143554,-0.0006767307901,-0.006103059592,-0.008339659197,0.06145597923,0.02071728336,-0.0473129671,-0.03371529773,3.409440958e-05,0.007015808584,0.01201707381,0.01113941634,0.01651530259,0.02754829628,0.0001021374558,-0.01096367336,0.01405063661,0.01569001604,-0.02874030082,-0.03941902324,0.02901913982,0.01718847757,0.02362870345,-0.04851587931,-0.01106939868,-0.02349219312,-0.01095173718,0.03637918096,0.07041481314,-0.08338061242,-0.005491926664,0.04845663612,0.03527927516,0.03311992462,-0.005964027404,0.04984861074,-0.01056499203,-0.01211950439,0.02166860211,-0.001695826499,0.03775412816,-0.03231424322,-0.005226771207,-0.03058128611,-0.02014230023,-0.04170788171,-0.04427905737,-0.01958154083,0.01208454844,-0.02058753248,0.04287329859,0.0128507355,-0.01318664914,0.01232478249,-0.0251328183,-0.03720849974,-0.002199632828,0.01378289485,0.03307876092,0.06388838497,-0.0331821488,0.005385381622,0.004324582891,0.009972049761,-0.008136445601,0.02648074969,-0.02285728496,-0.001831002075,0.03282839251,0.03066945403,-0.01371524068,-0.03976042152,-0.0532863638,0.04199382718,-0.0224956656,0.01383660105,0.01223897444,-0.0006352027858,0.0170428471,-0.01284571568,-0.0378078311,-0.01721648332,0.005598373343,0.02501277746,-0.006298068943,-0.0007239598772,0.03424084875,-0.01702077726,0.008287591895,-0.02941506002,-0.01282453108,0.04872909503,0.001286442736,-0.01915971408,0.02513163371,0.04819016565,-0.001471200155,-0.007668465127,-0.01232403312,0.02375995731,-0.05242292942,-0.02741369706,0.01307018304,-0.003204802709,-0.02184421596,0.02200564797,-0.009345229855,-0.01777162236,-0.03571727093,0.04647374707,-0.04636467604,0.005431659273,-0.0451443421,-0.009864685321,0.03040544297,-0.03589443107,0.01971070136,0.02187211615,-0.01679930904,-0.01285664407,0.01101094407,0.02686501144,0.01024191075,0.005841800254,-0.03407141439,-0.03323872017,-0.0555303808,-0.02565411815,0.03450944228,-0.008449722211,-0.02035391036,-0.04229852514,0.0188621953,-0.05523491893,0.02510442013,-0.02177549945,0.002834898064,0.0526875155,0.01726662749,0.0245023842,0.008012637409,-1.964715856e-05,0.04778837503,-0.01006660902,0.03631970608,0.02201666364,-0.00299030163,0.01978096062,-0.01316119502,-0.00296440308,-0.02260225593,0.01394061261,-0.04568274336,0.01174739341,0.03996123351,0.02514629027,-0.002463695719,-0.01790381994,0.04731118084,0.02669842626,0.03939826558,0.004263182833,0.01827806099,-0.0298508108,-0.03288525251,-0.05619340521,0.002449958694,-0.01578059164,0.02277807939,-0.01516405943,0.006517592934,0.0230030723,0.01148222971,-0.003119929473,-0.01555061073,0.02787122631,-0.007496163434,-0.01918247719,0.06038811352,0.0289593004,-0.02037904737,0.02916898159,0.004180311054,0.02107475153,0.0270516155,-0.02097989047,0.01638799141,0.06245044791,-0.03477045829,-0.04167950351,0.01037748251,0.01305612316,0.04203595218,0.02155735301,0.003377252287,-0.02216284472,0.002558040958,-0.01687577047,-0.001263446619,-0.05826451388,0.01626019281,0.0816694138,0.0265767871,0.05353613915,-0.0161126326,0.0052735686,0.03111588023,-0.01525955684,-0.006637571323,-0.00443738182,-0.01338668096,-0.0004553451194,0.03109574766,0.02495749914,-0.002389456519,0.03595511882,-0.0118411868,-0.008844748686,-0.03058416399,-0.02264689667,-0.04437654947,0.02325739484,0.02841688061,-0.03070962313,-0.009883062009,-0.03137364797,0.03996847455,-0.05991632169,0.01546188085,-0.04393566734,0.01459852962,-0.02465917255,-0.02974782517,0.01243734674,-0.002679312712,0.02242767096,0.02787734928,-0.01261306882,-0.03091756931,0.07167056899,-0.05076773394,0.009248670675,0.05180879163,-0.0128604711,0.0187778524,0.02435865937,0.01529582295,0.03067592828,0.001943125665,-0.01494933593,-0.01535748351,0.01890913451,-0.03609493881,-0.008669612969,-0.05233164494,0.0003664728454,0.03649143146,0.01717699252,-0.02666291482,-0.04707799423,-0.05986376063,-0.02681532076,-0.0120375331,-0.03125090513,-0.01007140605,0.04047216824,-0.03534528732,0.04757909398,-0.01510477105,-0.03139341072,0.02831583126,0.02638369874,0.002819601259,-0.02728163724,0.01915634307,-0.01963591963,-0.03122965604,0.01426792431,-0.02440521695,0.03436748847,0.02428684243,0.02733320075,0.01403262278,-0.06045524907,-0.02492135156,0.02947265393,0.04693296035,-0.0345176022,-0.03301842115,-0.02660173385,-0.01466028326,-0.02064267758,-0.01274201867,0.02651355564,0.01531593739,-0.02990145509,-0.02064128931,-0.005554376105,-0.03619368733,-0.03719490835,-0.02648255457,-0.03352521934,0.01915714549,0.0350198874,0.00253120946,0.0106338671,-0.001876951212,0.01400655831,0.01911302026,-0.01602523986,-0.009419895406,0.01003801847,0.008825658781,0.005490799408,-0.01897336968,-0.01833969864,0.01341344708,-0.01650328966,0.02646273735,-0.01442061967,-0.02306184745,0.03990834306,-0.02486490389,0.026729815,-0.02840052716,-0.006451839131,-0.04669175573,-0.001550202162,0.02438763664,-0.003741803022,-0.003446817436,0.04408840042,0.001786651256,0.02528097995,-0.03279171572,0.02636510938,-0.05019408503,0.03559197769,0.02184666953,0.002011327142,-0.0319230578,0.03206477377,-0.002263249883,0.04456655337,-0.02190890843,-0.01233032868,-0.0068695638,-0.02284404041,0.009858988269,0.02723428808,-0.04646190697,0.02921180236,0.008231103605,-0.03489887418,0.03407231955,-0.04924191526,0.02450640315,-0.03139342854,-0.0240783535,-0.03501219137,-0.01528458517,-0.02011791256,-0.0321083681,-0.01287150496,0.02858494842,-0.006317244718,0.02621155219,0.05103652415,0.0282549936,-0.02582967397,-0.02846817663,0.03504301433,0.02773258502,0.02847951084,0.007904832915,-0.01142086893,-0.0252698771,0.02010382147,0.002865682172,0.004342481997,-0.02443753352,0.01560111642,0.0327323553,0.007247500353,-0.01220352154,-0.02040162602,0.01168726096,0.01562103558,-0.0376065074,-0.01852842602,-0.003635813469,0.04023408364,-0.009140187492,-0.01797919758,-0.01841821648,0.009642788347,0.03390492986,0.003367893675,-0.03921587296,0.01180264204,0.001237517036,-0.007934065602,-0.01116536403,-0.04383891511,0.006981023269,0.005074413472,-0.02357618877,0.04557800237,0.0250182721,0.01465308905,-0.02987886643,0.01108651249,0.03799078023,0.02988585697,0.009848674194,0.01532227987,-0.001427212783,-0.02161456671,-0.004509469342,-0.01879709314,-0.007484378545,0.01689650908,-0.01428825148,-0.037708518,0.02548574583,0.02665343852,0.02755446162,-0.006358950924,-0.03361631828,0.006029941683,-0.01702065555,-0.01734682265,0.03360246741,0.03419178159,-0.04136721598,0.0500610338,0.03409254122,0.04760261848,0.02977888514,-0.01861655633,-0.03411077196,0.01399870417,-0.03412181447,-0.06141692405,-0.02294116547,0.0446624745,-0.01469658127,-0.01761735382,-0.05480551033,-0.0324489605,0.01613427065,0.006532878529,0.02108151093,-0.006812541913,0.02638225527,-0.005198536946,0.03883640245,-0.05188415194,0.008456904612,0.001234858846,0.003987420024,-0.01388207318,-0.02449998955,0.03841221041,0.00115885876,0.03280764972,0.02559225994,-0.01842352824,0.0324566745,-0.01933044085,-0.007268748546,-0.02349902087,0.04145845501,-0.03075721773,0.009769054516,-0.03907456102,0.002500697205,0.02445404152,-0.0122300196,-0.03400660285,-0.000991106561,-0.0221159999,0.01335714363,-0.02587862671,-0.02001390037,-0.01365305852,-0.02165207181,0.0004016243178,-0.02394809345,-0.009219037908,0.01371161289,0.02076022355,-0.002761003442,0.05579707938,0.03329069189,0.03172561312,0.02609235121,-0.02584094787,-0.03646638081,-0.006915674318,-0.004527809433,-0.01171822578,0.0387085531,0.002219463259,-0.001097588327,0.001620683301,0.03267762891,-0.04423815904,-0.03151602202,0.03734475857,-0.004731869744,-0.04780024672,-0.02157738069,0.003191332102,0.007682613265,-0.04674543508,-0.04387838532,-0.007297560428,0.02611361537,0.04002447992,0.008079758077,-0.04590845222,-0.02729779821,-0.04627405058,-0.01808679274,0.02005603304,-0.01786757402,0.03678913495,-0.03677655354,-0.02863668978,-0.03627412503,0.05255162466,0.002412985161,-0.05573441229,-0.01756786506,0.04406449081,-0.008581003099,-0.02742351785,0.04304132876,-0.0002562495257,-0.03447844685,0.001085819984,0.03959143611,-0.01277970627,0.003485797002,-0.07683746353,-0.03567387524,-0.01380231564,-0.010505289,0.01261091691,-0.01180260181,0.02546725563,0.01833935754,0.03839400505,0.08139064812,-0.03107681667,-0.02202772139,0.05416046579,0.0352091686,0.06369846649,-0.02283457556,-0.01373774841,-0.05513881076,-0.02620780985,0.02659970279,-0.03608333133,0.002336886749,0.0107149363,0.01738815753,-0.01300283314,-0.01060756954,-0.01605350629,-0.01534512575,0.01476465299,-0.05183870342,-0.03097065831,-0.004790194842,-0.06170740558,-0.0276001567,-0.03168899358,-0.05805639071,0.02280572637,0.07716625029,-0.01067463507,0.02158126231,-0.04797776531,0.0145192115,-0.04966568533,0.01790734347,-0.07187536845,0.03019600524,0.06513407368,0.05435904187,0.02065346217,-0.00828028731,0.05503467251,0.0230300979,-0.0448794378,-0.02214041424,0.008375118713,0.001092156499,-0.02646289379,0.07549990024,-0.06062372363,-0.05299284624,0.05339732994,0.05553194077,0.01487498304,-0.04309759404,0.0007558251737,-0.07172643191,-0.01586434985,-0.01963120804,0.02157775533,0.003682157092,0.01504051397,0.03708780488,0.06675247045,0.05945680764,-0.01701549893,-0.02007971731,0.07981459434,0.02335908016,0.01678431737,-0.004238280797,-0.03157273197,-0.0003295199333,-0.03387225062,0.03749765099,-0.004393730656,-0.02785374273,0.05718171571,0.008144632995,-0.03955922597,-0.002131115115,-0.003147797682,0.0203096286,-0.0001780054591,-0.02468605278,-0.04162469407,-0.009550966242,-0.03871236126,0.01220405614,-0.05213636778,-0.04587828027,0.06485351389,0.01185894942,0.03805228741,-0.007378534266,-0.04261046978,-0.02190526803,-0.01620579544,-0.0231379129,-0.009842008326,0.005903027246,0.02586825652,0.03064298479,-0.004329121324,0.002237915283,0.06546729169,0.03196782625,-0.01906076579,0.01687834579,0.07257574098,0.02472175529,-0.05662878894,0.05499920971,-0.02815112063,0.002222231183,0.06582490788,0.05946907023,-0.03121809651,-0.03489243681,0.04102696889,-0.03750107978,-0.008517120421,0.02333372137,0.01538112487,0.04551930128,0.04734580107,0.03024583063,0.001356948261,0.06759572683,-0.002110817749,0.005333380916,0.03114649134,0.01453503105,0.02397081308,-0.03101722111,-0.03227261197,-0.009477043373,-0.0514556378,-0.02024878956,0.005166409276,5.874672369e-05,0.03576843051,0.02733296498,-0.04124512585,0.0271844108,0.01599353522,0.006790445442,-0.01117665066,-0.03862015352,0.01050260009,-0.0322899187,-0.07503536904,-0.01258439232,-0.0002563199008,0.01532624573,0.0888103737,-0.02159756592,-0.01527956794,-0.04296657872,0.002930734966,-0.02243612309,-0.03789311893,0.03166536698,0.00166979048,0.04239849638,-0.02205948059,-0.000670165069,0.0185623946,0.009889219592,0.04316220571,0.005706985604,-0.03242511181,-0.01269600628,-0.01685134645,0.04132792772,-0.05988719982,-0.0293096551,-0.01019394024,-0.01075934774,0.02243580942,-0.002234699575,0.00249640678,0.01089278468,0.006444571724,-0.05633515734,0.02820419681,0.04061587815,-0.01941218052,0.0134763506,0.03929750474,0.01064732306,-0.05013099656,0.01056810556,-0.01348762296,0.0328200262,-0.01566050012,0.04578212341,-0.05811805748,0.002459616522,0.00707334432,-0.01678451881,0.03459496515,-0.01745365313,0.03687229851,-0.02239786163,-0.034573317,-0.02924482109,0.03466502369,-0.02897471385,0.01241907342,-0.01731853616,0.00158410285,0.01460205578,0.0475381023,-0.007258622857,-0.08630486028,-0.02668990589,0.01167137142,0.008661546467,0.03238873751,-0.07679905341,0.002512769331,-0.03240900196,0.01234770803,0.01999068474,0.03234912597,-0.004822552022,0.04887390535,0.02929532783,-0.06095423644,-0.0006704201409,2.808546288e-05,0.009092595239,-0.05926347853,0.009218217094,0.02071291186,-0.02358331697,-0.01534341349,0.05126035243,-0.04174740873,-0.04468059461,0.04554758422,0.05610321281,-0.03144657635,-0.02758910289,-0.007053757677,0.03770914343,0.02960021823,-0.05846558815,0.05267963653,0.03534226466,0.02392058647,0.02505939145,0.05962580184,0.01861936874,-0.09256021393,0.04204796793,-0.00978731479,-0.01458720192,-0.01911727811,0.005603768156,-0.06394595364,0.0413394614,0.00571189412,-0.001695888765,0.009194751149,0.02884201037,0.04662754047,0.02941690113,-0.07273680949,-0.04294619833,0.03485903556,-0.01385139833,0.03558968603,0.000701048011,-0.005725565409,0.03465725711,0.05386571908,-0.001633871199,-0.01478773423,0.03526185853,-0.02016721045,0.06915156147,0.0288081105,-0.06135136805,0.003852772482,-0.01402173502,0.01835063264,0.02661807554,-0.01564693021,0.004485690277,0.04004310429,0.03219674946,-0.06621789119,-0.04714931212,-0.02210212221,-0.02764423878,-0.05192604536,-0.01791392227,0.04431550385,0.009052854026,-0.08005003293,0.008138031508,-0.0303739818,-0.07254330742,0.07746100803,0.0663847821,-0.04545366623,-0.06779669126,0.02731708989,0.07531877169,0.06056236429,-0.01392479695,0.09340245853,0.03606009582,-0.009447045734,-0.005417708503,0.0416916787,0.05759144966,-0.06692108666,0.004317574082,0.00232129928,-0.03033758838,-0.02629192526,-0.02182551297,-0.07613016714,0.03256094328,0.02003644915,0.003495647141,0.04892607205,-0.01255461261,0.04373417489,-0.027738572,-0.07996765681,-0.037716501,0.07371918308,0.03079326143,0.04386271343,0.02415154362,0.01099022033,0.05691915812,0.01252682667,0.01400430971,-0.009351962108,-0.03496967206,0.04117902987,0.08527758581,0.01972724468,-0.06958786557,-0.005878026695,-0.05569975633,0.01958344488,0.03145823198,0.03891400401,0.02088860858,0.05724246423,0.02975857221,-0.04609719171,-0.04324420969,0.01930029446,-0.0001172152862,-0.05015323889,-0.01326443241,0.04833375448,-0.008097933905,-0.07206353918,0.01080485494,-0.001563411165,-0.011162636,0.07538659127,0.04836167415,-0.112059772,-0.06880286636,0.004875167038,0.06491192076,-0.01222167892,-0.01410558835,-0.01079412808,-0.03234962257,-0.008304218793,-0.005554489284,0.03520799539,0.01689477402,0.03683993181,0.0279437876,-0.0156335966,0.0005680679109,0.01025985067,0.004074199177,-0.03056074243,-0.02417958975,-0.02783762922,-0.008736125983,-0.04149853892,-0.01457041133,-0.02877784079,-0.02556329072,0.01330042677,0.01977761829,-0.02109284343,0.005367803922,0.02789040209,-0.02396542013,-0.02642070599,0.03424669735,-0.008314230485,0.04733729517,-0.01570768882,-0.01484262544,-0.03268336313,0.02370700507,0.0367565098,0.02782699774,-0.01932687249,-0.008478932825,0.05323431844,-0.03243252215,0.03670673474,-0.001983818161,-0.0177264183,0.03113714783,-0.01072780405,-0.002524989279,0.03352341259,-0.007421107075,-0.01361103586,-0.02699389468,-0.02449288549,-0.009295891804,-0.04993538026,-0.01734776655,-0.004825915278,0.04530936503,0.04903533192,0.02542500266,-0.01089825604,-0.008979144755,0.04130192296,0.03365313488,0.002779116409,-0.002548654722,-0.02741586137,-0.01364645702,0.00121378011,-0.03266294535,0.01559599196,0.01970407896,0.02797982835,0.0190608392,0.00927942816,-0.006305039709,0.04100385914,0.01909286105,0.006498797471,-0.02408290893,-0.007850213945,0.04372011352,-0.05264847011,0.004106212884,-0.05437197922,0.003271043388,0.03046526806,0.05449939368,-0.05669177304,0.007186111079,0.00385011535,0.02723678942,-0.009055423552,-0.03918906395,-0.01462122317,0.03666055289,0.01011221186,-0.009630670133,0.006439284087,-0.05958977294,-0.0190077594,0.04263940813,0.01594242245,0.02261862819,0.02742972015,-0.003456360703,0.05240289435,-0.01052231855,0.004741447154,0.007224399493,0.04530359255,0.07150922381,0.008461701719,-0.03118759194,0.07843992211,0.031276944,-0.04083551087,-0.0213902491,-0.006598536174,-0.02501614462,0.02470470558,0.02229374256,0.003586351123,-0.04788865618,0.01988371369,0.06922315175,0.03650961856,-0.0388199295,0.02201773069,0.0250723031,-0.007655154919,-0.0499354297,0.01619567916,-0.03872790119,-0.01518224977,-0.02496302574,0.01650983318,-0.004905117678,-0.007064360174,-0.02331079728,0.03660494753,-0.01696956028,0.009738913905,-0.005249124496,0.01788423288,-0.004428540827,-0.03982117279,-0.03242858809,-0.009316510308,-0.004131383066,0.07771697679,0.02610807644,-0.01111540956,-0.01889079602,0.04906930192,0.01868937747,-0.009952406354,-0.04759571615,-0.008584687298,0.02184869886,-0.004303615912,-0.02983124994,0.0190866486,-0.03600547295,-0.01971846626,0.03299069399,-0.01087035202,0.01266763724,0.05103158125,0.002962249256,0.06942435239,-0.03465895282,-0.04447318636,-0.004570251,0.05279085606,0.02751467573,0.009144647422,0.02273640295,-0.009523481319,-0.00526176901,-0.01071558184,0.02501308673,0.03184431183,-0.0171972271,0.009217664527,0.01763552417,-0.02909258257,-0.01706213111,0.05270384344,0.0588075699,0.02275803276,-0.02696048523,0.002906617927,0.03421245041,-0.07742893758,-0.03372555522,0.0102465157,-0.005107532299,-0.0558564563,0.007541893003,0.04363505174,-0.04149228902,-0.02900527547,0.02880262792,0.04215589079,-0.01209836735,0.07874947208,0.002135379676,-0.000742296174,0.05346350019,-0.03540141582,-0.002645542591,-0.02578848745,0.01073321026,0.07490712286,0.01614056356,-0.003576084576,0.02745646386,0.02254233975,-0.002549572465,-0.02198959443,-0.04416894848,0.03160013682,0.05364311086,0.02513802465,-0.01690004615,-0.03709681893,-0.04483432931,-0.04297799273,-0.01323054518,-0.01539999444,-0.01209461682,0.04748408124,0.006766570971,0.04282138832,0.03276643906,0.001713738835,0.03258584372,0.02833747635,-0.00806304444,0.01129567901,-0.005912128891,0.02151195153,0.03648642533,0.01701973573,-0.021171202,0.009581177631,-0.02797116602,-0.01798770894,0.02731601122,-0.03371091573,-0.03969364904,0.05295166447,0.002155095467,0.01533934024,-0.04762427024,0.007407712533,0.05356427694,-0.04585633887,-0.02186469634,0.001469545283,-0.03223588493,-0.01663916103,0.03543171361,-0.01309181807,0.01175406785,0.03138826728,-0.03195821061,0.006197190634,-0.03092124558,0.01199178655,-0.005058340082,0.01423749686,0.01522653603,0.04073457947,0.03265951113,0.02952921768,0.03129414675,-0.01771311517,-0.002078888217,-0.00551474853,0.001020683075,0.007658944719,0.02987517901,-0.001588477233,-0.0153125988,0.02314374804,0.02169894973,0.03565490868,-0.0183696317,-0.004745992872,0.01085350324,-0.04867386853,-0.005817614255,0.01544126639,-0.003814518126,0.0238556341,-0.01563090621,0.007300179119,-0.01677457418,0.009452089201,-0.01558999091,-0.02758211081,0.00300119236,0.02488556342,-0.007361200896,0.001301100905,0.00862174741,0.002982919811,-0.001844726008,0.03600172794,0.006334403487,0.02659730704,-0.02887699602,-0.03535003028,0.03696909358,0.002498899823,-0.01829966661,-0.03297698732,-0.02177707002,-0.03530762037,0.01688337962,-0.04193519552,-0.01331815489,0.01829883323,0.002968919867,-0.0008343301829,-0.009713201265,0.03298053215,0.003751125134,-0.0228669485,0.02879330575,-0.01400702682,-0.01332331521,0.0007132386507,-0.004435333167,0.01706045258,0.02524340598,0.007925273855,0.01342770844,0.03923190749,-0.01739005838,0.01802574083,-0.01898895981,-0.02185817071,0.002371957213,0.01249817292,0.02561826477,0.03917440749,0.0416534744,-0.01539196433,0.01076014182,-0.02449154544,0.03340882301,-0.0364038981,0.008439020289,-0.0008141657973,-0.03812661425,0.01739553334,0.03487057287,-0.01428301206,0.02652825904,0.01317380327,0.0196070987,0.01385943646,0.0253335762,0.008072895151,0.02391584956,-0.005784376639,-0.0009857600045,-0.0002795013186,-0.01242198019,-0.01492431036,-0.03257372057,0.02815172046,-0.001124212757,0.01461582152,-0.03996077829,0.01227460842,-0.02407984544,-0.004128595313,-0.04136460856,0.01804319616,-0.003916269682,-0.01495680296,0.00150080743,0.03203391363,-0.02261102632,0.005295865792,0.01523505738,0.01135266989,-0.01914423186,-0.04552586476,-0.02966812974,0.007226153739,-0.01780654823,-0.02285016091,-0.00902707907,-0.02458680147,-0.01481037007,0.01562881796,-0.03582136944,0.01937754434,0.001253115382,0.01440523793,0.01102263028,0.03200126049,-0.01842400849,0.02338995539,-0.01856693211,-0.02431322246,-0.01374110663,0.0434561185,-0.00736355986,0.03577734717,-0.02600491236,0.01665492337,-0.00151054314,-0.01277580279,0.01212588855,-0.007076798564,0.01508610868,0.04628123514,0.02054698851,0.01311210729,0.001306236253,-0.03691728393,0.009736311288,-0.007300591497,-0.002324042852,0.01605570193,-0.02372889815,-5.293434648e-05,0.005307428195,0.0243740584,0.03109150036,-0.0117493327,-0.004330770672,-0.00546213998,0.007574246938,0.02958278423,-0.01591326381,-0.02307436009,0.01627413771,0.01668687516,-0.005329258645,-0.0002431984218,-0.03855887166,-0.04885378197,0.01407789188,-0.03659524819,0.02618978354,-0.002401020751,0.01013227889,-0.02877820349,0.01849582447,0.01122358045,0.01373753902,-0.001384610187,0.02516010944,0.03758190392,-0.008983187015,0.03552430748,-0.01258816846,-0.01224695103,-0.002882484887,0.02835511131,-0.03021157358,0.02813141052,0.01134560838,0.01718572952,-0.03537997546,0.006813504749,0.01748206609,-0.02364587507,0.001915046131,0.01800087021,0.01061915137,-0.03452846039,-0.006984245914,-0.01310949228,-0.01657320322,0.0164466504,0.0009007401186,-0.01820222062,0.01750222136,-0.01957533354,0.04944564443,0.001090070004,-0.0008851743993,-0.007777167433,0.00694609915,-0.0202865674,-0.02796810721,-0.0009567457117,-0.005769421919,0.006354031215,0.001238871238,0.007111598291,-0.003902575581,0.01348351133,0.009325757721,0.01118500541,0.0009788778621,0.03943264825,0.002694027101,-0.01877417848,-0.006900503104,-4.421022222e-05,-0.04450755826,0.01280625392,-0.002067650042,-0.01491464336,-0.03334552819,-0.01219571209,-0.01940821119,0.04105310742,0.03341397921,0.04310024794,0.01686640235,0.08213401139,0.0260539817,-0.004674214838,0.01157370067,0.0635462492,-0.001154113612,0.02766665292,-0.05929633471,-0.005854503651,-0.03292481565,-0.06484895891,-0.02622132114,-0.07157817772,0.003115429195,0.09290581406,0.07406297408,-0.02905517902,-0.008489420364,-0.07304761548,0.01378590215,-0.006578014625,-0.06222212795,0.004841077476,-0.03658827244,-0.01981529872,0.02873326595,-0.002550465205,-0.07877561171,0.01032633997,0.05557516079,0.03783552991,0.03540294434,-0.05072953124,0.02233955072,-0.03079395941,-0.02564765653,-0.06327167986,0.0264562546,0.01457679532,0.0394866565,0.005638151088,0.01929929763,0.01175865369,-0.02467611003,-0.003691048667,-0.02212729316,0.05410967706,0.0142804913,-0.01189802176,0.004966831546,-0.007338914564,-0.04305430242,0.07220707953,0.05248034586,-0.01568522371,-0.08369046067,-0.03300455288,-0.04111650426,-0.05237527055,0.003231190305,0.009953279282,0.03212120127,0.02834118852,0.01589590918,0.04934507311,0.007889048479,0.02512101152,-0.003746794847,0.0231618222,0.01523544726,0.03555548606,0.009550624935,0.03346782711,0.0174048345,-0.02222694604,0.02320578521,-0.02804306924,-0.02628831142,0.06658348091,0.04279390852,-0.05422866778,0.003993341248,0.00755891336,-0.02051625185,-0.01535536767,-0.05457868664,-0.02804442959,0.0105244766,-0.0008449581215,-0.01561250271,-0.01368210559,-0.0272751625,0.04822155682,-0.00158612361,0.01314127639,-0.02545355332,0.02557125676,-0.03189552173,-0.03684256169,-0.01810678765,-0.04353906668,0.02656759117,0.01881629824,0.004375966195,0.03495064662,-0.02643805902,0.01398613523,-0.03095223275,-0.02602989763,-0.007922055449,0.04321175902,-0.02662764185,-0.0488545511,0.006640128696,0.008270994443,-0.06404000363,-0.001590088068,-0.005990935768,-0.02980397701,-0.03367754171,0.05213642492,0.003203837135,0.01629248715,-0.00846815126,0.02590855807,-0.01744812039,0.006448130296,0.02861197487,-0.03221100853,0.01773561279,-0.0006651493259,-0.03623544914,-0.01153445819,-0.01564592371,-0.02844668569,-0.01526190908,0.02489441603,0.0211266957,-0.01667901313,-0.02599639008,0.02317083666,-0.01433826111,0.006486511421,-0.02389377938,-0.02465159862,-0.01792821582,-0.00878172381,-0.0118222959,-0.04603769001,0.01314474973,0.01405684008,-0.02768164342,-0.0004599320797,0.0273311388,0.004687141747,-0.006213030309,0.003679320444,-0.06969187505,-0.001984145365,0.01120360052,0.03042851398,0.03334885978,0.02848274748,0.03101478635,0.02327574076,0.01469749285,0.004139953846,-0.009367088855,0.02714216695,0.003476765206,-0.05264172639,-0.02951886088,0.05058409556,0.02175507358,-0.02238891026,-0.0214059733,0.007595241164,-0.06375893458,0.03912467596,0.03959037655,-0.03636827007,-0.02451418487,-0.02429690698,-0.02965559405,0.04201687617,-0.03988651695,0.08981456799,0.03563209438,-0.01433705942,-0.007038284903,-0.003900817727,0.03221608453,-0.05395742944,0.009111104551,0.00443705774,-0.002309523313,-0.08938344744,-0.02021176336,-0.09977946664,0.06325924762,0.0113646565,0.02881817559,0.0706742702,0.03675995339,0.06219162757,-0.002398901464,-0.05559964842,-0.06321046315,0.0438900225,0.01847258482,0.03457130281,0.00914874838,0.01248738496,0.02327977209,0.04006833435,0.02197320848,-0.04789193283,-0.0295501088,-0.005298832779,0.09160251615,0.05291063826,-0.07923558191,0.03391860512,-0.05159446517,0.02202445024,0.005135383231,0.02923361494,0.02028047225,0.03984583284,-0.02532286454,-0.04082272532,-0.03426786154,0.03504860278,-0.03291298683,-0.08106276646,0.03822676535,0.1051227997,0.02658439863,-0.04013737799,0.01220755512,-0.008269989091,-0.0904401864,0.05190323378,0.04691223381,-0.0335845541,-0.03207267664,0.00258687472,0.05621317695,0.07878900271,0.001073894445,0.123989031,0.04438408445,0.02393966393,0.0434697481,-0.003598424467,0.01867538581,-0.1266639615,-0.008724102589,0.01316760918,-0.01682356279,-0.09223087807,0.01658893251,-0.08146572661,0.04389881347,-0.02360465135,-0.01261769712,0.08462913816,-0.02410613595,0.06624597883,-0.0291898313,-0.1029698469,-0.03482520984,0.1002588187,0.01325813408,0.02850663623,0.03080608427,-0.03109933638,0.05257442936,0.06533872148,-0.001099349905,-0.02518693095,-0.03054792245,-0.01233446055,0.06119554198,-0.01252805866,-0.05608796722,-0.0009862874583,-0.06821321562,0.001168938356,-0.02248019796,0.05034758322,-0.00179952837,0.06915011611,-0.004847503397,-0.09098084316,-0.1064668437,-0.02136218766,0.0003349271842,-0.09732318059,0.01179674696,0.08032743242,0.01769143683,-0.05846851887,0.01724078305,0.002647296636,-0.09562119101,0.09177033248,0.05810433707,-0.1201134671,-0.1026340903,-0.01469796933,0.07352783562,0.03464296932,-0.03328659617,0.04606544229,-0.01187138342,0.03230997926,0.01795768048,0.04207606008,0.04046651825,-0.07405444419,-0.01464918309,0.01312681805,-0.02246568909,-0.08147844846,0.03778644658,-0.09489956255,0.05790392077,0.03353559748,0.04752068147,0.0674771755,0.002371008653,0.05958003013,0.0218199982,-0.05323261729,-0.02802628971,0.06455784576,0.009153702406,0.05599301342,-0.01074141941,0.001770784669,0.03301706716,0.03919540805,0.03763737049,-0.02035610761,0.005460231595,0.0130324311,0.07973803375,0.03028729826,-0.06139934627,-0.005883435542,-0.03057863073,0.002397801912,-0.02764300835,0.04425735541,-0.01967142539,0.06824119069,-0.000521592943,-0.05027721967,-0.04044749831,0.002178216255,-0.01011302214,-0.03655373158,0.01646858514,0.06720620748,-0.02747221042,-0.08500765081,0.03909114145,-0.02232276511,-0.07572165465,0.02694267428,0.07219265972,-0.08325236873,-0.07301479976,0.005073107499,0.07547064569,0.03376585211,-0.001740063676,0.05043758959,-0.02570972662,-0.005261754243,-0.001239219212,0.03049468824,0.03151666096,-0.02297523108,0.02292418295,0.02800552729,0.009267518488,0.03742939241,0.03368529958,0.0006551662445,-0.02293729302,-0.01508416751,0.03600137542,0.0174907094,0.03395186337,-0.006520601549,0.02586098993,0.02504839456,0.01407529895,-0.03459155447,0.02568415451,0.01627264656,-0.002429876407,0.01359629976,-0.005780890499,0.02355136155,-0.01502137282,-0.04015041699,0.01684530131,-0.01981370996,-0.001791815869,0.02852790125,0.04018844679,-0.02430143603,-0.01375559436,-0.0128016128,