0.0318111311630275214734631106239,-0.014606178132762288185420018749,-0.0265990953734048726775363036268,0.137157119331632937342391187485,0.0318637407423566984543406022112,0.0483424044784090747861604597801,-0.0839539704734985348100195778898,-0.00727225823495921287059617910131,-0.0338378358266911427598699901864,-0.00537324612042485837831717887525,0.000983199543030623861541994479296,-0.0327504052130337536263837705519,-0.0769541450339165516991712934214,-0.0044332416089285968732736087361,-0.0261987875025340086199143740942,-0.0391022632631064029351541933011,0.0697806706078012289884426877506,0.120979182158253512069379098648,-0.000112024026901124879106001752671,-0.0586886335645476348021887247342,0.00906355298923770986985193331975,-0.0396309469183030171901549465474,-0.0791804048389800896323720280634,0.0467758293141145031768246553838,0.0251886820055349409941403138191,-0.0837688675783851283140890586765,-0.0757994660507113338088203136067,-0.015148610903371950014983937649,-0.0443881036322246666503410494897,-0.102730525659714938546684948051,0.0762563495444217170904366298601,-0.0480647814404936979393312412867,-0.10732756519386689453288141749,-0.065142849558683116328872131362,0.124644027012314681512883396408,-0.0896047316987962361167774361093,-0.102678217749171157846532764779,0.0307522596584217100534885958041,-0.0857054712481294389547770151694,0.0114489632959378761362101428745,-0.0844526606559811987562369495208,-0.10141511713756978796396879261,-0.0039401398473540060266029350089,-0.0625566519747708382759299183817,-0.0316640286373776266848345528615,-0.0139123694033786871743219037967,-0.0400459595730339804053876662238,-0.0343551771518306597874570229578,-0.0490218071168711383434057893282,-0.0608875435527977681982036983754,0.0837622730034539852983499486072,-0.026308648123495769616253525669,-0.0718208076443612036809938103943,0.0542843250902680790614951433781,0.0130583800503814937560287390284,0.00116059327174186243010478580828,0.105550818829398457276980138886,0.0883197505927440923434446062856,0.0833628800142050818688943536472,-0.0270603040264564172201477987301,0.0245445005910919777925016660447,-0.105844294034619521016615806275,-0.116083113847971777787826397343,0.0382156487732300056969769741499,0.0584109548051560262260650802091,-0.00931868059967831327550236153456,-0.0207636811760629619305618120961,-0.0646650276603223661542330091834,0.0316617118767813371382757736683,0.0616471271339024684543517196289,0.0928571830723605717849977736478,-0.0496079736334484530657640277695,-0.0742299953495860476149204032481,-0.0817059561320681304597002281298,0.0604767603876025516829173511724,0.0512894795135802744612263381896,-0.0780820357110087043261970052299,0.0119593294122952702868145635762,0.0884726507018824964712067071559,0.0477908827271556826965515085703,-0.0686102853319108391128011703586,-0.0206582217578071859753752193001,-0.10794984259945852866913185153,-0.0340374918184971272938632580463,-0.0295921915953286478184747210207,0.0175636914761280876762228331245,-0.0373335337588331164782040616501,-0.0590370668706534998393387070337,0.0305196326091957161052992120176,-0.150531458469078310846711588056,-0.100882982491315040252111145946,-0.0594844363560354388864581665075,0.0531952312056482232160981027391,0.0117883558325632652186154558649,-0.0546557725278901465615355448335,-0.0465726512601694619952752418612,0.0840932336489940979173951518533,-0.0633989042386787771121703372046,-0.103030200007018929442281773845,0.0363156213267653085741137886089,0.0449367354732109480774937537717,0.052322102155618145646887029443,-0.0487661032712905506691924983897,0.091644327894054064542750381861,0.0665896966630784986618252219159,0.0415026385462787944513607385488,-0.0218103751835295074645859614293,0.0279434856660991208510136374343,-0.0617111016508019305515375663163,0.0945448071871283907130489865267,-0.0345065342680852260581758628177,-0.0651574948711840240545001279315,-0.0888135657321006410924724150391,0.0408016528029708433478184304022,-0.113243067186414220204326852581,-0.0256695656347491890647560808247,0.0568364744932661758447522970528,0.0503086678156730998656698261584,-0.00105524085875364202237458588485,-0.0673152390268481615187567967951,0.0178816827686828598575896620559,-0.0129148953008171099576806284404,-0.0437322699926704430706259074668,-0.0107995826718868381116633869965,0.0517946758118126987513463177493,-0.0984725315799456074605799926758,-0.00680994382405513375144945342754,0.0220627975284644235742792517385,-0.0757927584499420298191907363616,-0.0306062914149952298992207744277,0.0486428809816019658285313198576,0.0018959744400187288418391240441,-0.0952709455822321471529789960186,-0.0397423776430173222862229920338,0.0695436726235406782459236296745,-0.0404934487404819548617140867464,-0.0142070722658312505182198748344,0.0365201062457246664050281026448,-0.129398768056778912249882296237,0.00265472318400825774142859359017,-0.0989308770300448142576144050508,-0.113077801214222575798551417847,-0.0434369672708310519682051165091,-0.0948959673194596231571296129914,0.00368834557212703931239339283366,-0.0115844476445645175322063380463,0.0121579543721583929749563424139,-0.0751031127098554102117233810532,-0.0414444011602502146440762942348,-0.0772076785924999259291823250351,0.0838836932149875508235581378358,-0.00838513325050943211791398823607,-0.0589608605277505345987343332581,0.0300842238122157393243050194087,-0.0938639954090090544713831377521,0.0370074730536973095507136122251,0.121552963009931416782372082253,0.0432805273322079755993208038944,0.0932993119533208487004216635796,0.090934119471741153839516869084,0.115309465274724951000528960776,-0.0394534079931520356709917507487,-0.0718365682452112019884538085535,0.0765411908454636524812286779706,-0.0572122952323588646050822603684,0.0457400834829048488772151870307,0.00598027606413402759710784550862,0.0371413287840200376233035228779,0.0961372035739759822625671858987,0.0341104964035240515451974374628,0.0446542237017089338468878167987,-0.0663282650006484925109262462684,-0.0470079346348949225764535242433,-0.0266963978783803027039489563776,0.0726371072431298142602074108254,0.0430069101054927696581309248813,-0.0202545192535457767302187193081,0.00771179474807444451794902207098,0.0374926008624468717900235503748,-0.0213886144481545553697188211117,0.041285428801416924893263882268,-0.0611891113726232352409972747864,-0.0957882848164833267112783232733,0.0812963524664077619164004318009,-0.0232081235642111992356628746847,-0.00936463605220504147208515632883,-0.0113056908990608381143649907585,-0.031314196814527336942823865229,0.0900941615145263163810795958852,-0.0344381241727602857571888250732,-0.0864472550270246192782863658977,-0.028929991297698662983117756653,0.0207864881392668468529372205467,0.0574796511758194836327895416161,-0.0526147625795316056795947190494,0.00551530329352293256783834607404,-0.012668609149732088653417250157,-0.035204871209485059935229145367,-0.0811436718513419419362975304466,0.077749167513627218117910899764,0.148932358514384688419340818655,0.0562789674634849301781969188596,-0.033722696224412658516644825113,0.106122002935822620783845593451,0.047544477379809477191052735634,0.030788312733697174167213361784,-0.10847598845642138221112560359,0.00202397405624733491349975800233,-0.122723248380593175088648649762,0.0301493467800160314107316139598,-0.0212939695573721964050317723149,0.0148806526001691447058661310621,-0.137141292872681369585663446742,0.105099016075941090186951498708,-0.0776059476405311088331728797129,0.0481963807459148685374827891792,0.0655487086449602490700883095087,0.112406818447680648120901025777,0.107296094207288875144179485233,-0.0287086722768803148664318314331,-0.0732045733044650870358083238898,-0.0416987291457657852089546679508,-0.0386718880423516930822103176979,0.0335184303046821632787732880843,0.0253240698712750254839587427114,-0.109768791864289019799549862455,0.0048144600659119221944259869872,-0.0391423110141620872459711222291,-0.106620547608586219157089658438,-0.0780067325129887162438180325807,0.118223595789558155733089961359,-0.0112527709192759874101685824144,-0.0365396067912319780224272847136,0.0191987979450996965047337994292,0.118150004225086965869984112487,-0.143347440838971607046659073603,-0.146476135854315486772847521024,0.0308026253857133433533554978112,-0.153261837121438398989781148885,-0.0134150851734709843088300118552,-0.0646997390111209852436857659086,-0.0326269663547642529977110825712,-0.0405697610832933611146877694864,-0.0519063967591044395089028284929,-0.0438782768560247934952478487958,0.0719770209486394058062685985533,-0.0760182727681477377057461808363,-0.0214192567449586271366435141772,-0.0768664333433307644938281555369,-2.67908627877408279482733532983e-05,0.0726029450762979144951003718234,-0.0653642706578333315681206272529,-0.0971703624089231693394808075936,0.0829156240164321683971948573344,-0.0414404091409669717016583945224,-0.00179382231223795774940898972716,0.168718321796873654827564337211,0.0205230703572507264254021208671,0.0747513470686989450753046071441,0.0329380258859095081946932737083,0.170363437282956137197587054288,-0.0983682627822710098364211717126,-0.0671090925595285853200167025534,0.0846945209360819573074508070931,-0.0051906526888936561220377896575,0.123953680196669552282529025433,-0.0413041293188337876873816867374,-0.0813470931247755740800542412217,0.0748576641782212753861713849801,0.0520851494232090067582063852569,0.0540228303963863204506523629789,-0.0513008882135082208697518524332,-0.0314323444647598149170875103664,-0.0750145139156081636189199457476,-0.0126128019749536714882998111875,0.0226004251064438055340843902741,0.0248454112796402566687437030168,-0.101880388457101483945521636088,-0.0241079220206413639970843831861,-0.0600104703663804431301720399006,-0.0312774453870173149705458115477,0.00338971934871037288219963734548,-0.0555147516418310338348618415694,0.0932459810635777458509565462919,-0.0765096199585990205394026020258,-0.0253481210975021742370927313459,-0.0769279055098688463454337238545,-0.135292370033875591905925261926,0.0144764194091920716384036538216,-0.191282581232630699563657117324,-0.0626605794744140437435575563541,-0.0822391016263533253249917720495,-0.0288075210752894543542179661699,0.110751917219864479124957767908,0.0172725750756614095104968242822,-0.0704414304396273616148960172723,0.0264829580865633892883259647988,-0.00883044790803205401075182123805,-0.0758556854679435094146455753616,0.0895259454518363140262948718373,0.00130171327155289466917520435629,0.0156035013794521993518715774485,0.00171203711749447207157714956338,0.0965898666161124075379973419331,0.067615109558240835130327184288,-0.00188191443735789463130581022909,-0.00800070963874571772223021071113,0.0745301546189913732831655579503,-0.0517597952687787951631115390683,0.0223751898367243358400902053518,0.0497509590150381000861479208197,0.0428106399074109633673401731357,-0.0904007250515208304886272117074,-0.0114089913366699179098073813066,-0.0753090871857469840167098595884,0.00769643879648775498109047887851,0.0606106540063965637532561459011,0.101291095929648300444370079276,-0.0202050609571707180667221592785,-0.0143832054576210656426926703944,-0.035503642505762378345224306031,-0.0293063337472983000131510067376,-0.0530459371255836142911022079716,0.0355350447640494435108671211765,-0.0210004080285364144731197200144,-0.0104049544396635443993526237705,0.0334844838846201572901684073713,-0.0424572705679475623230523240181,0.0104721127647230197177385946361,-0.0710798343955380412806377421475,0.0691172733555162482899092424304,-0.0115604407469603962660409379737,-0.0265179170632554167541528045149,0.0404149204441984696845047153602,0.0681807624302742804056620684605,-0.101082722293123761225785983697,-0.0883082726971868015031219556477,-0.0271258335004262059186874722627,-0.0619007611039169361455414275497,-0.019352783338275687113894107938,-0.0608731736987546609429777788591,-0.0445887657061153491744320831458,0.0374824113116523638389310235652,-0.082880827674658097414805979497,-0.0442484048635251384085087522635,0.0245400372899448708519098971692,-0.0775671557919120902013787599572,-0.0336619244424926217229554481492,-0.00138525398631460434396844849658,-0.0476119139609247968292216057762,0.00151559148754966508017283377541,-0.0947803068399013237677053211883,-0.0372550549862635110853759101701,0.079423197877845658210205215255,-0.0637355470397352741329655145819,-0.0234235149033196442258653036106,0.0913993548063663924230226598411,-0.036632942909017689181450094793,0.0218919458939502188654646630539,-0.0434767870039465126330568978119,0.101049292312977254115757830277,-0.0429490731463542663171040203451,-0.057141543293694488370171313818,-0.0156368383837012757398010620591,-0.00651184800942879778856697825518,0.0422002049233151307894296166978,-0.0750428852225119014107690418314,0.00152657995770199205951000998027,0.0433066838999706868462702402667,-0.0189521317007976045077022320129,0.0883769286497685241377197939983,-0.0851112755295654610510069915108,-0.023412068695518924860143883393,-0.012635750551245165246294632766,0.041139467105702445803849798267,-0.0503834123323130336769004600228,0.0269070631124737232042765100459,0.0224848669278311201480402559127,0.0318466664007638275424305618344,-0.0124110309068135703930435553843,-0.059056118126445684979319850072,0.0157816937673552967758006104759,0.0300929852737357450553901117019,0.0445586369598276535453074131965,-0.0801715694644542925528796217804,0.00104302643633883947507645650887,0.0371962758310344435153105280278,-0.0972586356443383287517789881349,0.00773411510089820532914961503934,-0.0263711510506608494408542497922,-0.0902538396658321279142356274861,-0.0802571710921836795060713143357,-0.0199063806769359669113228505921,-0.0363058452950938692627147474923,0.0129414642484915898973385495196,-0.0436592415912995246429773033014,0.0355733102876743256803848680647,-0.0537727464680468614233177504502,0.0312893548038425603485812587223,0.00425869082518218113747598962959,0.00392358434727127849961370031906,0.0408067868922705676015816322888,0.0381016658695723167693536481693,0.0105123889113542482581786785545,0.0588028911889508648647151289879,0.0166552050020695903420619998769,-0.0278954530612530969546636328005,0.0444639349112091117333100953601,0.0364154793078083072188633195765,-0.0417725714944311987686376141937,0.018974529026263342590397087406,-0.0620996106801550706855152839125,-0.0384871819616658533691477828143,-0.0254264423678383297278138286401,-0.0548585351865953502192851942709,0.0215552144560831708541837059556,0.0582203440378561698498316445693,0.0392238194561500413959365118899,-0.0268733111475494418352027992114,0.02702555615648184750288152145,-0.0293881190049384496965068080954,-0.0271350320344620303536498084895,-0.00217024207511496997763389416036,-0.0324762755636881089715828352382,-0.0139511506458975063221794599144,-0.0434084153068032482791771542452,-0.00906382189131414023330890472607,0.000593396955607537594269695890858,0.0130598878148506739732548354027,-0.0254278112458297504694382240586,0.0486930085884023922115915183895,-0.0607643636062913106155036757627,0.00230675385087866042718718340154,0.00317608922858472232653159750271,0.0768470537980316947823666851036,-0.00943577230707917137542128926953,-0.0042780209952170758502809633228,0.00277517125942739785460222634583,0.0176622469661867759205264860611,-0.0121783108892240341664114922082,0.0436764895325936139403033564577,-0.0160950688611294877305990524974,-0.0690093665195346261942432875003,0.0303997803777888535303741690541,-0.0331854927077736006069130780816,0.0401825732910778277151564452652,0.0474395817309212139423202359012,0.0052854828377691736793209109635,-0.0139307055657874479664970479575,-0.0536725783349045956760470232894,0.0110880516656003732384183635418,-0.0379422155947863534719566303011,0.0462506178436917422813756672895,-0.0555881948209362361512653194495,-0.0095812568212962547636868393397,0.0456703734905618274897420860725,0.00427166083901530692357173535356,-0.054805032321563133812514223564,-0.0139261341932138231480831080944,0.0163070818561439727367723406815,0.0829341172783433222548410412855,-0.0187185129466702383782550356273,-0.0645391151652136146887883683121,0.0397796535250154043028558703554,0.00991141057049309964765981817436,-0.050365702931600316027971331323,0.0182665243009625770376214148882,-0.0490223962892228290466611895226,0.00301511514842001506278568179198,0.0221605238376327354221650978161,-0.0152337889913605681324604290694,0.0426391094024275718599170659218,-0.00296500957524615648547294810555,0.0219986671756175027059310167488,0.0374410283343959426893832187488,0.0364426393979741525264159918152,-0.0664168598750097399774361406344,-0.0499395168843069711672733035357,-0.00493236165338978294059302243113,-0.00122322562904730023670973881877,0.0486587089565998220930254092309,-0.0251417799356527874032884994904,0.0300188128099786316616004455682,0.0592253995877541211667605125513,-0.0330149000083641216973795451395,0.0328363726586458973266680061442,-0.0532608348799676611928788361183,-0.0405115802132059374396355622139,0.0623244907660640834468068760543,0.0350384916144144895056022903645,0.0279724358778220064114528042865,-0.0301858984748172402834409666639,-0.00795560320873337119274015805104,0.00891197654538835801196761110532,-0.0725845722298902457092495410507,0.0573312230248628346140904454842,0.0085807716605533733422728204232,0.0148105160588365546842082309809,0.0128376764157409513356089547642,0.010107194219393871026380082867,0.0488406511417843122724313786875,0.000581471409202713993870370590145,-0.0253735580770467032685200337028,-0.00433187356809798095741426138261,0.0349074463173903032364719933867,0.0250153561611358259131332459901,-0.0789119809806268640572923800391,0.0471531060889468570107574407757,-0.0345505426537969853595377855981,0.0768673971766684754891585384939,0.0324309932268888531647910156153,-0.0364387181687225933379714604143,-0.0331837342380933292274036716663,0.0257243585345087351357040716948,-0.00445901074735278318827980115202,-0.0259135332195650387732133168583,0.0663153339480413717144102747625,0.0507827291277314352146987630476,0.01965680654938449858915028301,-0.0273119585520492369479228500495,0.0095227374802912528178877593632,0.0558890432951557047935864375177,0.027081756929163387087600156633,0.0187510181061798127111206468953,-0.00823144502232248977124928757121,0.0216994658725992509151758724784,-0.0590901453501477616492287836536,-0.0123504753511504035412560398299,-0.0684958233702480379090360429473,-0.0387341334375702409098529699349,-0.00628266622276934649099500163061,0.0405032313151063166900556211658,0.0184929018065285999394831151221,-0.0423957025537494702760454856616,0.0314126557789425747690970069925,0.049552177201546990237268630608,0.0270690491552724905865989768472,-0.0247943137078754302637939588294,0.0163846882020122278089679923596,0.0102897742302115024343178717459,-0.0591360341300728176161527471777,-0.00640688522645424703150229817084,0.0443510101721628011151032922044,-0.0694479516452038425633475071663,0.0306129467517870859638584590812,0.000889260566254886303597104735275,-0.0383144272314109440857876620612,0.0103057073682566707056862398417,0.0296699439658010856446512804041,-0.0237965661606730632948725201459,-0.048032742007727384503379397529,0.0478148756332889210418635173028,0.0299130476135542368310016314581,0.0522035142381008926415475457361,-0.0687258616594928484211379782209,0.0309289819826754873444141225036,-0.0279074547384056750876091257396,-0.0343040648827915226060092379612,-0.0425860597418628236687787591563,0.0381921085031005635990197788487,0.0163644760225795903030299172087,-0.0279360500516598400655432499207,-0.0659746845501576334447335625555,0.0563644163256602284683971504364,0.0147106351539563300068191864511,0.0311822873353820723130169767501,-0.035480935701759939993049641771,0.053102961958261321595564652398,0.0605482295417410151805448492723,-0.0437411694397430023117934183574,0.0351742958129189903226929914126,-0.073743147603173422877098630579,-0.0539422488101748906497157065587,-0.0727385351588635403752292063473,0.0183583465576034991773024529493,-0.0154553246817149946695790774243,-0.0678594394886410517964137056879,-0.0216692870059729536524883997117,-0.0537732332424181447283473289644,-0.0221673359428522336045386254,0.0340296824201564915290951773841,0.00665640939412844717670836303114,-0.0357618630439863471881523082629,0.023018649928988221819992077144,0.0456899085728696419117511595687,0.0412061062730383828589530992303,-0.0362207845778778972367639710228,0.0141260309419324395219241807808,-0.0425799281222722925122070591897,0.0344311798157342849324713540682,-0.0294451462853005663244942979873,-0.057265554787679841253211776575,0.039755326907961602289631741769,0.00129419086255582621060311598882,-0.0152998185302027165516358664377,-0.0215571508697541963650579077694,-0.0480558958393794283248112719775,0.0202923066368041749019113240138,0.0367939144495155259773078171293,0.0110260448210180352773823742041,-0.0642712335989669009128633092587,-0.08576484264345698993459166104,-0.0543576463688633798598814905745,-0.0634959945709751144571342251766,-0.0639931980807012940060118921792,0.00137843074458732792533788291678,0.088404748511529407384301748607,0.00681755297780812542784989460642,-0.0319522996278881060705501226948,-0.0442978762221018715350417949139,-0.0594669664340332984608927802128,0.0401713022520650067659353510408,-0.00647874203881615776112745663795,0.00981619434549350737551076662157,0.0851567042974564203383636140643,-0.00315610519941406921992643752617,0.0292984532316383321226549441008,-0.00473449411441262488914327732914,-0.0602316432841980345380683559142,0.010513709228083886401683422207,-0.0263097979644964681533725325835,0.0031363441633474554645633070038,0.021915182916008486141423716731,0.0479814972237839545976534338934,-0.0201745879579543867243796029243,0.0395652647848963034959979268024,0.054712468575829092953810572908,-0.0640909784014194600088032416352,-0.0208657176863023818835785050396,-0.0123866785423939734095410969417,-0.0230356002124064880576259639611,0.0094821294846213141638280319512,0.00428108364269175287880608848923,0.0150926990197727695780516299351,-0.0325366968737651127141496942841,0.0820247834063371483726001542891,0.00166483363202730842191068294511,0.0334557928497394296840639071888,0.0532951488503377035499397607055,-0.0190636927198431088692487378466,0.0239647836502737340835800239347,-0.0349910374682597530293648446786,0.0148658318616833838576862802938,0.0865045096189720474910700431792,0.0423044090701029662504595307837,0.0622238203152790728123200381106,0.0786927813469860681916401290437,-0.019025654263795932497060903188,-0.0264132296637926353155556569163,-0.038926016866147120087937594235,-0.0492099518297966914692764817119,0.0111220449529346211703373370483,-0.00623623874625413732869505523126,-0.0052585539246515966213535442364,0.0636383083378080915970542719151,0.00906588919846517890532844319296,-0.11387125985311384590570327191,-0.053427922401869998303425290942,-0.00842497260893497815215091861774,-0.0488656506621365852027771836674,-0.0667019037218613553008594863059,0.0231134300608105795749036559528,0.0391794388446954980342873398058,-0.0203351483135934020529678178946,0.0425069536662835978368946143746,-0.0324999535071782905126802631912,-0.0506587263999214582055330424737,0.0132383266026663420911191337836,-0.0340468664729739536878305727896,-0.0916594701852579823997402286295,-0.0832753594237046618209419079903,-0.0206599777696607235510928290978,-0.0366903511570358872861952193034,0.0659355530388245070216868271018,0.00731278215551028898389063215291,-0.0040508954651530832552497329857,-0.0157909062531899312131766777156,0.0208514068465878998903662022713,0.00513203695959372607066084626126,0.00890333898260067986563104369679,-0.0395781179810928487872168091144,-0.0363739962066138705631956895559,0.0280865046908115763291124977741,-0.0376805479142907073786261662462,0.0638820487943035641986710970741,0.065737904237132133156151780895,0.00647695451997052935172449750212,0.00408122644844840024025423019793,-0.0811233505003795124510546088459,0.0205384524260657508332172938026,0.0190873010168397354291425216388,0.0388220323904766365097351865643,0.058156359568786605840351455754,-0.0470273879903238337107929112335,0.0300459841398980562199305666127,0.046916510331897073871054715255,-0.0484035587646484966040105746288,-0.0218865494842839444777915502982,0.0626468673967720268702663588556,-0.0750115468036748472835384404789,-0.0914524362779225163944119003645,-0.0884868151691739213138276909376,0.0658952601539416205067567489095,-0.10478284413333617541841391585,-0.0285616884412053725905700218846,-0.0203582717401329348072547276161,0.0485034193878227035123806842876,0.00181743286932756079390949288666,0.0570653881430003701025199802643,-0.108198153188012638481474425589,0.0463699553524763649625661798837,-0.0323676291243537722630563280291,0.101991986581543861434262510102,-0.0148858563168157553152637362359,0.0511625334801725367706026759151,0.0378168811063879853340274905804,0.00808219102553956944556823316361,-0.0446401414234435939265566162248,-0.0867425962395283606243268081926,-0.00541124464111594066784149958949,0.0716560456140898499599600768306,0.0598542767965048391753946077642,0.0388782720960660146958254301808,0.0219377995133471434541228006765,0.0138039785350148463960451294952,0.0879129000964741363910448512797,-0.043542619349996251887358056365,-0.0726588818171438194370992391669,0.07193678911910053597189573793,0.024663923999170396517133241332,-0.0881800466800533866429390172925,-0.0500672471888038359000283605837,0.0519349523735798679346942208213,-0.0541959130643817274530782412967,-0.125661987090026516789009747299,0.100676338341870078019191225849,0.00411405644157656746190410146369,-0.0521885275075960886059789345381,0.0169538388443415434514438544511,-0.0141707656270582040697325609813,0.124191234557535140625716962859,0.0805461520204078101903277797646,0.00439480108222141136603555722218,0.0643973046444686614275809688479,-0.0645885657373610894138593607749,-0.00241735063376192962220079252234,0.0974093203303101479173520260701,0.069007636460469312655874318807,-0.0432262522745031282922489879184,-0.0397223749069734177741253233762,-0.0250699571568852967728968650363,0.0235459677955874337185182554322,0.059336890771110227527085356769,0.0396665743179553664798930867619,0.0504167275200845671490057497977,-0.0370222463521957256826766524682,-0.121164758129696958910415105493,-0.0517972403413489573820172040541,-0.0739380725561855911553976739015,0.041344097191213159681044686522,-0.0602386671949061286435167517084,0.0142112705703538559631748938727,0.100019174171644853466034419398,-0.111457408396479176748705697264,-0.0621708142736594054911236639782,-0.0815261536560894090053253080441,0.0788189432187191701961737066995,0.0317330312589148913482439695599,-0.0849040082667385648251823226929,-0.0425889747711647517758315473202,-0.0992630347731799367316796178784,0.0889839104715787060362330862517,0.00595229155815370745974401955891,0.00205102091232745812471316426695,-0.0640719818921859085580905457391,-0.0107059751880798775802716704675,0.0469184946114788031801268175514,-0.0293346615730254375864483051828,0.00238624827483311383394259941326,-0.0213166667701779888322022316061,0.030526584573341002115665077099,0.0862055568333944394199264138479,0.00989525381880222883179687443089,-0.0611306544851519390038063761494,0.0509972589019021260714481513787,0.0840142223901913232086968719159,0.0136999317656949313321002037469,0.0654055130081762359228747527595,-0.0790826695789584865892152265587,0.12837818992529798078905400871,-0.0257350416998960440650989767164,0.0971554389655765737732195930221,-0.0223938632929643263724805990478,-0.0106924870946759915241175420419,0.00459905786784390192140081765615,0.0699787951648224160194899923226,-0.0482733178623177897059726149109,0.0812037890392532518690771325964,0.0321230291364643927298772041468,-0.0587385168315651129411492092913,-0.107143630650800097958708079204,-0.0154975142601211490073209731122,6.88218887896397698124631436833e-05,-0.100980467760512795938332430978,0.0449868733141487800453184320304,-0.0426679976405158409291651366857,0.13101664186212275131637738923,-0.0769999665177846792651905616367,0.0186221543544640918965704656785,-0.0166796112187416953331897673252,-0.0415286963833229813558567400378,0.0287297982039281737942637562355,0.110491365585577649977011560622,-0.106980725249869443316264039368,0.121357013410175143541813724823,0.0297855671938749982929905968376,0.0176639621545354175147224395914,-0.0303995974182254373452405360467,0.00764678855138431045473934588586,0.104283737790693858960011652925,0.0274657513890114064747383082477,0.043692247908190401384231904558,-0.0142510373686775757007261233866,0.00356223843526239395892996064674,-0.108034912197740695649628150932,0.0804049979747099158311485211925,0.0381251733438152107247276489943,-0.0481452801437489627534027647471,0.0697184734771885833426452450112,0.0776442420108013203750019215477,-0.0550216348708876396012001919189,-0.0449588393062772817554417770225,0.143185026066208170858473636144,0.00912341967994006151909669455335,-0.0995364083687752254636649240638,0.0741064488038823132587396003146,0.0896385685068356308224934991813,-0.0311177021355187183315749166468,0.137615950761987265726915552477,0.0536686854353976283693583582135,0.120386238654431099170949437394,0.028441886058511441776053274566,0.0655091320322920972474278755726,0.0922160218271712572857268241933,-0.0801549315640844167729639480058,-0.0436645135692133798399616750885,0.120057935542886892732461490141,0.10128085944503123494442320407,-0.0298411548646564245279577676229,0.0854030465673856348240988722864,-0.100997815577619345916993154333,0.0541487268363336077259262424377,0.117734310839440040052927827219,-0.0793158568429061378024513828677,0.068562037027850269987894193946,-0.0546326624271422922607399641493,-0.0456938462233842240811654278332,-0.0652235223685141973781753677031,-0.144047862077466171104589420793,-0.00672616848207325136038692292573,-0.0720833383236031133289856143165,0.140849310752593825935008453598,0.109891204682389206914727708408,-0.120431383783498130446432128338,0.0183742126536641514622516524469,-0.00480455214788529875319378348308,0.0626006127986133559248926871987,-0.0297446631644180913001118682359,-0.0296996633256009986978618542253,-0.0217798905385687829872054521729,-0.162196531904529567258421707265,0.0759990829289498570631167240208,-0.00620203279316577493068818327515,0.119684910010478276487511095638,-0.0384911121922794016714242104626,-0.0472174422161677556641912190116,-0.0174498915237886811913092799387,0.0229626688656197897042687827707,0.0300801156110867204396264185107,0.0448364136892564352221413059851,0.0514966696515170366255098599595,0.0983720902195407698176410349333,0.0382482903067435930921647013747,-0.0977359167041008808363145021758,0.111963928308031396285926462042,0.112397527255250193056745899867,-0.00186440428262993275650150071243,0.0391532117794969602986299150871,-0.0193733452100164939280180220749,0.11088208032535845637411853204,0.104744581921708226901479577009,0.040064337423322958497973189651,-0.00261517596434216901754576944938,-0.0865984397559807356214989226828,0.0172680315092226151219012564297,0.0502226739457975607239248461156,-0.0211827411200877085972749114262,0.00326742493619594162601593723139,0.0854595544586800731634568251138,-0.103776064667501236038482659296,-0.035077293331939568554744823814,-0.0351192110480834374097725003594,0.00184345235585571878833555103938,-0.0324574395344891450387869724636,-0.0302796415646629582529847368733,-0.0284313776097195602954315063471,0.0431387445555427018195615573859,0.044775123499974998908523815544,0.0725652089141483047640690529079,0.031498938127891153160309301029,0.042790283943742207783955677769,0.00648765869123360192083360686865,0.0589119154207608936024698209621,-0.0228215959434097635794014280464,0.0401820521542054290287104834078,0.00825805930321339004551717266622,-0.06193364735309179330835505084,-0.0491340773732272875773396947352,0.00689304527216924763088901073615,-0.00633962069440640978157386342673,-0.00416423392749254266120839673704,0.0644678493094175547595270359125,-0.00652675173798350060500039759859,0.0407158739159338145530142583084,0.0119477737935938608387909098951,-0.00289499447675646342723054793566,0.0217093727484444151687448254506,-0.0382237707908163401593348851293,0.055699523967598897622455211831,0.077176006248780334995096552575,0.0324523990645880847094595367253,-0.0157828737551994474630490117306,0.0117223954115795343799977246135,-0.00184157373930746658639845403371,-0.0226196909629991921297786916512,-0.00991998504172807334111627852735,0.0902532400735187173568263574452,-0.0681275025003641593324132941234,0.00345106064578105508483529817454,-0.0280548211166180352926780017242,0.0717459046470528827299517615756,0.0188045974941452483097936720924,0.0395928810337104891692305841389,0.0659956302467173128167843287883,0.000610281501609841832076130963003,0.0442758099111081535048661805831,0.00117127190660974516388248556353,-0.0162773587132959002277132753989,-0.0262241229882259653527487586189,-0.0508303379958960632745146313027,-0.0670231190129635667762642015077,0.038620024899695126752163787387,-0.0245702977092693321259364580555,-0.0484410876874345336373650638961,0.0847359375047253143842240774575,0.0191264894905452224882491663038,-0.0675976526375968583826292501726,-0.0681162812941761147689234690006,-0.102178601546009953371374479048,-0.0593833421117656787280303376519,0.00313939290206513045566882880166,0.0592728741879982243268010222437,0.00676891809435702269948098575014,-0.000561934377910993450473686738889,0.0617104648913951794875210055125,0.00549833902090231686071719607867,0.0751994255942933231828817497444,-0.0142640711745719798303477787726,-0.027439867845189903905467332379,-0.0203187903922206411500006595361,-0.0561921133777039741308279019449,-0.0349956073102312345546316407763,-0.0401742841506633335812992413594,0.0592660816769424655947595681482,0.0361134205950573716759066655868,-0.0497828099792816669566519749424,-0.0407789468581259278989747940614,-0.0292603598293602364110999047853,-0.0376086062391034273155732137184,0.0552191896207990182143809931858,0.0305267073407363975778849862763,0.0380838895927553058862180535016,-0.0293636875229998928205077390885,0.0116988479821807621339413429951,0.0344979394286363469368517087332,-0.036548334076982880169737200049,0.0705494607883817292925954234306,0.0851499216600975633584269530729,0.00453352185393289530690452693307,0.0659297668760031319035164187881,0.0236343459687379346678692826345,0.0708673405630599467786012723991,-0.0683547310607881125621432261141,-0.0186056058977366843565359744161,0.0792132514075679083909165001387,-0.0581548284365721798727655311723,0.0203267338679175048332670172613,0.0848380090530717750896272377759,0.0655987781435101585669755763774,-0.0672598350070783002063734556941,-0.00711180493078902766640458921188,-0.0295460356916786640035788025216,0.0423431606751724712300877229154,-0.0706722573358320033110047120317,0.0134156363789754741466797582916,-0.0444896084627817850476461103426,-0.000898802858096846160954052074032,0.0207661433122736660550344822695,0.066135295527059059783603345295,-0.0506433485352044548966077286423,0.0155984601033439477385522664576,0.0112689474865395496128162022842,0.0179592470276411404761507384364,0.0111463117430571877208844711049,0.0537366600506274591508848459398,0.0448319071388037296288509025999,-0.0319668920439676318423494194576,0.0276172699578341312998119860822,-0.0517307928760146959468180227759,0.0659679625786974976886511967678,-0.0171140365391202683986726640342,-0.0495951802379123174446817756689,-0.0465828283961979214278237293456,0.0485689225036927962886323939529,-0.0492677912471272752559237062542,-0.0398044578865514794840940737686,0.0551220242495089260414964371648,0.0508247381017047986095924727579,0.014705991587405840836932924276,-0.0214880879321768872292075513997,-0.0656125609493946465589075955904,-0.0424684055694990181262227224579,0.0312243343852305101082666993761,-0.00669480171076318637812807565979,0.0361995097852030808804890682495,-0.0226392348031873372193878424241,0.0369444862613048791155634376082,-0.0358897567124477068212229369237,0.0797863419799461209835911290611,0.00780060744375850843856934346832,0.0214893263210125702589170515466,-0.0471323139463288784400951669795,0.0219711026589341808235023023599,0.0768298496773058142705892237245,0.0339495538011144529222384846889,-0.00154281988050300401978109920975,-0.0142663823933534550381097005811,-0.0496337275235810282403292603703,-0.0269763358063011514376139388105,0.00103282024391291573847673213038,0.0388360352930515392855248535398,-0.0368434416603594452888081889341,0.0304632742593901328920225068941,-0.0594992090400827677854067587759,-0.053726175108497260801687644971,0.0308554149302596274206944571006,0.00393586018060448298433451341793,-0.00964857952971367310857075949571,-0.0546051161254796565969193977708,-0.038139446921644740151613461876,0.00331993337833958812935208904094,-0.000170239155474549990094967899523,0.0922956406917620070240459995148,0.0358278824437034681960057014294,-0.0302825579327395746909168394723,0.0381316618339866478248900705239,0.0232156675908138585007201015742,0.0560226839021729997036835868585,0.0179450492740062250707211433109,-0.067248128107970303601881312261,0.037748531447647934444766804063,0.0308613625651132546245936083551,-0.0331328694560704822835717209273,0.0263498081674904370552692256524,-0.04431639297266199567504330048,0.0626905684556262471351928411423,-0.0475695560528620886575623671888,0.0042993343615914877964279128264,0.00494006808205107918879894768338,0.0610647829453060328463998018833,-0.000784373383958864478678052467586,-0.0583805329910785861247113359696,0.0341060226326710402844355485286,0.00972150602530701471448715267343,0.0369991311847718135075169243464,-0.0252447062196529681266099487402,-0.0130127195623960505849181501503,-0.00283807867994026897379145069067,0.0248569302143736604870927209276,-0.019484255735799441144884269761,-0.0449715421503622259091770274608,-0.0428141680543461383701142608516,-0.0125421459163815498388805380614,-0.071931910000832613438781493187,-0.00764091500178802878612271953784,-0.0355244227490840447369890853224,0.0441252744591537002238901266082,-0.0496696321122266776226794604554,-0.0422983712266904732235417441188,-0.0662330542523004994759361352408,0.0145614924382049728407428901278,0.0126852795923404673000822739937,0.0289876285466871726204107773128,0.0352552068452955183475161504703,-0.0278466463637589665969240826371,0.0576794868264564677962091820973,-0.00473122021852199169111852228298,0.0493723964822647964911794815634,0.0690094790461671103720675546356,-0.00568769657509352391522305936178,0.045465086167658853855133571642,-0.00673925174688543016099373517136,0.0228086843724529773902442997269,-0.0639250967008344189723700878858,-0.0510740441401194011916686577024,-0.0406782739287629910296395507885,-0.0218858453817008455355441753909,-0.0676533276361769159157333319854,-0.0649856342617837479114228926846,0.0113830326476959987902493054435,-0.04781264071230843792914555479,-0.0501571566178291641802111655579,-0.0513362876572633908267562219407,-0.0515706162064958062440922503811,-0.0516348177842352873412323788216,0.00660009991640811422008994213684,-0.0189262484505032767267973525804,-0.00685548686202742257878028908635,-0.0489085238722804585553838307987,-0.0610166734935684226814878172718,0.000589839292077131132491230047776,0.0450549324267553730205548845333,0.0265115888128807375423434677941,-0.0249220475423987362917355170566,-0.0389727044105670217266634836051,-0.00211812312139192425800016117421,0.0459886075320296294766109213015,0.0268141790309441435669057796076,-0.00826655227541768858334769731755,0.0313070142291735076245373647907,-0.027901426919349419514260191022,0.040801129705843618145078011139,0.0339664517460234252621553707741,-0.0147813830265373369332593256331,0.0472692894223908643969167542309,-0.0141096602056312598466591978763,0.00852521045009084314780789526367,0.0341018111695977413355684859653,-0.0159097417306707615558547530554,0.00742710173951955602428265379444,0.033873228220013561207135666109,-0.0489570752495767369527612800084,0.0284193977358946914257842308871,0.0600563312906033652804893563371,0.0370022395509716217620876932415,-0.0308794381336056390774391644527,0.0543039140496942088209841870139,0.0134073158885318673844144754526,0.033829802679319509461919324167,0.0168721378120533400946090551997,-0.0582985364862363894533636710094,-0.00656159991106215756406783157217,0.0106010887282430629058316284841,0.041853797105477499873593671964,0.0249057316013728685666350770589,0.0320297335161117829871457729496,-0.0200003044915934534431212199479,-0.0699636405773368386107335936686,-0.0678388342927303822360585172646,-0.042082188115366160607866419241,0.0215678856167234242469099569917,0.0354771098607803841984420500921,-0.058651226921446288076200659134,0.0110138260065197647608048470147,-0.0531542090108786322022460524295,-0.00984701064029025116552951146787,0.060886862955984603906767205217,-0.0469749919834290124986964087839,0.0285692104091076828908946083629,0.056123452143411495240954423025,0.0242578586235212140254091650604,0.00362448189592066549041815548549,0.0152068352237262113119120598981,0.0468845120864581077491095584264,-0.0570627029634785676304176149642,-0.0114300056788182186756630542845,-0.0399155232518318067724827358234,-0.0562381489899009615052172250671,0.00974145647837628379794860933316,-0.0446145920938763873575538809746,-0.0399786778003897516620135377252,0.045532264225346077979317271911,0.0526749225285697147969088405262,0.0101445166942931673526029356935,0.0163120526148838908275795489544,-0.0496629192343264816433823227726,0.047885823694658449789507415062,0.0018023513321475735475540869146,-0.0455414586377397775929232182079,-0.0142477391024329828189687319195,0.0035307373368737818460083577321,0.0820504534943684304959532482826,-0.062271312521413012264215325331,0.0916456611002904736329455204213,-0.0453068289413360719697365652792,0.0586999990047896019751405560783,-0.07278415405496140022645334966,0.0195203640220473276234436355026,0.0312423336442290595915682871464,0.0349126235936879844579117104786,-0.0818369141869157712410043359341,0.0222127719516525476417534434859,-0.0949193989588230507825628023966,0.0490135679956413203295362279732,-0.0845743013369360113751227459034,0.026477844345854303909071347789,0.0111298005156601747395184176526,0.0880452270787075025326728905384,-0.0256249441291325069647299983444,-0.0842992268817844003780948014537,-0.0414469211491718322881716574102,-0.0181628187454109073228902815345,0.0308055710440720727227859043751,-0.0100442402175666516128682559383,0.0799451681356763421693045756911,-0.101457924256320317080160009482,-0.0120504319495082379970485320086,-0.0191977346657740410851289425409,-0.0687461889779035634218118389072,-0.0052346746045897436447336126264,0.0626369964585498373299543573012,-0.0136719756427936128817535177404,-0.0831389299186472280345228114129,-0.0166447624958072568079892050719,0.00394662081219020709210720809779,-0.00548682817721692778212272401106,-0.0739196860735304023259928385414,-0.0234406927352814251075407980807,-0.00832579937144087810219073020335,-0.0696531252899150188362398239406,-0.0221519691974603263884269210848,0.0133017709386191139431243612989,-0.0267751577384706396234292924419,-0.0590121691032682027522326961844,0.00372687035706296488149491530351,0.0096495016790064461198461742697,0.0299659633346942323728345769496,-0.0265992756857062126463198126203,0.0415081664296119354218284058788,-0.0790025659066831420496157534217,0.0610276739127479719848601291687,-0.0484296551648984788251972588569,-0.053190214186708884014365139592,-0.0401978241530326074748558085048,0.00505274726373134471651971111328,0.0513441631656250604964775163808,0.00041082465164019813658180524385,0.0442135961575364569431378924946,-0.00667095340882944021904110698529,-0.00929639099176088334886003394786,0.103783400819304372220130971982,-0.0517545560863250514449518391302,-0.0150105004207487895129258248517,0.0627232449026600552555166245838,0.0540459048306580966403167565204,0.022827384080495245061159792499,-0.0227700959231687365125207378469,0.00459489900762650137211462464393,0.0314472418736941664030304366406,-0.00401302154558202690132207024476,0.0916588234551561076290937535305,0.0127056168303541269087864051812,-0.00394466277389835581063115554912,0.0184685661286758291688148148069,-0.0503238820303989128901456240328,0.0157676788561436354019207328747,0.0393830952320459518056772196815,0.0374648054469588279169478539643,-0.0278305090022787256220926366268,0.0477009178832857524965582740606,-0.011247847024814358954380999478,0.0240593376752234605620017759975,-0.0606891302639294624721166826475,0.0648471224578988092446252267109,0.0154954087505685053627324521131,-0.018542448790688646070856648862,0.0167411875494650162765619683114,-0.0170021221565189173396959176898,0.0692858408957864047028607501488,-0.0501104259358752315844931501942,0.0298641424798760414527354356551,0.00698688643911785697143690399002,0.0543096927581706648280324145617,-0.0298661128935088955593801784971,-0.0839040878050082566952383444914,-0.0355539081520479249842736635401,-0.0359707085613910487742472810169,-0.0967236759431696069277961669286,-0.0866479399025964353020512476178,-0.00533016493578606070230518909625,0.0641787565101906432030176574699,0.0172231500715600664708215816745,0.0510113344921815856092273122613,0.0234213518171173078197266903544,0.0623210185719273723758959704355,-0.0492911459730786191690832254153,0.0226694447076059672763204133616,0.0568299228633265471333224638784,-0.0290970678818524078335094884551,-0.0233832664267296132243334483292,0.0195151273056452384535575106383,-0.0665313102755463736670549224073,-0.0386648174185891119192248766012,0.0340082085190355903892012179313,-0.0350018141376675084863734355167,0.0671844278458910842966034238088,0.0197582506756955253446328413247,-0.00607090187751890917461361496521,0.0289785178605070081747641097536,-0.0295980891892369431250831013358,-0.00362872977860551927664634064286,-0.0570025163610326859875421234847,0.0270121852019578750914163833841,-0.0468302880676632338197151739223,-0.0252249062723987269030168079098,0.015396477472964242849684524117,-0.0175326614495937213589193959251,0.0479956116325217715945505858599,0.0382566999112574912533801807513,-0.0891155932908377218515383333397,-0.0321306595790073132312691939205,0.0214607969671532748667797108055,-0.030300825070294492430411636974,-0.0668915521214361874502429827771,-0.0302063145145023657922589421787,-0.0437683372482569818529007932284,-0.0220627549042769627307691848728,0.0278342545892813382490960094628,-0.00750030394586210808621773438176,-0.0129791591172580857149743138734,-0.0142182606625132889471840869078,-0.0896558296605790006061909025448,4.65773608349612602309852693594e-05,-0.0022588271191121417347247302132,0.0160209306419897695716869634452,-0.057807224197966064482834269711,-0.00325917583582397991232015854735,0.000148725996737679260189385344049,0.0248572733880766186254085425844,-0.054007630707807008363374734472,-0.00839892874641088096887564518056,-0.0337288174499480453150113135052,-0.0645967226437252212134509932184,-0.0505405750526658967269888478313,-0.0814145679007103467705874777494,0.0673605846897630949898783114804,0.0327119097784131299122556413295,0.00759514753354596176132540463755,0.0690731580050463339626176662023,0.0648209381314634319748435586916,0.0407552374419283894302346027416,0.00742089485786361687663648112334,-0.0319917963046572259577793317931,0.0435499624060653109380858438726,-0.0086708893643941027662425113931,-0.0346724420838649752263371794925,-0.0122381998607318711463909366444,-0.07785021491882090916014647064,-0.0333308985091718343318767381334,-0.00528370808874586896791702983478,0.0519627784676046922118786142164,0.0206074148947976640289247995952,0.0243814272795589322140319410437,0.00951915229735584775272450031025,0.00593546002261999793014890514087,-0.0152976207139310510507712592698,-0.0369482651053459273948753605055,-0.00168146351536912238948395792448,-0.0411543800688320346448101361148,-0.053883990504538591126415525423,0.0337381424571054633343436535142,0.0224912356568762357433843845911,-0.0829892789349439830015597863166,0.0231220437556522197264374796077,-0.0564880230970420671443577020909,-0.0702385840801142968814474443207,-0.00560601414042304676405015229079,0.0113848083820865877968664392483,0.0375286734400696389557516852165,0.00720271390819700318974838637587,-0.0625907725600375053343071840573,-0.00832115659527105783199729671651,-0.033161432243060680324919786699,0.0470260831117860766958926888037,0.0191615501941402310848161505419,0.0124168842127941030789584075933,-0.0112820143725680197693828077377,-0.0548073400069874136497638517085,0.0100397059099592254882704622787,0.018229911191098895073547936363,-0.00674205365023028153209638801968,0.0846387695222211161594216832782,0.017057737428579328176070362133,0.119684423723510333092967528046,-0.0280850067980781305243542789185,0.0578322892795238990837347614615,-0.0298594913434782165129188769015,0.0261360848367294500149693448066,-0.0613546387198558654252344979341,0.0226117348603685208718871990641,0.00303360951639031380111521940535,-0.0410522765329366101649810616436,-0.0448874215417197838795537734313,0.0746976806642322549434354073128,-0.0694289840307028005561562622461,-0.0552618831105156430028024772128,0.0518207716782636482188983961805,0.0397056364639200298771726238556,0.0054558994167903576005818067074,-0.105165177221046443611918164152,-0.0705382858466928608365265063185,0.00989958766190931691020260529967,-0.065853413948840935909778693258,0.0100730247214019224405445740445,0.0658283215810209904050864793135,-0.123134547504448355059736286421,-0.0630317031828578344665459098906,0.0288870709520815879822741578664,0.016430328479682679981843662631,-0.0515472292854505173553825159161,0.0568853408558696108099361765653,-0.0182042570538766303178679351049,-0.00837053103991763393365577172744,-0.0299472544051536428144633106285,0.0853244704668990605611611499626,-0.114091299926214931326207135953,-0.0410439269302997761235118900913,0.103818588852569101965706011015,-0.0656403668837934883839579924825,0.028473270283436956373801507425,-0.0809715452182261652414041463999,-0.0865543868712444486313017932844,0.00357768767778879597657448741188,-0.0453017139624961179267259581138,-0.0031155234708670413550091193855,0.069109811546210070387630253208,0.0316240738134212356902352780708,-0.0100159783932744026607730702949,-0.0306669530599436301887550371248,-0.0479172546544058899908868909279,0.0261119461870435443096027938736,-0.0890212071336199534110633635464,-0.0670797771026487438250640593651,0.0155946142851092085096498252028,-0.0197691962296455588099508560163,0.0376541878773365285004715019568,0.00171948711438169488281701990928,-0.0120580025551515635645616342231,0.0261175344753300890665581590611,0.00325129437240600843370130768051,0.0276354067610786596764782530045,-0.0745010639398469010075132246129,-0.0329215465652787087069697236075,-0.00360011189883414992746191174433,-0.0250819315539592968544724271851,0.0930442073747509840186964424902,-0.0795402920231273735662824719839,0.0380983877665498210651762178713,0.0850625998026909857507860124315,-0.00753589290779859821006736453342,0.0518898249721806495426967842377,0.00802571353503443718491183744845,0.0107742838974593767298326696391,-0.0914256554409400290506226838261,-0.0168915336345696609487987416287,-0.0417094928181274415823764911693,-0.00726312215261012625311387580496,-0.0600669801998444663482246141939,0.0101411220076850511900845575042,-0.00330244541626440032619504982847,-0.0670084635779413795297898559511,0.00248327456467596239739203944907,-0.0249275573203406319855446326983,0.0159445637698046246977234829956,-0.029486932839299397762777843468,-0.00371495582853338624992889371867,0.00236166547782132784857878071705,-0.0816222263690385696488505118396,-0.0367754307754288162213285318103,-0.0744518853005114861209889909333,-0.0255247660321564276419969985454,-0.0903703526798332323899387574784,0.0592081671976274551139063362371,0.0746227445195104116537621052885,-0.0539666591129748240973640349694,-0.0531778625285085973506404855016,-0.00569190706690104845921762688477,0.00926531319211200930785476970186,-0.00647593566615513923506730620261,0.00476428674621023028057376080824,0.094190201123805772365216171238,-0.0280174011836020128707325227424,-0.0107318340210852056215706795683,0.0766791656528125614711299817827,-0.0250170722759623237463344480602,0.0535619297845325442741781785116,-0.0666651453686799427833520326203,-0.00240355449771693843036279858438,-0.0269083854039785276557328330682,0.000909412852189613431577730473521,0.0342119332887991026148633011417,0.0142121061663182703116437011204,0.0143403918500446432571227006747,0.0269075173792191826849240499087,-0.022068480809882638077334959803,-0.0328007626788448525267938293837,-0.038394040056235180513599658525,0.0719943178803151007105753933502,0.0845374962771255483717780521147,-0.000430407849035964256648872927613,-0.0641490102261530054095217678878,0.0157880824497811829421056728506,0.0392608604886998807659281851556,-0.0411556590663669161211934977018,0.07871060496629747604835358743,-0.00804399327721647301736584978471,0.0356583970432292687857689372777,0.042440578150092528320058704594,-0.0663945845110125443255810750998,-0.0232636024481286916854028135049,-0.0348827302642819719880051820837,0.00859645796248399013395058432252,-0.0156063634937900781035624575566,-0.0694506272101547278419175768249,0.0734203039956665831633486618557,-0.0480530987298177780786545554292,0.00044456188296649576429178662984,-0.0245405557856457970378194488603,-0.0139092114135207743641498012721,0.0208928510807532066828606787112,-0.0603937206794261036146842513972,-0.0156739665962053360825922965205,0.0486459395200274091752845606607,0.0131790905548879004605122844396,0.019808872311272592708908391046,-0.0549243175777082495714331855652,-0.0186663368575562017837032868783,0.0036433829060194739858646872932,0.0313369953681836843628616406932,-0.0151555601685344730478188779443,0.0378863150439998006002717545471,-0.0905643668051683836672793859179,-0.0205690580705580154663447700614,0.0731620709398814600410432262834,-0.00119895963569969436594842004951,-0.0453077539974312132331490943216,0.0111438042731431541376707627933,0.0173868399691625777347958603514,0.0832033514274019558865091994448,-0.00169116775385018121118096967592,0.0585700113238659600400914939655,-0.064493594534539441798237646708,0.0127104830814462835958389419488,0.010033353817722691705971449494,-0.013041718356031984163423409484,-0.0154649426641646596525259127475,-0.0539795139719709896053423392459,0.0148955376584065900258391224042,-0.00742832447488918790751144527462,0.0951581971287414202231857984771,0.0552299150608291100628122194394,-0.0641916582779201300157367882093,-0.073143879038309794760053250684,-0.0865394867350908342240600745754,0.0133918039150401086551100959809,0.0253255785733227274658663219498,-0.0642273659370310029403938756332,-0.0098553299450778036883136223878,0.0751857057733994055270798639867,0.0582016453499909075519624934714,-0.0647299857684956736481041161824,0.0418774218265600337018916832221,0.0344394082267650836204353481662,0.0434313070688652699824494618497,-0.0525751205087994569198350802708,-0.00447284619622010954503865676202,-0.0382168175610936231012537689367,-0.0144983333574644351893212501636,0.0494584314866154742262871479852,-0.0963667467642587843856816220978,-0.0923362693331046952005536354591,-0.0630855810320573584526471222489,0.00513846191512771360843103707339,0.015087040304829222106541841697,-0.0717145494859516147156952570185,-0.0210126400322481927951390190401,0.034987840125357626275270916949,-0.0546452113909382808376591356136,-0.0664044535460851931274461890098,0.0237649703771780594629969840526,0.115363636966439669917505739249,0.0201563552654199784619493129867,-0.0749316696085794986537109707569,0.163773652123531454627425318904,0.00442041510744627889201163739585,-0.00421828766852944472831588029749,-0.157841640615582312623388361317,0.0366156142932576034176861412561,-0.0332071432268890437411457128292,0.0649451658060487685419914782869,0.0391390192562443076096379002138,0.045354004257655226861611907907,-0.108319444859521982205130541388,0.128199894701778893679744442125,-0.126318753701783303977634886905,0.0625535534225176576006433037946,-0.0438939187931693050592762972428,0.0653755348416787951393303046643,-0.0204754590811912010051010213374,-0.0185845231753123743545508261832,-0.118362687827504933779643181424,0.0166804011085241836453985087019,-0.0217930828314844560189555977558,-0.0392215334822806904746528289252,-0.0214516814813819553520168881278,-0.050397470543126633713004736137,-0.0287090828142110669751740914535,-0.0233054290613951137212112030284,-0.0909823743293049908009706427947,-0.1037161490155666249135535395,0.0227864200823624137026701674813,-0.0192845814350633588951655639221,-0.0140141865327576102540074742819,0.0278497880693888005820824105285,0.0409683241144510601472461530648,-0.0274116512588088619140069823743,-0.153208510271326925344936853435,0.0930017290362973730877271805184,-0.123459938867713614474297401102,-0.0840926247775342361467920682117,-0.126354696644076419653757170636,-0.0196551602046475086538190879537,-0.0163516177654992808654377256516,-0.110442901916371447046394393965,0.0541518773305548761776151422964,0.0280434422407867187110319662224,0.0137221771875011278041256446159,-0.0798643261615569061140362805418,-0.0144089072620217362175054631734,-0.102070815168155554220064118454,0.115705371784013355540565726187,-0.0514150187593751736847558220234,-0.0662992016087398244872375130399,0.0119564455790154410691483732876,-0.0988718204078825879665970433052,-0.0284402375364203804930518515448,0.127449029520953660554738462451,0.045350667664210572715965952284,0.12337797172935988099240489646,0.0114723953494940498348819701846,0.0773477085944620501578583571245,-0.0974180212117928406856393053204,-0.0708760092015975201595878729677,0.0649552573857709453220010686891,-0.0196906956141597554166278172261,0.0323373328556680675327505980476,-0.00294745119900986524835717617066,0.0194508496416965596942372229705,-0.0101658932863955848296955153387,0.0801497921433779042521550195488,0.0489902346407593905497357411605,-0.0677301935564587759275312350837,-0.0513794327636776376744265348862,-0.0285907386594291788861621483875,0.0904365946904506223802400199929,-0.0378699287075878535113737655138,0.0232703826614441625086904252839,0.0240130923417247281459463437159,-0.0262787465945651110832415042751,0.0608244425109064693057980832691,-0.0184758755303397366465123496937,0.00334190825969361837710636109477,-0.0531689684569721932039243483814,0.0472216344598380896591116595573,-0.0613580449112123976762589450118,-0.0283545503516249366993129399361,-0.0650418572256077770488147393735,-0.0827134464247230860589610301759,0.0904631658078791922594774632671,-0.0990349894414468412406904462841,-0.0277248114266093644009192331623,-0.0536308315127514562137278630871,-0.0486725871590376751862905280177,0.0330762121198169556368640087385,-0.0301546560310849455499582205675,0.0355218588382048006124591665866,0.066455173783958612632183360347,-0.0873352010058227046229717416281,-0.00379744162247848448046849689774,0.0447098399556083506145576222934,0.0673866794123565704399680953429,0.0178729700694870569099848012229,0.0179606357506159677872581426072,-0.00185960416984690796692036851567,0.0460620387463100411373773113155,-0.0262717214147680407088092380263,0.0154123365229010770433015764524,0.0440421830584709905753726388866,-0.066821884920688037756697497116,0.0130765176511709619450174457711,0.0194374746175026667793783730076,-0.0437883523113804379311986281209,-0.0655456252626366864255658128968,0.0564745082250832364234582883,-0.0544134435614184938656556767,0.0658076174505538014081196251936,0.0670272527404023321651038713753,0.0255522106961809346292735511952,0.000945265819801633299865328829981,-0.0390252970995156531208714056902,-0.0781680960078233177945605802961,-0.0480127321995774958285352340681,-0.0709628862377772035019418694901,0.0265863042799754159539737941031,-0.0466861976372550321889853819357,-0.0701350287287635237865046633488,0.00189529298177895785468272116248,0.0496262325108637880610729098407,-0.0208916527964024267838283321908,0.0375830678292621150893282333527,-0.0190916053109828620648613650701,0.0342469140206494021549943340688,0.0383381730251532854003571060275,-0.020427644718539639256960072089,0.020351928087308974318903054268,0.011658112911053716831411009025,-0.0173582057767450552432375587841,-0.00298670386633533707643195498349,0.0325903484276911098449502901531,-0.0509187313437631516865877756572,0.00444580266800000730581521324325,-0.0621984532791065303225508387186,0.0450052183754396650794404877161,-0.0227203292793281344530420540195,0.0702488436106579738904542864475,-0.0399721225043238731489125825647,0.0367950203374009590651105838788,-0.025375451917767674614445638781,0.0180844480518225422804867719151,0.0311801101629028687423073051832,-0.0018374672445145565687768529628,-0.0558533770474750751455772501686,-0.0263599468186660815249844347363,-0.00292138142883335621621809785609,-0.0332053021355578140139108711537,0.00954017497294808690389000815912,-0.0213699618410062991413767008453,0.0105759494534929873732487237703,0.0694732037358849335850763395683,-0.0486870812542542635847908627511,0.022165466766456580482991256531,-0.0255184492267809363841291059316,0.0190413826052598968152640424023,0.0176866251330589571710838470153,0.0556285147304586211070009937885,0.0500610330970097175407040879236,0.0132771678247465014371941904869,-0.0758215690997490754376997301733,-0.0403161454274690508881029415988,0.0467741986103905049709794639057,0.0659821943261771348687716454151,-0.0393888570855255373825976050739,0.0357298116167910212448433071586,0.00394107394794856926573123345747,-0.0161665813461000194839467525298,-0.0167621609420124106915039874366,0.0341441960704464628206800114185,-0.0506795957931199733681459917989,-0.0128828171366163826694339888945,-0.0634584183148628744319807992724,-0.0663566020712594295538622191089,0.00851479754471991430453403637557,0.020826353435737843949882019956,-0.0501990842271526696571903869426,-0.019012042646477943924621101246,-0.06594740962011444440626917185,-0.0110658596751658146878360966525,0.00735397308090250754336603122852,-0.0289552608249400642015380924477,-0.0575858496341141376517747119124,0.00652168456553725052471381928854,-0.00703233287999581284377637047101,0.0480494137974593546469570526369,-0.0464768642575001389438682508626,-0.00567352246720182439021495923726,-0.0413491699937424753152903633691,0.0488048001186586338784323402251,-0.055272941968975926319007641041,0.0202572647699200275583919506062,0.00456443374953663816989690715786,-0.0112982741231889578098490645175,0.00740734316569897997123428368127,-0.0320281405475104433144828419699,0.0375230381169864915524847504003,-0.0398312408749392360407526325616,-0.0565403754603989033844513301119,-0.048578014899642883717145736,0.0157814585872911861130774013873,0.0401185278712712506399284961844,-0.00620170690771277340752609674723,-0.0469413193932793765261735075001,0.0449993026592166861510335706953,-0.048122260570453039008054219039,0.0507477051265551246106433325167,0.0418450288567035408315852862415,-0.0419613736778443741082256224217,0.00859272171667895511004697794988,0.0440637916311494501342416185707,0.049839638258070868837013023267,0.0358247024728320928588232163747,-0.0448492231145834960304163985256,-0.0602709584853423699368768495788,0.0508046285824855434198887849107,-0.00176953781989858962252204488408,-0.0560707454579120190274466040137,0.0626663717226193933695910232018,-0.03567202289533199371929228505,-0.0110340534595238584647525215132,-0.0464639809106052251164165056707,-0.0649933475782266401044040549095,-0.0290491040755125259908986379287,-0.0569777838549192713890612083105,0.01056392725225311669812189308,-0.0014744352905745425775380086364,0.0427957394192626308648819133396,-0.0248365227312095024347904370643,-0.0568598139323968007619036768574,-0.00317005903653904720640444026003,0.0505996676526497407566651531852,0.048569722278758747924243266425,0.0598913261092399798468655092165,0.0620371796381806867026753593564,0.0181038337577362241914702423173,0.00468116774332081285459050690179,-0.0141425864337438745438335629956,0.063217229821736664607811917449,0.0203186707159730313432266513018,0.0602633758493572174730346091565,-0.0197227986310543196291078515969,-0.059371484469209062639905027936,-0.0527618535967243756923394926162,0.0631967632147618085802776022319,-0.0456024552643052305533899470902,-0.0614220733273585992040288772387,-0.0115082447141456774286627506854,0.029885431381077836449078333203,0.0623346104752432461637567939761,0.0271689126470658869061391982314,0.0108405984411548677454062428183,0.0171164308753769221771445785407,-0.0430440352860920055766413838683,0.0525013559448867378476322187453,-0.0208589057607871837529689429402,0.0328273031049388583357817594788,0.0448160199251163293698851930458,-0.0663200474148789159700712048107,0.00228821933565068538762865557601,0.053470407876246503486861172405,0.00113086086770673374668483290861,-0.013540670986808719250538146639,0.0261139496296778489403678236158,0.051209717886011307808047376966,0.0497900496296670505569359477249,0.046783778071509456164545071033,0.0572518417215193212155277535658,0.0361550959582205080899974802833,-0.0256045279598729920433886064757,0.0112899848141844935667243987609,0.0236946924652864342186742163676,0.0147636698701874152783730664851,-0.0465748048666253244842749836607,-0.0166333123048246524222637532375,0.0141279907785732006947343464276,-0.0295018260295230802525701108152,0.0589230252971845933074312995359,-0.00707024863897344566648905939132,-0.012986117153171158195013035197,0.000353596925734767889189236189651,0.0190349366555690457936123038962,0.0690264852925951133411075488766,0.00327762117960850914849535442386,0.0549191819022751478995836293961,-0.0201023125594706891794416492303,0.0380617791518750511747803955132,-0.0494176250722694332395690253179,-0.0461686239740273854370578021644,0.0383170358704166963415005398019,0.0191253227664241187699900592634,-0.0647137030682765623801344645472,0.038776814616490185017028125003,0.0634885231186569781725026473396,0.062709187672510893762911621252,0.00539666515663218479548213224462,0.140082418334302932771961991421,-0.0463291809026169648655368860091,0.0419429137704451573953612353307,-0.0470682061658760364508680140716,0.00511591984143681521163271597175,-0.0227490165535217739312123796935,0.0977012809410588156655563807362,0.0394167499403331386687021620219,0.0432287935625912805859272225462,-0.106636719582804254113916897495,0.110943151613777338249100523626,-0.0478052432769791313393881182492,0.031605815742307946658584683064,0.0631515874189300524532697522773,0.0539301387528613659916310041353,-0.0271837345970898404401427939092,-0.0338181458828770153957066213479,-0.0511107600032239817178236762629,-0.0500420178614752464429926703815,0.0247453233035664146854948342025,0.0440837672124853238719843773197,0.0735095798998851857053438152434,-0.0557240939954786462795510715296,-0.0371833825284882610318071272104,-0.0379958093174952923898324286256,-0.000477962203462920247245410143577,-0.0594704744889740857805016105431,0.0979482068854645726574403852283,-0.0388397395601456224545344753096,-0.0442019318905064323432796413726,-0.0728124256876607339750151481894,0.0764706905946193615797312759241,-0.0352360529425113505608280206616,-0.108297822578619182265491360795,0.0169732480429062825011410353682,-0.0157063530593813567570737887991,-0.0546014209680343448605199796475,-0.0401844942161826354509734926523,-0.0661112051741302580998294047276,0.000514190505937518098703020719142,-0.060807179763000714090015463853,-0.0105410334986006208601860834051,-0.0353090242895452502414066486836,-0.104303774865784473768748341627,-0.0111176751322306435754150299999,0.00691952004915057442002712662088,-0.015689007358535067560012521426,0.1026755834861122484991113879,-0.0344017625049476555298966218288,-0.0308875376016133247614181556173,0.0550778860534368794321657958335,0.000972615583517041568106797910787,0.0852487729156423679199860998779,0.119063538946745858804199258429,-0.0193016447354632282584763203204,0.00448556420826068478341364098583,0.0303799972168824830576205897614,0.0166791038027821504619030434924,-0.0731026261378157488080020698362,-0.0890359557836217091475461415939,0.0261162699697514190388947241672,-0.0604725720198156860285543245936,0.0836400688039492801184593417929,0.0204977663058062906098477640171,-0.0599461472298374598022263626262,0.0552292784825444554863693724656,0.0257409379691763071096310966368,0.0140984755747032806938445759215,0.012013318342351593515093810538,-0.0707880488733714230420446256176,-0.0112867218829598679741277322819,-0.0195456016554026168474678115672,0.00472062768151876137323608162433,0.0321250086412999333318474270982,0.00233404330744791917509606271608,0.0564693870814364298760246185793,-0.0591533753822607519246012941494,0.0310919528899214515915705447924,-0.0134476438583459798059571710382,-0.087621987028210987502596651666,0.0275827270081781678046084493872,-0.0135298402806738413822751354587,-0.0487561258739853536914310438988,0.0444204583103358710549635191001,-0.0157315440777822321272161332217,-0.0161646727800451132928127861987,-0.0635290340029753403117140919676,-0.0793687023305640615422618111552,-0.0213668834337490780306278992384,-0.0501402017986774667379634706776,-0.0267095152638408966927485721499,0.036283798600464101102858194281,-0.00141488793465171461966045640679,0.0113270091198485536865270262297,-0.065780555725306111281014409542,-0.0559344154361272466458032681658,-0.0127794042658496143083368679072,0.0368839007636774796061729375651,0.00587125133058977871636230361219,-0.0243468380035170538222555336461,0.0687575782296560161777065900424,-0.0354025526241288357454095603316,0.0307476032256257005015331884579,-0.00574318730341412918283250377272,0.024897810034651867566735106152,0.0256045927969700375104178391439,0.087874409971010258857404551236,-0.0548704945249661596440304833777,0.0229147865544543360982743251952,-0.0216689943704702452087484942922,0.0663055759946517553338196648838,-0.00510714172201165265974065476939,0.00269044952975707081510581275552,-0.0268873438474465653591494174179,0.0494600141118359329372999866337,-0.0230214511538088389963618851652,-0.0349473991796396196707341630372,0.0137630984004642811791008227829,0.0658866445034009817760534133413,-0.0594010926247588652571174350214,0.0516084991485145430645253838975,0.0162369728143159468281009338853,-0.00979209720937647930261160666987,0.0522297646224182329777185884723,0.0557964647569020866235689481982,0.0479719645960389809435930885684,-0.0484800668398874534670284219828,0.0194466861019637130003623326502,-0.0580826047487753641118679581723,-0.0638883360055763904750136816801,0.0428781150660561480303378800727,0.00336863684553772224292145232027,-0.0390779989221106197061494924583,-0.0952923033466425289939039089404,0.0317635623478327022706224624926,-0.0335136640563684223836915521133,0.0279317044696431350525589465406,-0.0240200451925387525875521532726,0.0010384711038036809407913985126,-0.0706907484856772044823358669419,-0.0716067198494446527368140209546,0.00823779223887082141797311152231,-0.0317674505366362866509710727314,-0.0718038597353146540447355050674,0.0142279622637763013964784519771,-0.0205070977579382800193297242686,0.0280040102979222868539999069526,0.0542540282646300428548435945686,-0.0640030582048269069961321520168,-0.0514434223877928836765605069559,-0.00160762646986284635057529168733,-0.0146428683270826455464774795701,0.0482830330483447547895714535571,0.046874879075888747914646614845,0.0102119950696272429602196041287,0.0529738278381062799304856980598,0.0192760570004423641143898038308,0.00851712866171739323151168576942,-0.0786227462555783435105283274424,-0.0752410760114752830141071626713,0.0433722352996851814865841845403,0.00775658326902522402696016357027,0.0782489117563640729224871961378,0.0532162326427093670955237314502,-0.00481941071414278970896916121092,0.0181109039732835520875031676269,-0.0385829028624979780692783037921,0.0918655015145746350890831877223,-0.00690536083335068114064103639294,0.0160405875673740525022559211266,-0.0162543811328450041320259344957,-0.0268420137044515470792216405016,0.0357054005499878659990464768725,0.0246118198186085386514054818008,-0.0404636446057312706980901850784,-0.0464494688919313281072476229383,-0.0408976272476343563622158683302,-0.0568465699876540761503740384342,0.0209410317331533805951249149757,0.0352135108300131519087905473953,0.00504361278105163249318998452964,-0.00426381518845747684715030700886,-0.0248531535569358093262781750354,0.0239057076785766133009136780174,-0.0504586572322895110520590833403,0.0161184566688876464157775814101,-0.0409474636420278231829783521789,-0.0429914646216285403768075923381,0.018828646497011509303165510687,-0.0472724759950521600249118137071,0.0807391863888263228155039996636,-0.0272700789619487703185907179204,0.0147211389608008537399630455411,0.0676938165126705487795177873522,0.0344221615127509941722827591093,0.0180993380704988875151695282284,0.0847372043026765608964012699289,0.093812952445792879840880118536,0.0557133805200714371519410406108,-0.0144903955869386310423285735283,0.00755093323721606549114859774363,0.0563353823161771641303552371483,-0.0113863044240843144100372441585,0.0047859678161085977138311520207,0.0292941331174253333236023877362,-0.0204653346756441638365497937002,0.092174349579761089001905816076,-0.0389393988785498301741228033279,-0.0359437250356165749476389237316,-0.0777940332325892658360544373863,-0.00197213944056289988693286829857,-0.0753375032355102086656373217011,0.00464290006088020727748055804796,-0.0310612224860631024048185366837,0.105022161448997078392331161467,-0.00897566253998154442439449951507,-0.00413525248392167775468575285913,0.02782659603378877244406197633,-0.0425559294070669072440615821051,-0.0800456538246417520499065290096,-0.0462459816779884555493218556421,-0.0298048371366126524373285633374,-0.107961196610667622963752876331,-0.0419960696184410731124359017485,0.0103417874681976645206971099356,0.040507120032339805071330829378,-0.0882401470392829706534953970731,0.0320253773943622102593486999922,-0.0144306998902952194480109326946,-0.0610275480133699796403412562995,-0.00285557858735792412588350153158,0.0463774212022910539698905552086,-0.0833558546242844367046842535274,-0.00123694574318664670016520990004,0.0973122456094732135589708832413,-0.0781274484606149233201222159551,0.0244347022966672662580567276791,-0.0467463080011927892276624163514,-0.0167721352000096968204445602169,-0.0627293381697390795004309893557,-0.0629197048944875464426829125841,-0.00519056259554482105067485520067,0.0548773852059345201848117312693,0.00555476589533825809708034171308,-0.0159447970621745330199736656596,-0.0304194101895425110526627321406,-0.0876700634931639882774234706631,0.0866955268223384700743139319457,-0.0534437359555033908442567280872,-0.0880796469280310245775211797081,0.0737585860728916381523490031213,0.032358351941505346383021191059,0.0430170725144117249705288941186,0.108562085938576344257278094574,-0.0236682651517206542324256446364,0.0126036482569807303799613862338,0.00786889105835271093769556216557,0.0214550231040500534451798131386,-0.0716279813001737680755454107384,-0.0621448988856326961505160966226,0.00383354865861261408926941030018,0.0496504577109328215644978854471,0.0122486614444505571841492752583,-0.0328454320246923600623567551793,0.00704540077564832015188933667105,0.00853156320257723518873937962326,0.0538427124328901690608617514044,0.0601894366918957410272916774829,-0.0350358487702625009951873380487,0.0229075842701669703249667264799,-0.0558666550218965760055134239792,0.0348455732970507844892260607139,-0.0360870483046452014685989695408,-0.0586781011900425267246994565085,-0.0373371991967598043649090300278,-0.00183382725059062345190907805659,-0.053561576866928181650528983937,0.0412740515074478953039260886726,0.0123262301861794855428744455139,-0.0339010981478283512924321030368,0.0208582923653244968476005993807,-0.0821181892990192480175082323512,0.0334521325956732562545425935241,0.0289254820708694203312827397667,-0.0736632580376334056282416895556,-0.0163790086259048839334440117455,-0.0965081830890832936820089571484,-0.0773150527205688359311253066153,-0.0990759389828811259937069166881,-0.00397571596400152216244094915965,0.0148964108992920112040092561756,-0.0561601110123643512683777601069,0.0343400585571269068019262249436,0.0621668358940466320161633007046,-0.0144448163897268489624936549376,-0.016319910630515944982565912369,0.0687031367708169499186610096331,0.134912432273720434006136770222,0.0906961183771691770161282875051,-0.0792635720032718316119257906394,0.153220363864512959528596525161,-0.0289787251321308204909943384564,0.0282882275002032182453781672393,-0.0786229070455959216934260780363,0.0819825123904364683191658969008,-0.111620268370901346011159205318,0.104536751221298504499479520291,0.0247796048797088441784097767595,0.0261490156292700087758973381824,-0.12875569637190717453556487726,0.138905550420474421802197184661,-0.118229263163082576326701200742,0.040170846278221296332677781038,-0.00466081124882254151098326389047,0.117673682191892683968070798528,0.0352395838497381388987328421081,-0.0656210358291111350848012762071,-0.0392721076527649468057568071799,-0.0524721333634770234488620133106,-0.0997390860902076514804548423854,0.0549099722623099459339890415777,0.0502295133794831288875926134097,-0.117520771998090384213853099027,-0.0834099025300023416695793798681,0.0649083482650896770316251149779,-0.0331128792987102626987905296119,-0.112717129970171789365984693632,0.0340069179394350620815323793522,-0.0183914022339954040530241030638,-0.0363640568086846943662848730128,0.0233277504405475094584332396153,0.096727928393142773022539415706,-0.0876582342434798628127978759039,-0.148037614297697295295819230887,0.114798848127475233704686274905,-0.0813043041534972643624712418386,-0.0724218860039119449734101863214,-0.114127695821688399102633582061,-0.105861575502517957225734335225,-0.083707055680752318060910965869,-0.024577735578329949761577921663,0.0523382025976381198839604280693,0.0658122230928004231520489497598,-0.122201854496728559706930639095,-0.13173846674467748485426454863,-0.0207864771729787678467005207494,-0.0568409717592900792793031428118,0.129936305097767240690487255961,-0.0332341174696792612808238231992,-0.0320711558348780248484111154994,0.083108612218129762627683021492,-0.120521077290885500477024550037,0.0892645637484999338040481120515,0.166312062097126983628569973916,-0.0090867761396142606583614664828,0.140730973480070215009263279171,0.0361595360379681346474356473664,0.17983735015654514488581128262,-0.122459046704060103838429540701,-0.136329517988669157713133017751,0.164929011026079042068204216775,-0.0211296554986990618718589729497,0.0980504470358078000780110983214,0.0304147106406907757891744381595,-0.0979532221084094545382470187178,0.0632971321896457633782162588432,0.133139883049812640658515761061,0.0582345432143314481465701248908,-0.113070015026526859980293693297,-0.091442715150094125431401437254,-0.113317693265384683565244472447,0.0274549219052321949452455385199,0.059874068953310079221896700119,-0.0188330401135562916503651820221,-0.109656363491581226865534404169,0.0411048441156540642071881563879,0.0283206802853753179805007533787,0.0403882309922161675252993973118,-0.0820833669373545321557017473424,-0.127929421185202119026769196353,0.101746709564477580411967494456,-0.0948944013793617952012837690745,-0.107188672781606403328069632153,0.0225585210547197198560631647979,-0.153808536351220020987895509279,0.110360852383889207484202188425,-0.158350292930178659922546557937,-0.0808986238193885875968902610111,-0.0494899552874003834102012433505,0.0449574926631451793346272438612,0.0240298059827709735436496174543,-0.0712011878195723535434069617622,-0.0109009063939108693380708459131,-0.0230094702629404894433928774333,-0.0924479981868639721920288820911,-0.0295908645259806112048917015045,0.0278815362637274688495381269604,0.100785774709237163637709500108,0.0899946668999929144661109603476,-0.000873655221958519797448294852416,0.153703160917626258097357094812,0.0340487298518439077121833236106,-0.00569626381538494274553441343301,-0.132448385784419558897084812088,0.0715128103941181508806934630229,-0.0321130161716963458129470154745,0.090968447295548468534143182751,-0.0192287544857727872582575656679,0.0300123092917117216538169799378,-0.0986754929850134909763426094287,0.0850783046668601161677258915006,-0.041481158889496064223756377487,0.0321071132849302526279799963049,-0.0104949956327178781090303516521,0.0985548562599340566281469477872,0.0601280727797985220517418269992,-0.0218834336340620362604258986039,-0.000727478713779908378253558076665,-0.0464734191841398927569350973954,-0.0822333531113035864912319539144,-0.0190443292250726675662875209127,0.0921895771099662669767482725547,-0.0784187748361288849974215509064,-0.0399629963199341353696780743121,0.070291658264931985988788198938,-0.0462702671788838976185687101861,-0.107042270283420060117407501821,0.0757381445953383553026938557196,-0.0542047331149807173900079249051,-0.0779402643822012103358432000277,-0.0447976548734152352215787118439,0.0693460359355215077981071658542,-0.0624234996704509242926306455956,-0.0205592321043912285016830310269,0.0775767407865808888978165214212,-0.11673456209171143016511962287,-0.0245563882994941813653344553359,-0.0378567246779239752196843937782,-0.0701884766448494512580680293468,-0.0366490276254448840709265766691,-0.0847395261867822657819715459482,0.0305120875316111303532373710823,-0.0412099240029795699236103700969,-0.0548616041675098961571954703231,-0.0658538096651023890926168746773,-0.048368040003323065079143816547,-0.0905977728527718045858918571867,0.0504817334425630634409110086835,-0.0279052428544299506441017655334,-0.0457337712844249622001768784685,-0.0402984842678628940593199558862,-0.0532460360900866014333132625325,0.0316643954450210804441034895262,0.10455883259585159461568792949,0.0751229517284455611259019747195,0.0134242386290184412961368209949,0.0370532201965405316723689566061,0.0325671915150871488231487660414,-0.0812009771283518089202146938987,-0.0709476918248157367719031185516,0.024868228000798704019347340477,0.0540023507797015370202053929916,-0.0150221304409834544718593818402,-0.00977011398638495155710703699015,-0.0423150456144445741291093554537,0.000156422395323392295031147969375,0.071533772944135168292412174651,0.0438253459606568404605120292672,-0.0310813261402968603330787544792,-0.0356883097652158365331587219771,-0.111826682303386826244917529039,0.013710586003390819176406267843,-0.0465448200357732114196274153528,0.00410050524871531391762902174492,0.0101758537503701586984794502655,0.0419537090152749814198074318483,-0.0595824437433587900114773105997,0.0431570427934309733264406361286,-0.0521219882581545959632229880754,-0.0783124593930418083642663873434,0.0545923060136769902617182026461,-0.103111530089960642952995328869,-0.00774352803175969855997706758899,0.00916050596179290681220219738634,-0.0687332620524079701551656285119,0.0722805316651388557458446371129,-0.061141577477671488205501759694,-0.122067946877759930801587984206,-0.107904704850453975195634370721,-0.00597903424146943758554773040714,-0.00528306459637995027428525318669,-0.0617761799934071556550385651008,0.0200702508387144776258459444307,0.0530396748982566654251336046855,-0.0559728672240327185249952890445,-0.00985948607308546540184401862916,0.0443246714212333983717861940477,0.109538714592949823489753669037,0.126473734230768769526420669536,0.0250357513875919014678661511653,0.0904305622074766529694400674089,0.0444993758370017741810009681558,0.0351369848687504565676320567036,-0.10898814163085010497944438157,0.032929617310824887965736706974,-0.0514150345872060043905804604947,0.0485119471508032723550130071999,0.0349336714004486251217151959736,0.0322192869883180452172943830647,-0.18263487760065480469684473519,0.0693183702824091418914775886151,-0.0338858710105606961149327105431,-0.0432438785304526743247244269241,-0.0318939879981741045145149371365,0.138100035035993023990741335183,0.0598480354368728720282355482141,-0.0934098737309730364763993293309,-0.139103094910352609314685423669,-0.0485771345061621548366836975674,-0.0304863440474469928054279677099,0.0851259230950740797272402460294,0.0150059407576323619593061664546,-0.106995540563276453349672578952,-0.0605488536892140605250034468554,0.00642717961792853807734271498475,-0.0357764814890795951329849344802,-0.133545224040354598704638533491,0.125610953881907100315729053364,-0.0511907156638407370707888333072,-0.0932255289685269827870683911897,-0.0557582259078610795177688430613,0.0577049182866071971864663225915,-0.141026404697582513625420119752,-0.16349579698624683299357229771,0.1139728737627070387361527537,-0.12735670374268939775141973314,-0.0152766058512114819012417399335,-0.121863061109011544536073756717,-0.0745379402172580696195325344888,-0.08611330390668404943799174589,-0.140109008285438929597432888841,0.0141419565795015828024716597611,0.0236229107441433480718551152222,-0.123906301631969945065137039819,-0.135831613832245068351767258719,0.0174828576713871620962326147719,-0.0999105572032717020869441171271,0.115077078524315423724289075835,-0.0325763590989544757348106429617,-0.144087437372672350077706937554,0.0690186722009676068001482462932,-0.0283246879670525468497555010572,0.0796751533243729992417314633713,0.109314127317587217458338955112,0.0531198620772345628249233584484,0.0736097577196679342392826583819,0.10653007081513879428236180047,0.165601283275987415377628053648,-0.124651680898961045307338224575,-0.108107737904244743942783202328,0.0959619651141709745223451477614,0.0425464839575192821374827190084,0.0867166242292437688954365171412,-0.0988238300395634233774799781713,0.0207512710257328480967231598697,0.115328131170235048674754807507,0.110110276486082611646644124903,0.177719626896640670032923026156,-0.000368578407037840546922602413815,-0.0191612623002548436434988587962,-0.0740746477575684042493620040659,0.0368385091069898112925429245479,0.0315850549385010351266522832248,-0.0904578530497117810904583734555,-0.0395949394110976377048061181085,0.078446559692959258458522242563,0.0591052551817416935153737256314,-0.061015216017087758881842773917,-0.00358009508387121784880879893365,-0.033021137948950556040283998982,0.0310725229729375586329442882061,-0.107582624864598505598500821634,-0.115898326945709326252220705555,4.54346382366608539556118717684e-05,-0.098965952205973733990518326209,0.09778041108743606990572061477,-0.135804140033691705946594652232,-0.0244061614884646463363715440664,-0.0990987219119057044514065069052,-0.041708132080327961488386279143,0.0573161365964883276480357210403,-0.0602702219204117942141785135846,-0.0395802919956190837891263356596,0.0626412073777823374953754864691,-0.0771127496757081226652630334684,-0.0751966431491872117076624704168,0.0296596648292563325188808676103,0.0742418972205243915540862076341,0.0826116727302994985349116063844,-0.0816330870306739841968379778336,0.128842821464126205954769943673,0.003842097690843889520179166297,-0.0278517706646200791098522131506,-0.0764167897916864652385626754949,-0.026045336514315172576905510482,-0.0300175108837807402828445901832,0.0145735039243829814226138807953,-0.0756419436014395402123611233947,-0.0139769169679283492696564294988,-0.0607415261034718670374310534044,0.104081267734300028648952718413,-0.0166304433597456585713914023472,-0.0303940751755114695054071916047,0.0153368298059610667222196767057,0.00544598090779037716235855270952,-0.011013626896427054432936465389,-0.0628479888558603205783725798028,-0.0253944263670044870218056587419,-0.0502581810011134555438161441998,-0.0379627788127585089061888368178,-0.0180888795672399620151349353137,0.0387932478730870430871924270377,-0.0738291129527330058923695332851,0.00478227290719457354128962833784,-0.0238333970827822941296325609528,-0.0391595816707855440275132252737,-0.0285723305388030229812201810091,0.0283514215960125465221253193704,-0.0645432315622493923967795126373,0.00781236588812758182831519349065,0.0370286524221968560421913707614,0.0396816588525015639943305245652,-0.000371527048275838535969922693525,-0.00806573289201456891661656811721,0.0865544449646920011076645096182,-0.0121508787353628439076302925059,-0.0922505569227137917076575490682,-0.0588580507695232527098916364139,-0.1097068643362515000250212438,-0.0276141717222946510290615407257,-0.100023530154086492949261355534,0.00830987547369256736307097099825,0.0401650208271440573026822562497,-0.00365923215987460975426315279435,-0.112222831676810519407894162214,0.0301452572290620314510167787603,0.0319369768100690107348604840354,0.11021270917006664724624442897,0.0158965769840320458872184872234,-0.118560455013663038070781396982,0.0692100338658633434940625761556,-0.0103688263819898349865633591094,0.02786668000307896200795632069,0.0471028311770193483520863253489,0.0811794906643517194533288261482,0.0339658720576563183390916833559,0.0562377259540430898820950744721,0.085000336950528915247460304272,-0.119283891934546582014320392773,-0.0919921266974661200332974431149,0.077850116698356133793090805284,0.00441911178030866824695266359413,0.0441233504328889247769751591477,-0.0241989490895446225648957039311,-0.0264274206823935375876288844665,0.0849817132773406647139324832096,0.0504610323560188978042617691244,0.0177184822639652878040195105314,-0.0449607964558035519408996094626,-0.0905223962686205613215051357656,-0.0404212934032895723768241680318,-0.0424162273835712866354441530348,0.00321598980855248911189803173727,0.0160833256700759902324548988872,0.0101038809370255205227762118625,0.0200260765532862816673542738499,-0.047922890911309218298086420873,-0.0448057660520023576244952323577,0.0254479841554139420145563832421,-0.0242946769216045369010892329698,-4.19303191865841865448513714476e-05,-0.0326577231586520078110424947226,-0.0613077303789711230974646127834,-0.0402763148721715646960461754134,-0.105348335458033667832999924485,0.00472294803961175076179035414725,-0.121800059511809333212539740998,-0.0736567182705972489653589718728,-0.0699348114724578501233409610904,-0.0184492647163847292568483737796,-0.0219528758752283968680441006427,-0.0261438634821898781279703172231,-0.0371782010353291780813123068583,-0.0237250448539239357226282578495,-0.0389562683158235847913353211425,0.00780603427659570109353737166202,-0.0171019272990352681762526998455,-0.0555795426595761254962013708791,-0.0405751115755310365340591260974,0.0784485455270808595962250819866,-0.0813597903358093121894967225671,0.0493617161987275829271304417034,0.0431983018810696908773572033624,0.125995904134287711739759174634,-0.046385017476681243697722578645,0.017488350847278479743840406968,0.0187542034275984190183628186332,0.0082496385480567771542048660649,-0.0575776753743370076077390251612,0.122932011355874892810646770158,-0.102199095166927753086660857207,0.0198073162404190025731587354585,-0.0569115724188985275255880935674,-0.0135531842920650902328816300724,-0.0917154804679718299587065644118,0.00635993426927623263511524243086,0.00930016917423905249695526009646,0.0908707450072884781455684333196,-0.0685830309768503953993246113896,0.0500571835329574749140491007893,0.0216947628657370994442743494801,-0.0144493582746104184261204395057,0.0147384233562334928530068722807,-0.0369409291478969073474480921959,0.0207910124917261504573495756176,0.0463488170942859059597829229915,0.0954003020946852381412028876184,-0.0102880732485097926148798208601,0.0285072403330230844664683331757,0.104912798295264175774121895302,-0.0272723431393234391761914992003,-0.0933366885513913502325777926671,0.0982250517631259867368243021701,0.0922032074020467246056043109093,-0.00814433891897212852706289254456,0.0961669348656510603046143614847,-0.0297254815608337975840758105051,0.0888012843652105920977390951521,-0.00860310252523462451468283518352,-0.0365681344542523462104455234112,-0.0110008745628713665992703951702,0.0233918528588512621146922043636,0.0561792962554670746722074170521,0.061662747633470460506543986412,0.0711711347953390555121089278146,0.0385680574663503916710283192515,0.0180847337997657349462077291946,-0.00450011162486914882696620310298,0.0534286760426036788640402619421,-0.00918880193441225408268469010409,-0.0621355832947612582439766981679,0.0110097087664458512246135057921,-0.0011060242012730227105510305563,-0.0248070689026017553169278784253,0.0483773702228767199517989183732,-0.0786281311789136794221377613212,-0.0855533934947570878781775149946,-0.0856540173099509249965421986417,0.0859268526787896336216476811387,0.110470549836296463852569615938,-0.0861426921526789873828633403718,-0.024948731560331231099647553151,0.0274274434318441673319455276214,-0.028950850354509161804772432447,-0.0418778678451015157202519390012,-0.00079000286994546759476720776405,-0.0662237967474627042818724476092,-0.125441557114762541891295200003,0.0757458150792246348581571169234,0.023641036143000154073900986873,0.0647853580217896962700763197063,-0.0203929276132285321188053472952,-0.0373457281631978318947595596455,-0.0278068187476041457639741594221,-0.0196163099046935546221348545259,0.0423141469899984135061288270663,-0.0158159560640102996031952642397,-0.0343779023410612921685114429238,0.0134224855609120265198530574935,0.107624395701221592380747438256,-0.0637059794409236129775209178661,0.0737440881678511628294359070424,0.0793222448681584479945883003893,0.0473737817791526211186337036452,0.0464310541843064861211587412981,0.0178616953604584377535147154958,0.0923095531368217231404926792493,0.0270552871706938417861731949188,0.0324818681416565169239873966944,0.0178245881867016009447723945414,-0.00561455195615003649356467008147,0.0328746665145409205921467332701,0.0770003798339777140169459812569,-0.00325905239673138398537322046877,0.00027257750476222423552732920804,-0.0356734902064824999090575374794,0.00619218916078767382671355079538,-0.0178930702350745818307586887386,-0.00369235147621903726095071718305,-0.0325010073642798755222393936037,-0.0304200922537713087934196920514,0.0336189043923902780575119209061,-0.0479354708215131430915079135957,0.0159591934601843836449841518288,-0.0198244472582372287250418452231,0.0784391459867915807890881296771,0.0306527008515346949257818209844,0.0426812070675601298863632848679,-0.0585423819154295699274115349908,0.018648056407012496282771252254,-0.0489827961034192960187994003718,-0.0178865953701299144895653370213,-0.0136453213820288757340826180098,-0.04522807574855967210902818465,-0.0263765479502578899240194942877,-0.0338701808572329440827353153054,0.0206699907029346541254000158006,0.0251285632160743212237807853171,-0.032195967021247065553701816043,-0.0146681856254274687462180182251,0.0309222573602920373925240227209,0.0445164287997593388634953726068,0.0726256244409680395968109678506,-0.0234263172675908057374094539682,-0.00398833459298672185489031960515,0.0246498403190544869423295182287,-0.0124129267373107154276423713668,0.026652914083898290864560465252,0.0320923495141148679143938693414,0.0113599591736616416931537898449,0.0186287728659937264208412699418,-0.0464691284829678794010554554461,0.0493055675285967859311497818453,0.074302394469199409265947053882,-0.0421688910886923798426728637878,-0.0124881329342026500123230547956,0.0446096341725561035262970221993,-0.0070692058083718098751568881255,0.0148443686410825049365458383477,0.05026450354713142554263782813,0.0315600672234080809053224925265,0.0336455661241233244806991820042,0.0092127036992055936354129030974,0.0148443468969797175149860635202,0.018265328755268820520862860235,0.0150475634415737028609649783562,0.0529307814982865054709293417545,-0.0978064269277792025514273177578,-0.0230777665916614485586144667195,-0.0273106859948304275809149999077,0.0396423592698157759017796308854,0.0779093096169112819815438797377,-0.072807907834438467808979567053,-0.0727540567605010901619522201145,-0.0418634917967255978932250570779,-0.0843451955837575817476192696631,0.0336513451097411736556708206081,-0.101245252863444226698597105951,0.0311040135374273836454950270536,-0.0146097628308855410211863912195,0.0331825798568050750469993204206,-0.0584692907566893016468867472213,-0.0213159393018437712252755034115,-0.0312793349502717213383995442655,0.0580154258553616034022049063879,0.0242015011175746239113770741369,0.0253571408451408498996304530237,-0.0813632848675509001701300348941,0.00895264248180475605276562589552,-0.00761996910041130674773324216176,0.0224485883360595883662114147228,0.0022294598214975722659525469993,0.0223105918835202719774368773642,-0.0431168049861468116734641853327,-0.0501248858467911034830777339266,-0.0488286540681471675773295260115,0.0320303408071394152267785671029,-0.0105243810319874363246039905562,0.0373311754086637151428540448705,0.0152099340994296377410632814531,-0.0116885049957167856671258476808,0.0393541149468868076133354350077,0.0802564974622357735212219154164,-0.0570348014265163599789687509656,0.00163519235029553340436681008185,0.0255053990828772308985250560909,0.0612242268204228265449096113571,-0.0325633786075242639967974866977,0.0145999147510188671816866445852,-0.0619264645772472296925137413837,0.0125932255229232147042406353421,0.0559582846759927726720817986461,-0.0440575318019063785768274499333,0.0139287129250080573411585405097,-0.04304297167455543859926336836,-0.049119422017830302595875480165,0.0452371707808127063166203640776,0.0571367182736697981626505793429,-0.0369745426941093940920168847697,-0.0111674494107316286950482009388,0.0387516000405176974652476928895,0.0385542576555773439106467037618,-0.0619358284778414522331324576498,-0.0606864700942973331332375153124,-0.0136533618116093154876145021603,-0.0540127016198185122552999359868,-0.0314449963547526190055236838816,0.0181306740773123746535144817926,-0.00123294408019536394505166754243,0.00572921974081647741167122589445,0.0246203577049870260540220812118,0.00162116019427211788608844678095,0.0143729138357581061324896865017,0.0252110507085988207187643439511,-0.0509325837481253429483984973558,0.0519598868602975452746228768319,0.061008346854671546832804551741,0.0256943521481294012698270989858,0.00446947784536435351737670984562,-0.0227459037450751661024739291861,0.0423175114027215110157342792263,-0.0352245621008083417691203464983,0.0267048462095996474996439928873,0.0590332106402358600116819786763,0.048535494169674696374183753278,0.0389378294769970323407903833868,0.000110752832473871032641261902274,0.047488494803205473504537081908,-0.0293476328698926217097842084058,-0.0325485124771492662087979397256,-0.0265862848355211262019182072436,0.0188992161439366194997102610387,-0.0635209151949323036490113736363,-0.0212485421934437111735061165518,0.0330297142698153314843700911752,0.0619655371672278923456111954238,0.0531165666648145545769565956107,-0.0663858381983514211910346602963,0.0180372933789238916457708938879,0.0607622338474438847266689833759,-0.0599608196594607414930955258114,-0.0206846452073809541905013986707,0.00318424676271331259791441681273,0.0178582065793692623678623476735,0.00345664326472252354457981304847,0.0109256193066372131461605476943,-0.0652819496150476297202658315655,0.00222039236496969234063714182525,0.0477539180956575576297851171148,0.0046873166457685666239085797713,-0.0118715190353775330162067191964,0.0234343848122413878076741866607,0.0347566747741922324466123939146,-0.0500263512944341889876476159316,0.0186012894187301582038518432682,0.0215284329290330624095961553621,-0.00579672008208363242348637456303,0.0202213318369752169390007878746,-0.0597161546701977102857838985983,0.0326256797045203564278104124696,0.0634961877129318341683728021962,-0.0196850769231754069155115871581,0.055054234295982572289229750595,0.00452846455186967436490341754052,-0.042468623718625198026899170145,0.0181563223813277566098811632855,0.000500501485529410389090088084885,0.0199727042573402055469777849339,-0.049743660710066507635307431201,0.0239311448877220118991449027135,0.0233266580843187881777467396205,-0.0407181501964403932958269649589,0.00684393657687313618220859012808,0.0277349485257463272691591527064,-0.0246055347575570085294494049322,0.0217862345479502214629086154218,0.0506229992241074150394197772584,-0.0202022939971705471629004335909,0.0211230778407933729445833392901,0.0342313783079384592600291625786,-0.0092624648297148903103304107276,0.0152560523180467859372111405492,-0.000937057670817490460414556086022,0.0299036138618566926794528626488,0.0319455167453614047312626667008,0.0273072441526282932988678453512,0.064501509838736287294480575838,0.0264278575348138207445902736481,0.0535946803875722438403883529645,0.0616482271757716263071991136258,0.0562225255683279148688491488883,0.0456473378370469834441891521237,0.0457830701705493961495285759611,0.0422074748665589236096273850762,0.0542243743025452723527379816915,-0.056946210298346025546756266067,-0.00401173911227609841789742972651,0.0397373517839634329829046066607,